FANN_FLO_2.1
num_layers=5
learning_rate=0.700000
connection_rate=0.500000
network_type=0
learning_momentum=0.100000
training_algorithm=2
train_error_function=1
train_stop_function=0
cascade_output_change_fraction=0.010000
quickprop_decay=-0.000100
quickprop_mu=1.750000
rprop_increase_factor=1.200000
rprop_decrease_factor=0.500000
rprop_delta_min=0.000000
rprop_delta_max=50.000000
rprop_delta_zero=0.100000
cascade_output_stagnation_epochs=12
cascade_candidate_change_fraction=0.010000
cascade_candidate_stagnation_epochs=12
cascade_max_out_epochs=150
cascade_min_out_epochs=50
cascade_max_cand_epochs=150
cascade_min_cand_epochs=50
cascade_num_candidate_groups=2
bit_fail_limit=3.49999994039535522461e-001
cascade_candidate_limit=1.00000000000000000000e+003
cascade_weight_multiplier=4.00000005960464477539e-001
cascade_activation_functions_count=10
cascade_activation_functions=3 5 7 8 10 11 14 15 16 17 
cascade_activation_steepnesses_count=4
cascade_activation_steepnesses=2.50000000000000000000e-001 5.00000000000000000000e-001 7.50000000000000000000e-001 1.00000000000000000000e+000 
layer_sizes=71 151 101 51 4 
scale_included=0
neurons (num_inputs, activation_function, activation_steepness)=(0, 0, 0.00000000000000000000e+000) (0, 0, 0.00000000000000000000e+000) (0, 0, 0.00000000000000000000e+000) (0, 0, 0.00000000000000000000e+000) (0, 0, 0.00000000000000000000e+000) (0, 0, 0.00000000000000000000e+000) (0, 0, 0.00000000000000000000e+000) (0, 0, 0.00000000000000000000e+000) (0, 0, 0.00000000000000000000e+000) (0, 0, 0.00000000000000000000e+000) (0, 0, 0.00000000000000000000e+000) (0, 0, 0.00000000000000000000e+000) (0, 0, 0.00000000000000000000e+000) (0, 0, 0.00000000000000000000e+000) (0, 0, 0.00000000000000000000e+000) (0, 0, 0.00000000000000000000e+000) (0, 0, 0.00000000000000000000e+000) (0, 0, 0.00000000000000000000e+000) (0, 0, 0.00000000000000000000e+000) (0, 0, 0.00000000000000000000e+000) (0, 0, 0.00000000000000000000e+000) (0, 0, 0.00000000000000000000e+000) (0, 0, 0.00000000000000000000e+000) (0, 0, 0.00000000000000000000e+000) (0, 0, 0.00000000000000000000e+000) (0, 0, 0.00000000000000000000e+000) (0, 0, 0.00000000000000000000e+000) (0, 0, 0.00000000000000000000e+000) (0, 0, 0.00000000000000000000e+000) (0, 0, 0.00000000000000000000e+000) (0, 0, 0.00000000000000000000e+000) (0, 0, 0.00000000000000000000e+000) (0, 0, 0.00000000000000000000e+000) (0, 0, 0.00000000000000000000e+000) (0, 0, 0.00000000000000000000e+000) (0, 0, 0.00000000000000000000e+000) (0, 0, 0.00000000000000000000e+000) (0, 0, 0.00000000000000000000e+000) (0, 0, 0.00000000000000000000e+000) (0, 0, 0.00000000000000000000e+000) (0, 0, 0.00000000000000000000e+000) (0, 0, 0.00000000000000000000e+000) (0, 0, 0.00000000000000000000e+000) (0, 0, 0.00000000000000000000e+000) (0, 0, 0.00000000000000000000e+000) (0, 0, 0.00000000000000000000e+000) (0, 0, 0.00000000000000000000e+000) (0, 0, 0.00000000000000000000e+000) (0, 0, 0.00000000000000000000e+000) (0, 0, 0.00000000000000000000e+000) (0, 0, 0.00000000000000000000e+000) (0, 0, 0.00000000000000000000e+000) (0, 0, 0.00000000000000000000e+000) (0, 0, 0.00000000000000000000e+000) (0, 0, 0.00000000000000000000e+000) (0, 0, 0.00000000000000000000e+000) (0, 0, 0.00000000000000000000e+000) (0, 0, 0.00000000000000000000e+000) (0, 0, 0.00000000000000000000e+000) (0, 0, 0.00000000000000000000e+000) (0, 0, 0.00000000000000000000e+000) (0, 0, 0.00000000000000000000e+000) (0, 0, 0.00000000000000000000e+000) (0, 0, 0.00000000000000000000e+000) (0, 0, 0.00000000000000000000e+000) (0, 0, 0.00000000000000000000e+000) (0, 0, 0.00000000000000000000e+000) (0, 0, 0.00000000000000000000e+000) (0, 0, 0.00000000000000000000e+000) (0, 0, 0.00000000000000000000e+000) (0, 0, 0.00000000000000000000e+000) (36, 6, 5.00000000000000000000e-001) (36, 6, 5.00000000000000000000e-001) (36, 6, 5.00000000000000000000e-001) (36, 6, 5.00000000000000000000e-001) (36, 6, 5.00000000000000000000e-001) (36, 6, 5.00000000000000000000e-001) (36, 6, 5.00000000000000000000e-001) (36, 6, 5.00000000000000000000e-001) (36, 6, 5.00000000000000000000e-001) (36, 6, 5.00000000000000000000e-001) (36, 6, 5.00000000000000000000e-001) (36, 6, 5.00000000000000000000e-001) (36, 6, 5.00000000000000000000e-001) (36, 6, 5.00000000000000000000e-001) (36, 6, 5.00000000000000000000e-001) (36, 6, 5.00000000000000000000e-001) (36, 6, 5.00000000000000000000e-001) (36, 6, 5.00000000000000000000e-001) (36, 6, 5.00000000000000000000e-001) (36, 6, 5.00000000000000000000e-001) (36, 6, 5.00000000000000000000e-001) (36, 6, 5.00000000000000000000e-001) (36, 6, 5.00000000000000000000e-001) (36, 6, 5.00000000000000000000e-001) (36, 6, 5.00000000000000000000e-001) (36, 6, 5.00000000000000000000e-001) (36, 6, 5.00000000000000000000e-001) (36, 6, 5.00000000000000000000e-001) (36, 6, 5.00000000000000000000e-001) (36, 6, 5.00000000000000000000e-001) (36, 6, 5.00000000000000000000e-001) (36, 6, 5.00000000000000000000e-001) (36, 6, 5.00000000000000000000e-001) (36, 6, 5.00000000000000000000e-001) (36, 6, 5.00000000000000000000e-001) (36, 6, 5.00000000000000000000e-001) (36, 6, 5.00000000000000000000e-001) (36, 6, 5.00000000000000000000e-001) (36, 6, 5.00000000000000000000e-001) (36, 6, 5.00000000000000000000e-001) (36, 6, 5.00000000000000000000e-001) (36, 6, 5.00000000000000000000e-001) (36, 6, 5.00000000000000000000e-001) (36, 6, 5.00000000000000000000e-001) (36, 6, 5.00000000000000000000e-001) (36, 6, 5.00000000000000000000e-001) (36, 6, 5.00000000000000000000e-001) (36, 6, 5.00000000000000000000e-001) (36, 6, 5.00000000000000000000e-001) (36, 6, 5.00000000000000000000e-001) (36, 6, 5.00000000000000000000e-001) (36, 6, 5.00000000000000000000e-001) (36, 6, 5.00000000000000000000e-001) (36, 6, 5.00000000000000000000e-001) (36, 6, 5.00000000000000000000e-001) (36, 6, 5.00000000000000000000e-001) (36, 6, 5.00000000000000000000e-001) (36, 6, 5.00000000000000000000e-001) (36, 6, 5.00000000000000000000e-001) (36, 6, 5.00000000000000000000e-001) (36, 6, 5.00000000000000000000e-001) (36, 6, 5.00000000000000000000e-001) (36, 6, 5.00000000000000000000e-001) (36, 6, 5.00000000000000000000e-001) (36, 6, 5.00000000000000000000e-001) (36, 6, 5.00000000000000000000e-001) (36, 6, 5.00000000000000000000e-001) (36, 6, 5.00000000000000000000e-001) (36, 6, 5.00000000000000000000e-001) (36, 6, 5.00000000000000000000e-001) (36, 6, 5.00000000000000000000e-001) (36, 6, 5.00000000000000000000e-001) (36, 6, 5.00000000000000000000e-001) (36, 6, 5.00000000000000000000e-001) (36, 6, 5.00000000000000000000e-001) (36, 6, 5.00000000000000000000e-001) (36, 6, 5.00000000000000000000e-001) (36, 6, 5.00000000000000000000e-001) (36, 6, 5.00000000000000000000e-001) (36, 6, 5.00000000000000000000e-001) (36, 6, 5.00000000000000000000e-001) (36, 6, 5.00000000000000000000e-001) (36, 6, 5.00000000000000000000e-001) (36, 6, 5.00000000000000000000e-001) (36, 6, 5.00000000000000000000e-001) (36, 6, 5.00000000000000000000e-001) (36, 6, 5.00000000000000000000e-001) (36, 6, 5.00000000000000000000e-001) (36, 6, 5.00000000000000000000e-001) (36, 6, 5.00000000000000000000e-001) (36, 6, 5.00000000000000000000e-001) (36, 6, 5.00000000000000000000e-001) (36, 6, 5.00000000000000000000e-001) (36, 6, 5.00000000000000000000e-001) (36, 6, 5.00000000000000000000e-001) (36, 6, 5.00000000000000000000e-001) (36, 6, 5.00000000000000000000e-001) (36, 6, 5.00000000000000000000e-001) (36, 6, 5.00000000000000000000e-001) (36, 6, 5.00000000000000000000e-001) (36, 6, 5.00000000000000000000e-001) (36, 6, 5.00000000000000000000e-001) (36, 6, 5.00000000000000000000e-001) (36, 6, 5.00000000000000000000e-001) (36, 6, 5.00000000000000000000e-001) (36, 6, 5.00000000000000000000e-001) (36, 6, 5.00000000000000000000e-001) (36, 6, 5.00000000000000000000e-001) (36, 6, 5.00000000000000000000e-001) (36, 6, 5.00000000000000000000e-001) (36, 6, 5.00000000000000000000e-001) (36, 6, 5.00000000000000000000e-001) (36, 6, 5.00000000000000000000e-001) (36, 6, 5.00000000000000000000e-001) (36, 6, 5.00000000000000000000e-001) (36, 6, 5.00000000000000000000e-001) (36, 6, 5.00000000000000000000e-001) (36, 6, 5.00000000000000000000e-001) (36, 6, 5.00000000000000000000e-001) (36, 6, 5.00000000000000000000e-001) (36, 6, 5.00000000000000000000e-001) (36, 6, 5.00000000000000000000e-001) (36, 6, 5.00000000000000000000e-001) (36, 6, 5.00000000000000000000e-001) (36, 6, 5.00000000000000000000e-001) (36, 6, 5.00000000000000000000e-001) (36, 6, 5.00000000000000000000e-001) (36, 6, 5.00000000000000000000e-001) (36, 6, 5.00000000000000000000e-001) (36, 6, 5.00000000000000000000e-001) (36, 6, 5.00000000000000000000e-001) (36, 6, 5.00000000000000000000e-001) (36, 6, 5.00000000000000000000e-001) (36, 6, 5.00000000000000000000e-001) (36, 6, 5.00000000000000000000e-001) (36, 6, 5.00000000000000000000e-001) (36, 6, 5.00000000000000000000e-001) (36, 6, 5.00000000000000000000e-001) (36, 6, 5.00000000000000000000e-001) (36, 6, 5.00000000000000000000e-001) (36, 6, 5.00000000000000000000e-001) (36, 6, 5.00000000000000000000e-001) (36, 6, 5.00000000000000000000e-001) (36, 6, 5.00000000000000000000e-001) (36, 6, 5.00000000000000000000e-001) (36, 6, 5.00000000000000000000e-001) (36, 6, 5.00000000000000000000e-001) (36, 6, 5.00000000000000000000e-001) (36, 6, 5.00000000000000000000e-001) (36, 6, 5.00000000000000000000e-001) (0, 6, 0.00000000000000000000e+000) (76, 6, 5.00000000000000000000e-001) (76, 6, 5.00000000000000000000e-001) (76, 6, 5.00000000000000000000e-001) (76, 6, 5.00000000000000000000e-001) (76, 6, 5.00000000000000000000e-001) (76, 6, 5.00000000000000000000e-001) (76, 6, 5.00000000000000000000e-001) (76, 6, 5.00000000000000000000e-001) (76, 6, 5.00000000000000000000e-001) (76, 6, 5.00000000000000000000e-001) (76, 6, 5.00000000000000000000e-001) (76, 6, 5.00000000000000000000e-001) (76, 6, 5.00000000000000000000e-001) (76, 6, 5.00000000000000000000e-001) (76, 6, 5.00000000000000000000e-001) (76, 6, 5.00000000000000000000e-001) (76, 6, 5.00000000000000000000e-001) (76, 6, 5.00000000000000000000e-001) (76, 6, 5.00000000000000000000e-001) (76, 6, 5.00000000000000000000e-001) (76, 6, 5.00000000000000000000e-001) (76, 6, 5.00000000000000000000e-001) (76, 6, 5.00000000000000000000e-001) (76, 6, 5.00000000000000000000e-001) (76, 6, 5.00000000000000000000e-001) (76, 6, 5.00000000000000000000e-001) (76, 6, 5.00000000000000000000e-001) (76, 6, 5.00000000000000000000e-001) (76, 6, 5.00000000000000000000e-001) (76, 6, 5.00000000000000000000e-001) (76, 6, 5.00000000000000000000e-001) (76, 6, 5.00000000000000000000e-001) (76, 6, 5.00000000000000000000e-001) (76, 6, 5.00000000000000000000e-001) (76, 6, 5.00000000000000000000e-001) (76, 6, 5.00000000000000000000e-001) (76, 6, 5.00000000000000000000e-001) (76, 6, 5.00000000000000000000e-001) (76, 6, 5.00000000000000000000e-001) (76, 6, 5.00000000000000000000e-001) (76, 6, 5.00000000000000000000e-001) (76, 6, 5.00000000000000000000e-001) (76, 6, 5.00000000000000000000e-001) (76, 6, 5.00000000000000000000e-001) (76, 6, 5.00000000000000000000e-001) (76, 6, 5.00000000000000000000e-001) (76, 6, 5.00000000000000000000e-001) (76, 6, 5.00000000000000000000e-001) (76, 6, 5.00000000000000000000e-001) (76, 6, 5.00000000000000000000e-001) (76, 6, 5.00000000000000000000e-001) (76, 6, 5.00000000000000000000e-001) (76, 6, 5.00000000000000000000e-001) (76, 6, 5.00000000000000000000e-001) (76, 6, 5.00000000000000000000e-001) (76, 6, 5.00000000000000000000e-001) (76, 6, 5.00000000000000000000e-001) (76, 6, 5.00000000000000000000e-001) (76, 6, 5.00000000000000000000e-001) (76, 6, 5.00000000000000000000e-001) (76, 6, 5.00000000000000000000e-001) (76, 6, 5.00000000000000000000e-001) (76, 6, 5.00000000000000000000e-001) (76, 6, 5.00000000000000000000e-001) (76, 6, 5.00000000000000000000e-001) (76, 6, 5.00000000000000000000e-001) (76, 6, 5.00000000000000000000e-001) (76, 6, 5.00000000000000000000e-001) (76, 6, 5.00000000000000000000e-001) (76, 6, 5.00000000000000000000e-001) (76, 6, 5.00000000000000000000e-001) (76, 6, 5.00000000000000000000e-001) (76, 6, 5.00000000000000000000e-001) (76, 6, 5.00000000000000000000e-001) (76, 6, 5.00000000000000000000e-001) (76, 6, 5.00000000000000000000e-001) (76, 6, 5.00000000000000000000e-001) (76, 6, 5.00000000000000000000e-001) (76, 6, 5.00000000000000000000e-001) (76, 6, 5.00000000000000000000e-001) (76, 6, 5.00000000000000000000e-001) (76, 6, 5.00000000000000000000e-001) (76, 6, 5.00000000000000000000e-001) (76, 6, 5.00000000000000000000e-001) (76, 6, 5.00000000000000000000e-001) (76, 6, 5.00000000000000000000e-001) (76, 6, 5.00000000000000000000e-001) (76, 6, 5.00000000000000000000e-001) (76, 6, 5.00000000000000000000e-001) (76, 6, 5.00000000000000000000e-001) (76, 6, 5.00000000000000000000e-001) (76, 6, 5.00000000000000000000e-001) (76, 6, 5.00000000000000000000e-001) (76, 6, 5.00000000000000000000e-001) (76, 6, 5.00000000000000000000e-001) (76, 6, 5.00000000000000000000e-001) (76, 6, 5.00000000000000000000e-001) (76, 6, 5.00000000000000000000e-001) (76, 6, 5.00000000000000000000e-001) (76, 6, 5.00000000000000000000e-001) (0, 6, 0.00000000000000000000e+000) (51, 6, 5.00000000000000000000e-001) (51, 6, 5.00000000000000000000e-001) (51, 6, 5.00000000000000000000e-001) (51, 6, 5.00000000000000000000e-001) (51, 6, 5.00000000000000000000e-001) (51, 6, 5.00000000000000000000e-001) (51, 6, 5.00000000000000000000e-001) (51, 6, 5.00000000000000000000e-001) (51, 6, 5.00000000000000000000e-001) (51, 6, 5.00000000000000000000e-001) (51, 6, 5.00000000000000000000e-001) (51, 6, 5.00000000000000000000e-001) (51, 6, 5.00000000000000000000e-001) (51, 6, 5.00000000000000000000e-001) (51, 6, 5.00000000000000000000e-001) (51, 6, 5.00000000000000000000e-001) (51, 6, 5.00000000000000000000e-001) (51, 6, 5.00000000000000000000e-001) (51, 6, 5.00000000000000000000e-001) (51, 6, 5.00000000000000000000e-001) (51, 6, 5.00000000000000000000e-001) (51, 6, 5.00000000000000000000e-001) (51, 6, 5.00000000000000000000e-001) (51, 6, 5.00000000000000000000e-001) (51, 6, 5.00000000000000000000e-001) (51, 6, 5.00000000000000000000e-001) (51, 6, 5.00000000000000000000e-001) (51, 6, 5.00000000000000000000e-001) (51, 6, 5.00000000000000000000e-001) (51, 6, 5.00000000000000000000e-001) (51, 6, 5.00000000000000000000e-001) (51, 6, 5.00000000000000000000e-001) (51, 6, 5.00000000000000000000e-001) (51, 6, 5.00000000000000000000e-001) (51, 6, 5.00000000000000000000e-001) (51, 6, 5.00000000000000000000e-001) (51, 6, 5.00000000000000000000e-001) (51, 6, 5.00000000000000000000e-001) (51, 6, 5.00000000000000000000e-001) (51, 6, 5.00000000000000000000e-001) (51, 6, 5.00000000000000000000e-001) (51, 6, 5.00000000000000000000e-001) (51, 6, 5.00000000000000000000e-001) (51, 6, 5.00000000000000000000e-001) (51, 6, 5.00000000000000000000e-001) (51, 6, 5.00000000000000000000e-001) (51, 6, 5.00000000000000000000e-001) (51, 6, 5.00000000000000000000e-001) (51, 6, 5.00000000000000000000e-001) (51, 6, 5.00000000000000000000e-001) (0, 6, 0.00000000000000000000e+000) (26, 5, 1.00000000000000000000e+000) (26, 5, 1.00000000000000000000e+000) (26, 5, 1.00000000000000000000e+000) (0, 5, 1.00000000000000000000e+000) 
connections (connected_to_neuron, weight)=(70, 1.49939526367187500000e+003) (23, 1.49471069335937500000e+003) (55, -1.50000000000000000000e+003) (32, 1.50000000000000000000e+003) (59, 1.50000000000000000000e+003) (46, 1.50000000000000000000e+003) (64, 1.50000000000000000000e+003) (8, 1.49024414062500000000e+003) (11, 1.11446166992187500000e+003) (47, 1.50000000000000000000e+003) (51, 1.49996215820312500000e+003) (34, 8.23949462890625000000e+002) (63, 1.50000000000000000000e+003) (39, 2.38764705657958984375e+001) (56, 1.50000000000000000000e+003) (48, 1.50000000000000000000e+003) (57, 1.50000000000000000000e+003) (17, 1.50000000000000000000e+003) (61, 1.50000000000000000000e+003) (0, 8.83640861511230468750e+000) (45, 1.50000000000000000000e+003) (67, 1.46543994140625000000e+003) (26, 1.50000000000000000000e+003) (49, 1.50000000000000000000e+003) (53, 1.45638708496093750000e+003) (3, 1.47969653320312500000e+003) (33, 1.50000000000000000000e+003) (22, 6.25641365051269531250e+001) (44, 1.50000000000000000000e+003) (35, 1.20046484375000000000e+003) (6, 1.13725860595703125000e+002) (2, 1.49686926269531250000e+003) (65, 1.50000000000000000000e+003) (40, -8.65969753265380859375e+000) (42, 1.06780004882812500000e+003) (38, 2.96472106933593750000e+002) (70, -4.71401870250701904297e-001) (41, 6.25700998306274414062e+000) (53, 1.12859680175781250000e+002) (66, 2.33855175971984863281e+000) (19, -2.22193002700805664062e+000) (12, 1.50000000000000000000e+003) (62, 1.50000000000000000000e+003) (1, -1.85866272449493408203e+000) (7, -4.36100578308105468750e+000) (52, 4.61857528686523437500e+001) (63, 1.50000000000000000000e+003) (40, 4.12678766250610351562e+000) (36, 2.31217694282531738281e+000) (32, 1.50000000000000000000e+003) (68, 1.50000000000000000000e+003) (27, -1.50000000000000000000e+003) (31, 1.50000000000000000000e+003) (3, 3.83260273933410644531e+000) (13, 1.50000000000000000000e+003) (64, 1.50000000000000000000e+003) (37, -1.72917425632476806641e+000) (43, -1.08153605461120605469e+000) (55, -1.26710559082031250000e+003) (15, 1.50000000000000000000e+003) (46, 1.50000000000000000000e+003) (18, -1.47059321403503417969e+000) (50, -1.00824794769287109375e+001) (0, 4.21581804752349853516e-001) (59, 1.50000000000000000000e+003) (5, -7.88467550277709960938e+000) (11, -4.32168006896972656250e+000) (26, -1.50000000000000000000e+003) (20, -1.16870718002319335938e+001) (39, 2.44528126716613769531e+000) (30, 1.50000000000000000000e+003) (34, 6.03463935852050781250e+000) (70, 1.86803102493286132812e+000) (47, 1.50000000000000000000e+003) (29, 1.50000000000000000000e+003) (37, -5.55873680114746093750e+001) (62, 1.50000000000000000000e+003) (6, -4.08414840698242187500e+000) (11, 9.61378662109375000000e+002) (48, 1.50000000000000000000e+003) (30, 1.50000000000000000000e+003) (10, -1.38991775512695312500e+001) (54, -4.53601226806640625000e+002) (14, 1.50000000000000000000e+003) (52, 1.40709686279296875000e+002) (3, -1.28177509307861328125e+001) (61, 1.50000000000000000000e+003) (43, 8.75479202270507812500e+001) (15, 1.50000000000000000000e+003) (36, -3.56483387947082519531e+000) (57, 1.50000000000000000000e+003) (46, 1.50000000000000000000e+003) (27, 1.50000000000000000000e+003) (67, 3.30509352684020996094e+000) (49, 1.50000000000000000000e+003) (24, 7.59258789062500000000e+002) (63, 1.50000000000000000000e+003) (50, -1.20518484115600585938e+001) (58, 1.50000000000000000000e+003) (45, 1.50000000000000000000e+003) (1, 2.11853647232055664062e+000) (60, 1.50000000000000000000e+003) (39, 3.52685317993164062500e+001) (17, 1.50000000000000000000e+003) (21, -7.97175025939941406250e+000) (2, 1.89170284271240234375e+001) (8, -4.52944278717041015625e+000) (31, 1.50000000000000000000e+003) (70, 4.61503297090530395508e-001) (18, 1.35061330795288085938e+001) (34, 8.45969772338867187500e+000) (28, 1.50000000000000000000e+003) (42, -5.13493156433105468750e+000) (4, 9.24358177185058593750e+000) (37, -6.80638809204101562500e+001) (54, 7.90800048828125000000e+002) (53, 1.01588592529296875000e+001) (5, 1.77997131347656250000e+001) (30, 1.50000000000000000000e+003) (44, 1.50000000000000000000e+003) (10, -1.79753351211547851562e+000) (55, -1.50000000000000000000e+003) (32, 1.50000000000000000000e+003) (8, -2.43439559936523437500e+001) (51, 1.07602758407592773438e+001) (65, 1.50000000000000000000e+003) (67, 1.14977157115936279297e+000) (3, 2.87215061187744140625e+001) (39, 3.42088985443115234375e+000) (50, 1.03993101119995117188e+001) (21, 2.05648398399353027344e+000) (38, -5.80556631088256835938e+000) (35, 2.88672828674316406250e+001) (62, 1.50000000000000000000e+003) (46, 1.50000000000000000000e+003) (16, 1.50000000000000000000e+003) (24, -4.47926187515258789062e+000) (31, 1.50000000000000000000e+003) (48, 1.50000000000000000000e+003) (19, 5.47609996795654296875e+000) (56, 1.50000000000000000000e+003) (64, 1.50000000000000000000e+003) (40, 5.75245141983032226562e-001) (49, 1.50000000000000000000e+003) (70, -3.61670613288879394531e-001) (28, 1.50000000000000000000e+003) (54, -7.69068002700805664062e+000) (66, 6.52944231033325195312e+000) (11, -2.50502033233642578125e+001) (58, 1.50000000000000000000e+003) (9, 1.07829308509826660156e+000) (55, -1.50000000000000000000e+003) (49, 1.50000000000000000000e+003) (18, 2.97278003692626953125e+001) (67, 1.51395648717880249023e-001) (63, 1.50000000000000000000e+003) (33, 1.50000000000000000000e+003) (14, 1.50000000000000000000e+003) (68, 1.50000000000000000000e+003) (1, 4.26495313644409179688e-001) (17, 1.50000000000000000000e+003) (26, 1.33771905899047851562e+001) (64, 1.50000000000000000000e+003) (0, 1.07698500156402587891e+000) (6, 2.58851575851440429688e+000) (43, 4.07795593261718750000e+002) (21, -5.33814096450805664062e+000) (20, -6.06896781921386718750e+000) (40, -7.92954540252685546875e+000) (51, 9.12165927886962890625e+000) (34, 5.08326673507690429688e+000) (59, 1.50000000000000000000e+003) (50, -3.25831270217895507812e+000) (47, 1.50000000000000000000e+003) (30, 1.50000000000000000000e+003) (15, 1.50000000000000000000e+003) (45, 1.50000000000000000000e+003) (31, 1.50000000000000000000e+003) (8, -5.81107378005981445312e+000) (2, -3.48202247619628906250e+001) (70, 8.35144817829132080078e-001) (49, 1.50000000000000000000e+003) (61, 1.50000000000000000000e+003) (55, 1.50000000000000000000e+003) (56, 1.50000000000000000000e+003) (46, 1.50000000000000000000e+003) (31, 1.50000000000000000000e+003) (21, 2.48956031799316406250e+001) (51, -1.49981872558593750000e+003) (17, 1.50000000000000000000e+003) (7, 1.23101110458374023438e+001) (32, 1.50000000000000000000e+003) (68, 1.50000000000000000000e+003) (33, 1.50000000000000000000e+003) (39, -4.51691894531250000000e+001) (65, 1.50000000000000000000e+003) (2, -1.36267016601562500000e+003) (22, 8.96982288360595703125e+000) (1, -4.96080827713012695312e+000) (48, 1.50000000000000000000e+003) (41, -1.99445514678955078125e+001) (6, -3.58379912376403808594e+000) (69, 1.50000000000000000000e+003) (26, -1.50000000000000000000e+003) (11, 5.10833358764648437500e+001) (16, 1.50000000000000000000e+003) (54, -1.50000000000000000000e+003) (47, 1.50000000000000000000e+003) (60, 1.50000000000000000000e+003) (66, -4.18264001607894897461e-001) (44, 1.50000000000000000000e+003) (24, -1.50000000000000000000e+003) (23, -3.52966186523437500000e+002) (12, 1.50000000000000000000e+003) (18, 3.44796371459960937500e+001) (4, -1.48166857910156250000e+003) (70, -4.59200239181518554688e+000) (5, 3.82883148193359375000e+001) (35, 6.16614379882812500000e+002) (69, 1.50000000000000000000e+003) (34, 7.92636871337890625000e+000) (18, -1.64118456840515136719e+000) (40, 1.46438427734375000000e+003) (60, 1.50000000000000000000e+003) (54, -1.50000000000000000000e+003) (21, 1.20960321426391601562e+001) (24, 1.15317932128906250000e+002) (4, 1.07904472351074218750e+002) (13, 1.50000000000000000000e+003) (62, 1.50000000000000000000e+003) (28, 1.50000000000000000000e+003) (45, 1.50000000000000000000e+003) (25, 1.50000000000000000000e+003) (48, 1.50000000000000000000e+003) (19, 1.22506666183471679688e+001) (56, 1.50000000000000000000e+003) (59, 1.50000000000000000000e+003) (67, 5.70282042026519775391e-001) (63, 1.50000000000000000000e+003) (31, 1.50000000000000000000e+003) (58, 1.50000000000000000000e+003) (43, -5.26173522949218750000e+002) (3, 4.50289764404296875000e+002) (9, 2.48817272186279296875e+001) (38, 1.30144006347656250000e+003) (26, 1.50000000000000000000e+003) (14, 1.50000000000000000000e+003) (20, 6.02610206604003906250e+001) (65, 1.50000000000000000000e+003) (68, 1.50000000000000000000e+003) (7, 5.05763336181640625000e+002) (53, 8.26413330078125000000e+002) (70, -1.97756254673004150391e+000) (52, 1.65769561767578125000e+002) (27, 1.50000000000000000000e+003) (51, -6.18118584156036376953e-001) (1, -2.45029807090759277344e+000) (36, -6.44216064453125000000e+002) (40, 3.28842010498046875000e+001) (68, 1.50000000000000000000e+003) (39, -3.03094615936279296875e+001) (66, 5.10851049423217773438e+000) (21, 6.96692123413085937500e+001) (50, 1.20029701232910156250e+002) (3, 4.24583166837692260742e-001) (44, 1.50000000000000000000e+003) (0, -1.26586544513702392578e+000) (61, 1.50000000000000000000e+003) (7, 1.01226396560668945312e+001) (9, 1.29550752639770507812e+001) (59, 1.50000000000000000000e+003) (69, 1.50000000000000000000e+003) (19, 7.33404235839843750000e+001) (11, 5.83586853027343750000e+002) (15, 1.50000000000000000000e+003) (31, 1.50000000000000000000e+003) (45, 1.50000000000000000000e+003) (6, 1.56324303150177001953e+000) (46, 1.50000000000000000000e+003) (49, 1.50000000000000000000e+003) (14, 1.50000000000000000000e+003) (17, 1.50000000000000000000e+003) (43, -1.34782836914062500000e+002) (16, 1.50000000000000000000e+003) (67, -3.16845595836639404297e-001) (29, 1.50000000000000000000e+003) (30, 1.50000000000000000000e+003) (4, 5.75189113616943359375e+000) (70, 1.12806951999664306641e+000) (9, 1.47885839843750000000e+003) (3, 1.49850061035156250000e+003) (16, 1.50000000000000000000e+003) (31, 1.50000000000000000000e+003) (30, 1.50000000000000000000e+003) (22, 2.52025699615478515625e+001) (15, 1.50000000000000000000e+003) (53, 1.13717687988281250000e+003) (1, 8.22364139556884765625e+000) (8, 2.88675155639648437500e+001) (26, 1.50000000000000000000e+003) (61, 1.50000000000000000000e+003) (28, 1.50000000000000000000e+003) (57, 1.50000000000000000000e+003) (20, -1.39034521579742431641e+000) (39, 9.36312789916992187500e+001) (13, 1.50000000000000000000e+003) (18, 1.05032348632812500000e+000) (4, 1.43880664062500000000e+003) (45, 1.50000000000000000000e+003) (5, -1.23041658401489257812e+001) (63, 1.50000000000000000000e+003) (41, 1.29555334472656250000e+003) (38, 6.35351806640625000000e+002) (55, -1.50000000000000000000e+003) (40, 2.05736675262451171875e+001) (58, 1.50000000000000000000e+003) (2, 1.43756579589843750000e+003) (43, 5.64658996582031250000e+002) (56, 1.50000000000000000000e+003) (36, 4.77097129821777343750e+001) (52, 1.36381506347656250000e+003) (33, 1.50000000000000000000e+003) (7, -2.61031761169433593750e+001) (27, 1.50000000000000000000e+003) (70, 1.77000716328620910645e-001) (27, 1.50000000000000000000e+003) (4, 1.29915726184844970703e+000) (47, 1.50000000000000000000e+003) (33, 1.50000000000000000000e+003) (19, 1.89569034576416015625e+001) (24, 1.50000000000000000000e+003) (28, 1.50000000000000000000e+003) (43, 4.56286682128906250000e+002) (36, 6.18125427246093750000e+002) (9, 6.28708305358886718750e+001) (13, 1.50000000000000000000e+003) (21, -1.40691924095153808594e+000) (66, 2.40929546356201171875e+001) (2, 2.74099397659301757812e+000) (49, 1.50000000000000000000e+003) (50, 3.67710533142089843750e+001) (41, -6.95918121337890625000e+001) (8, 1.69913749694824218750e+001) (23, -7.56500244140625000000e+002) (56, 1.50000000000000000000e+003) (25, 1.50000000000000000000e+003) (18, 6.20421051979064941406e-001) (69, 1.50000000000000000000e+003) (52, -4.36923217773437500000e+001) (46, 1.50000000000000000000e+003) (51, 4.70436143875122070312e+000) (38, -8.58967102050781250000e+002) (15, 1.50000000000000000000e+003) (58, 1.50000000000000000000e+003) (22, 1.89874496459960937500e+001) (44, 1.50000000000000000000e+003) (35, -7.26197576522827148438e+000) (64, 1.50000000000000000000e+003) (26, 1.50000000000000000000e+003) (60, 1.50000000000000000000e+003) (70, 4.60063629150390625000e+001) (65, 1.50000000000000000000e+003) (61, 1.50000000000000000000e+003) (30, 1.50000000000000000000e+003) (57, 1.50000000000000000000e+003) (58, 1.50000000000000000000e+003) (49, 1.50000000000000000000e+003) (6, 5.11735649108886718750e+001) (56, 1.50000000000000000000e+003) (24, 1.50000000000000000000e+003) (68, 1.50000000000000000000e+003) (18, 4.94302892684936523438e+000) (42, 1.05907556152343750000e+003) (36, 1.49961987304687500000e+003) (21, 9.87541770935058593750e+000) (13, 1.50000000000000000000e+003) (4, 1.47536572265625000000e+003) (22, 9.63219738006591796875e+000) (9, 1.49819433593750000000e+003) (15, 1.50000000000000000000e+003) (44, 1.50000000000000000000e+003) (47, 1.50000000000000000000e+003) (1, 1.50000000000000000000e+003) (41, 9.44247741699218750000e+002) (54, 1.08926135253906250000e+003) (39, 6.91822128295898437500e+001) (17, 1.50000000000000000000e+003) (28, 1.50000000000000000000e+003) (63, 1.50000000000000000000e+003) (25, 1.50000000000000000000e+003) (45, 1.50000000000000000000e+003) (0, 7.32383504509925842285e-002) (23, 1.48923266601562500000e+003) (5, 1.06392248535156250000e+003) (51, 1.49189294433593750000e+003) (53, 8.21261352539062500000e+002) (70, 1.50000000000000000000e+003) (46, 1.50000000000000000000e+003) (18, 1.42815027236938476562e+001) (16, 1.50000000000000000000e+003) (10, 1.50000000000000000000e+003) (58, 1.50000000000000000000e+003) (62, 1.50000000000000000000e+003) (8, 8.01590515136718750000e+002) (4, 1.48942541503906250000e+003) (31, 1.50000000000000000000e+003) (63, 1.50000000000000000000e+003) (27, 1.50000000000000000000e+003) (12, 1.50000000000000000000e+003) (39, 1.15273933410644531250e+002) (21, 3.39770660400390625000e+001) (68, 1.50000000000000000000e+003) (52, 1.00038470458984375000e+003) (49, 1.50000000000000000000e+003) (1, 1.50000000000000000000e+003) (6, 2.22394546508789062500e+002) (29, 1.50000000000000000000e+003) (69, 1.50000000000000000000e+003) (35, 9.78640991210937500000e+002) (40, 2.66486120223999023438e+000) (9, 1.44266589355468750000e+003) (57, 1.50000000000000000000e+003) (59, 1.50000000000000000000e+003) (25, 1.50000000000000000000e+003) (42, 1.49952221679687500000e+003) (67, 1.50000000000000000000e+003) (64, 1.50000000000000000000e+003) (0, 1.49998608398437500000e+003) (41, 1.49595971679687500000e+003) (5, 1.49985729980468750000e+003) (37, 1.48697705078125000000e+003) (7, 7.61132080078125000000e+002) (70, -5.45347511768341064453e-001) (32, 1.50000000000000000000e+003) (45, 1.50000000000000000000e+003) (22, 7.52267913818359375000e+001) (46, 1.50000000000000000000e+003) (1, 1.07266426086425781250e+001) (2, 1.01471153259277343750e+002) (18, 1.62683353424072265625e+001) (50, -4.79115724563598632812e+000) (68, 1.50000000000000000000e+003) (17, 1.50000000000000000000e+003) (24, 9.14440063476562500000e+002) (6, 8.29923152923583984375e+000) (56, 1.50000000000000000000e+003) (44, 1.50000000000000000000e+003) (4, 1.46074938964843750000e+003) (5, 1.58408441543579101562e+001) (55, -1.50000000000000000000e+003) (21, 7.96017408370971679688e+000) (40, 9.56121444702148437500e+001) (12, 1.50000000000000000000e+003) (34, 8.32384014129638671875e+000) (58, 1.50000000000000000000e+003) (31, 1.50000000000000000000e+003) (60, 1.50000000000000000000e+003) (41, 8.19601898193359375000e+001) (25, 1.50000000000000000000e+003) (63, 1.50000000000000000000e+003) (57, 1.50000000000000000000e+003) (38, -7.49788951873779296875e+000) (29, 1.50000000000000000000e+003) (39, 5.85714864730834960938e+000) (19, 1.64977779388427734375e+001) (3, 1.02029142379760742188e+001) (7, 8.05974483489990234375e+000) (59, 1.50000000000000000000e+003) (70, 3.53666234016418457031e+000) (36, 1.49791027832031250000e+003) (61, 1.50000000000000000000e+003) (23, 6.49316711425781250000e+002) (47, 1.50000000000000000000e+003) (35, 5.29517089843750000000e+002) (43, -7.03516601562500000000e+002) (17, 1.50000000000000000000e+003) (28, 1.50000000000000000000e+003) (55, -1.50000000000000000000e+003) (40, 5.36816835403442382812e+000) (32, 1.50000000000000000000e+003) (12, 1.50000000000000000000e+003) (34, 1.48824905395507812500e+002) (19, 2.12750568389892578125e+001) (24, 1.50000000000000000000e+003) (37, 1.16290222167968750000e+003) (44, 1.50000000000000000000e+003) (6, 2.31002319335937500000e+002) (33, 1.50000000000000000000e+003) (59, 1.50000000000000000000e+003) (30, 1.50000000000000000000e+003) (52, 2.63596862792968750000e+002) (1, 1.47225646972656250000e+003) (18, 3.72348260879516601562e+000) (13, 1.50000000000000000000e+003) (62, 1.50000000000000000000e+003) (3, 1.19665563964843750000e+003) (20, -2.04787464141845703125e+001) (63, 1.50000000000000000000e+003) (39, 5.89024475097656250000e+002) (29, 1.50000000000000000000e+003) (41, 9.25634765625000000000e+000) (49, 1.50000000000000000000e+003) (58, 1.50000000000000000000e+003) (10, 1.14141833496093750000e+003) (70, -8.06298136711120605469e-001) (15, 1.50000000000000000000e+003) (55, -1.50000000000000000000e+003) (39, 6.75299549102783203125e+000) (35, -7.51612901687622070312e-001) (63, 1.50000000000000000000e+003) (38, -2.83723468780517578125e+001) (10, -3.98591918945312500000e+001) (44, 1.50000000000000000000e+003) (21, 5.86130046844482421875e+000) (16, 1.50000000000000000000e+003) (37, -2.75046777725219726562e+000) (30, 1.50000000000000000000e+003) (18, 2.00256705284118652344e+000) (11, 2.29294555664062500000e+002) (26, 1.50000000000000000000e+003) (6, -2.68464355468750000000e+001) (23, 1.07872277832031250000e+003) (57, 1.50000000000000000000e+003) (58, 1.50000000000000000000e+003) (67, 9.83714878559112548828e-001) (62, 1.50000000000000000000e+003) (61, 1.50000000000000000000e+003) (41, 1.05660009765625000000e+003) (59, 1.50000000000000000000e+003) (22, 1.22468383789062500000e+003) (53, 9.47050048828125000000e+002) (34, 1.45797872543334960938e+001) (49, 1.50000000000000000000e+003) (52, 1.25601245117187500000e+003) (65, 1.50000000000000000000e+003) (42, 8.90800048828125000000e+002) (33, 1.50000000000000000000e+003) (45, 1.50000000000000000000e+003) (40, 2.00431785583496093750e+001) (31, 1.50000000000000000000e+003) (70, 1.49999963378906250000e+003) (47, 1.50000000000000000000e+003) (41, 1.14980334472656250000e+003) (20, 7.58267974853515625000e+001) (8, 9.49907714843750000000e+002) (29, 1.50000000000000000000e+003) (2, 1.31309973144531250000e+003) (50, 1.34168796539306640625e+001) (68, 1.50000000000000000000e+003) (4, 1.49874145507812500000e+003) (48, 1.50000000000000000000e+003) (13, 1.50000000000000000000e+003) (56, 1.50000000000000000000e+003) (26, 1.50000000000000000000e+003) (6, 1.49747192382812500000e+003) (27, 1.50000000000000000000e+003) (32, 1.50000000000000000000e+003) (42, 1.48531494140625000000e+003) (9, 1.46556079101562500000e+003) (24, 1.50000000000000000000e+003) (69, 1.50000000000000000000e+003) (3, 1.49813244628906250000e+003) (40, 2.32094645500183105469e+000) (67, 1.49971496582031250000e+003) (39, 5.25603637695312500000e+002) (57, 1.50000000000000000000e+003) (19, 1.49861364746093750000e+003) (12, 1.50000000000000000000e+003) (28, 1.50000000000000000000e+003) (55, 1.90800048828125000000e+002) (61, 1.50000000000000000000e+003) (35, 1.42696728515625000000e+003) (43, -1.50000000000000000000e+003) (45, 1.50000000000000000000e+003) (63, 1.50000000000000000000e+003) (60, 1.50000000000000000000e+003) (70, 1.09206974506378173828e+000) (49, 1.50000000000000000000e+003) (10, 7.94205688476562500000e+002) (45, 1.50000000000000000000e+003) (56, 1.50000000000000000000e+003) (6, -5.36780357360839843750e-001) (58, 1.50000000000000000000e+003) (46, 1.50000000000000000000e+003) (18, 1.89303264617919921875e+001) (28, 1.50000000000000000000e+003) (26, 1.50000000000000000000e+003) (59, 1.50000000000000000000e+003) (50, 5.86955547332763671875e+000) (47, 1.50000000000000000000e+003) (43, -1.50000000000000000000e+003) (67, 4.52855539321899414062e+000) (55, -1.50000000000000000000e+003) (2, 6.84301635742187500000e+002) (4, 5.57161941528320312500e+001) (22, -8.29091644287109375000e+001) (57, 1.50000000000000000000e+003) (1, 2.44502735137939453125e+000) (9, 1.34113143920898437500e+002) (20, 1.64455842971801757812e+000) (48, 1.50000000000000000000e+003) (69, 1.50000000000000000000e+003) (52, 2.63084899902343750000e+002) (44, 1.50000000000000000000e+003) (33, 1.50000000000000000000e+003) (23, -1.62660236358642578125e+001) (51, 1.94166202545166015625e+001) (25, 1.50000000000000000000e+003) (21, 5.66951370239257812500e+000) (37, -1.79150676727294921875e+001) (34, 1.50000000000000000000e+003) (39, -5.64670133590698242188e+000) (70, 1.69823572039604187012e-001) (46, 1.50000000000000000000e+003) (62, 1.50000000000000000000e+003) (30, 1.50000000000000000000e+003) (64, 1.50000000000000000000e+003) (58, 1.50000000000000000000e+003) (18, 9.35328066349029541016e-001) (13, 1.50000000000000000000e+003) (20, 3.53398889303207397461e-001) (55, 1.50000000000000000000e+003) (8, -1.36541091918945312500e+002) (59, 1.50000000000000000000e+003) (66, 9.08527791500091552734e-001) (21, 3.44171106815338134766e-001) (44, 1.50000000000000000000e+003) (41, -2.79836773872375488281e+000) (49, 1.50000000000000000000e+003) (24, -1.50000000000000000000e+003) (19, 1.04501128196716308594e+000) (61, 1.50000000000000000000e+003) (25, -1.50000000000000000000e+003) (29, 1.50000000000000000000e+003) (15, 1.50000000000000000000e+003) (68, 1.50000000000000000000e+003) (35, -4.10503566265106201172e-001) (6, 3.99745330214500427246e-002) (9, 4.83051180839538574219e-001) (43, 6.42301513671875000000e+002) (14, 1.50000000000000000000e+003) (1, -1.95721197128295898438e+000) (11, -1.03668050765991210938e+001) (17, 1.50000000000000000000e+003) (26, -1.50000000000000000000e+003) (38, -4.74861717224121093750e+000) (37, 3.71010041236877441406e+000) (47, 1.50000000000000000000e+003) (70, 1.49600646972656250000e+003) (16, 1.50000000000000000000e+003) (0, -5.74249863624572753906e-001) (8, 1.30914709472656250000e+003) (14, 1.50000000000000000000e+003) (43, 1.45046777343750000000e+003) (58, 1.50000000000000000000e+003) (41, 2.59233703613281250000e+002) (36, 1.49987377929687500000e+003) (6, 7.24822875976562500000e+002) (45, 1.50000000000000000000e+003) (61, 1.50000000000000000000e+003) (60, 1.50000000000000000000e+003) (24, 1.50000000000000000000e+003) (59, 1.50000000000000000000e+003) (65, 1.50000000000000000000e+003) (27, 1.50000000000000000000e+003) (17, 1.50000000000000000000e+003) (63, 1.50000000000000000000e+003) (67, 1.43452563476562500000e+003) (55, -1.50000000000000000000e+003) (53, 6.04451477050781250000e+002) (29, 1.50000000000000000000e+003) (11, 9.30277832031250000000e+002) (47, 1.50000000000000000000e+003) (49, 1.50000000000000000000e+003) (18, 1.58624362945556640625e+001) (37, 1.49981079101562500000e+003) (54, 1.50000000000000000000e+003) (4, 1.49999060058593750000e+003) (69, 1.50000000000000000000e+003) (57, 1.50000000000000000000e+003) (46, 1.50000000000000000000e+003) (38, 1.31659973144531250000e+003) (22, 1.48984057617187500000e+003) (28, 1.50000000000000000000e+003) (70, 1.48703991699218750000e+003) (3, 1.46311340332031250000e+003) (47, 1.50000000000000000000e+003) (6, 6.62791976928710937500e+001) (16, 1.50000000000000000000e+003) (38, 1.30495983886718750000e+003) (12, 1.50000000000000000000e+003) (48, 1.50000000000000000000e+003) (59, 1.50000000000000000000e+003) (35, 1.39227648925781250000e+003) (4, 1.47462109375000000000e+003) (43, 1.49201477050781250000e+003) (53, 1.21880004882812500000e+003) (20, 1.48934716796875000000e+003) (37, 1.05786413574218750000e+003) (28, 1.50000000000000000000e+003) (13, 1.50000000000000000000e+003) (14, 1.50000000000000000000e+003) (56, 1.50000000000000000000e+003) (18, 1.49429968261718750000e+003) (0, 1.49978662109375000000e+003) (62, 1.50000000000000000000e+003) (22, 1.48764428710937500000e+003) (27, 1.50000000000000000000e+003) (1, 1.50000000000000000000e+003) (30, 1.50000000000000000000e+003) (10, 1.50000000000000000000e+003) (63, 1.50000000000000000000e+003) (44, 1.50000000000000000000e+003) (66, 1.49737475585937500000e+003) (49, 1.50000000000000000000e+003) (29, 1.50000000000000000000e+003) (23, 1.40972412109375000000e+003) (26, 1.50000000000000000000e+003) (46, 1.50000000000000000000e+003) (45, 1.50000000000000000000e+003) (70, -2.21341297030448913574e-001) (34, 1.80107192993164062500e+001) (25, 1.50000000000000000000e+003) (36, 1.49944287109375000000e+003) (59, 1.50000000000000000000e+003) (3, 1.43770385742187500000e+003) (10, 1.50000000000000000000e+003) (12, 1.50000000000000000000e+003) (15, 1.50000000000000000000e+003) (6, 1.88057923316955566406e+000) (67, 6.01410531997680664062e+000) (39, 4.71378387451171875000e+002) (17, 1.50000000000000000000e+003) (7, 7.02990570068359375000e+001) (57, 1.50000000000000000000e+003) (13, 1.50000000000000000000e+003) (51, 1.88535141944885253906e+000) (56, 1.50000000000000000000e+003) (1, 3.31468796730041503906e+000) (28, 1.50000000000000000000e+003) (4, 1.45516186523437500000e+003) (65, 1.50000000000000000000e+003) (68, 1.50000000000000000000e+003) (35, 2.15436538696289062500e+002) (40, 1.26067834472656250000e+003) (18, 3.82239303588867187500e+001) (48, 1.50000000000000000000e+003) (61, 1.50000000000000000000e+003) (53, 1.24551306152343750000e+003) (9, 1.50000000000000000000e+003) (2, 1.12692443847656250000e+003) (55, -1.50000000000000000000e+003) (8, 1.36140429687500000000e+003) (33, 1.50000000000000000000e+003) (63, 1.50000000000000000000e+003) (5, 7.41694355010986328125e+000) (70, -1.31004631519317626953e-001) (44, 1.50000000000000000000e+003) (23, -3.69479322433471679688e+000) (19, -1.37066755294799804688e+001) (10, 4.69961456298828125000e+002) (55, -1.50000000000000000000e+003) (53, 3.95815826416015625000e+002) (30, 1.50000000000000000000e+003) (59, 1.50000000000000000000e+003) (21, -6.01530456542968750000e+000) (42, -2.69651393890380859375e+001) (2, -3.90453071594238281250e+001) (52, -2.93811309814453125000e+002) (37, -1.21060161590576171875e+001) (50, -2.32578659057617187500e+001) (31, 1.50000000000000000000e+003) (48, 1.50000000000000000000e+003) (9, 1.69471895694732666016e+000) (58, 1.50000000000000000000e+003) (25, 1.50000000000000000000e+003) (40, 9.36262321472167968750e+000) (4, -9.37672119140625000000e+001) (8, -1.69483625888824462891e+000) (36, 4.09519615173339843750e+001) (41, -6.05916099548339843750e+001) (56, 1.50000000000000000000e+003) (38, 5.04012012481689453125e+000) (5, 4.04986476898193359375e+000) (47, 1.50000000000000000000e+003) (62, 1.50000000000000000000e+003) (0, 2.49212169647216796875e+000) (28, 1.50000000000000000000e+003) (6, 5.55032253265380859375e-001) (35, 1.24878892898559570312e+001) (27, 1.50000000000000000000e+003) (60, 1.50000000000000000000e+003) (70, 6.19116008281707763672e-001) (13, 1.50000000000000000000e+003) (30, 1.50000000000000000000e+003) (50, 1.54680576324462890625e+001) (54, 1.08104467773437500000e+003) (24, 1.50000000000000000000e+003) (4, 1.31608032226562500000e+003) (9, 4.21085566282272338867e-001) (45, 1.50000000000000000000e+003) (40, 5.91848039627075195312e+000) (20, 3.01844005584716796875e+001) (52, -7.83474683761596679688e+000) (37, -7.01916646957397460938e+000) (7, 1.04175068438053131104e-001) (29, 1.50000000000000000000e+003) (31, 1.50000000000000000000e+003) (21, 2.05348038673400878906e+000) (60, 1.50000000000000000000e+003) (47, 1.50000000000000000000e+003) (69, 1.50000000000000000000e+003) (41, 2.55334448814392089844e+000) (16, 1.50000000000000000000e+003) (8, 9.71370488405227661133e-002) (67, 9.32436525821685791016e-001) (26, 1.50000000000000000000e+003) (14, 1.50000000000000000000e+003) (36, 1.01082727050781250000e+003) (59, 1.50000000000000000000e+003) (49, 1.50000000000000000000e+003) (18, 3.04915642738342285156e+000) (32, 1.50000000000000000000e+003) (39, -2.63737130165100097656e+000) (6, 5.79172729492187500000e+002) (61, 1.50000000000000000000e+003) (35, 9.25645828247070312500e+000) (5, 1.85529022216796875000e+001) (70, 3.08257609605789184570e-001) (51, 1.49221118164062500000e+003) (20, -1.76052284240722656250e+000) (16, 1.50000000000000000000e+003) (7, 1.58534212112426757812e+001) (27, 1.50000000000000000000e+003) (30, 1.50000000000000000000e+003) (65, 1.50000000000000000000e+003) (68, 1.50000000000000000000e+003) (61, 1.50000000000000000000e+003) (31, 1.50000000000000000000e+003) (50, 3.69623756408691406250e+001) (63, 1.50000000000000000000e+003) (34, -1.84828777313232421875e+001) (24, 1.50000000000000000000e+003) (26, 1.50000000000000000000e+003) (0, 1.31619229912757873535e-001) (41, 2.75474796295166015625e+001) (5, -3.55130672454833984375e+000) (43, -1.50000000000000000000e+003) (11, -6.72477355957031250000e+002) (42, 1.49305456542968750000e+003) (64, 1.50000000000000000000e+003) (3, -2.40384635925292968750e+001) (62, 1.50000000000000000000e+003) (23, -2.69611206054687500000e+002) (54, 1.50000000000000000000e+003) (39, 7.74021339416503906250e+000) (67, 6.52968025207519531250e+000) (22, 5.85214233398437500000e+002) (37, 1.49923876953125000000e+003) (53, 1.50000000000000000000e+003) (2, 1.69083038330078125000e+002) (8, -1.27401428222656250000e+001) (17, 1.50000000000000000000e+003) (36, 1.49829040527343750000e+003) (70, 2.27864885330200195312e+000) (45, 1.50000000000000000000e+003) (30, 1.50000000000000000000e+003) (51, -1.64775123596191406250e+001) (20, 3.28020820617675781250e+001) (49, 1.50000000000000000000e+003) (13, 1.50000000000000000000e+003) (19, 2.61311149597167968750e+000) (22, 7.23482604980468750000e+002) (54, -3.43500366210937500000e+002) (8, 1.16713562011718750000e+003) (6, 2.88810276985168457031e+000) (64, 1.50000000000000000000e+003) (33, 1.50000000000000000000e+003) (26, 1.50000000000000000000e+003) (32, 1.50000000000000000000e+003) (12, 1.50000000000000000000e+003) (15, 1.50000000000000000000e+003) (0, 9.16850471496582031250e+000) (50, -2.69917812347412109375e+001) (52, -2.53033962249755859375e+001) (43, -2.40683135986328125000e+002) (5, 4.99880638122558593750e+001) (7, 1.86462509632110595703e+000) (25, 1.50000000000000000000e+003) (56, 1.50000000000000000000e+003) (3, 1.94486463069915771484e+000) (59, 1.50000000000000000000e+003) (66, 2.01969547271728515625e+001) (47, 1.50000000000000000000e+003) (34, -1.51720356941223144531e+000) (10, 1.06093457031250000000e+003) (18, -1.90764403343200683594e+000) (21, 3.51485023498535156250e+001) (38, 1.17794726562500000000e+003) (57, 1.50000000000000000000e+003) (70, 8.79108905792236328125e-001) (35, 1.25041753053665161133e-001) (31, 1.50000000000000000000e+003) (58, 1.50000000000000000000e+003) (24, 1.50000000000000000000e+003) (36, 3.15591382980346679688e+000) (64, 1.50000000000000000000e+003) (3, -1.08319258689880371094e+000) (17, 1.50000000000000000000e+003) (62, 1.50000000000000000000e+003) (67, -5.52698895335197448730e-002) (10, -4.02649475097656250000e+002) (15, 1.50000000000000000000e+003) (30, 1.50000000000000000000e+003) (60, 1.50000000000000000000e+003) (11, 1.44686840820312500000e+003) (5, 1.23499119281768798828e+000) (40, 1.46173536777496337891e+000) (22, 3.82815361022949218750e+000) (39, 5.38814830780029296875e+000) (53, 1.04390722656250000000e+003) (41, -1.58074655532836914062e+001) (42, 1.43539123535156250000e+003) (13, 1.50000000000000000000e+003) (66, -3.37766945362091064453e-001) (59, 1.50000000000000000000e+003) (19, 1.46870875358581542969e+000) (29, 1.50000000000000000000e+003) (65, 1.50000000000000000000e+003) (49, 1.50000000000000000000e+003) (48, 1.50000000000000000000e+003) (9, 1.02093815803527832031e+000) (7, -1.01656801998615264893e-001) (27, 1.50000000000000000000e+003) (50, -2.98777092248201370239e-002) (6, -2.94020771980285644531e+000) (70, -5.50592803955078125000e+000) (6, 3.13415479660034179688e+000) (28, 1.50000000000000000000e+003) (57, 1.50000000000000000000e+003) (1, 2.47728395462036132812e+000) (5, 4.00736808776855468750e+000) (64, 1.50000000000000000000e+003) (51, -1.26045074462890625000e+001) (32, 1.50000000000000000000e+003) (44, 1.50000000000000000000e+003) (12, 1.50000000000000000000e+003) (21, 4.50986719131469726562e+000) (42, 1.00660009765625000000e+003) (45, 1.50000000000000000000e+003) (67, 3.01266479492187500000e+000) (39, 6.14175128936767578125e+000) (36, 1.45291772460937500000e+003) (40, -5.78929090499877929688e+000) (27, 1.50000000000000000000e+003) (19, 3.27870788574218750000e+001) (52, 8.21261352539062500000e+002) (17, 1.50000000000000000000e+003) (53, 1.28260083007812500000e+003) (15, 1.50000000000000000000e+003) (62, 1.50000000000000000000e+003) (25, 1.50000000000000000000e+003) (31, 1.50000000000000000000e+003) (2, 1.49586791992187500000e+003) (68, 1.50000000000000000000e+003) (18, 1.20687618255615234375e+001) (41, 2.43699693679809570312e+000) (3, 4.28549623489379882812e+000) (46, 1.50000000000000000000e+003) (23, 1.46977770996093750000e+003) (20, 1.84613933563232421875e+001) (35, 2.71031532287597656250e+001) (70, -3.05050921440124511719e+000) (40, -2.61909937858581542969e+000) (6, -1.12179696559906005859e+000) (47, 1.50000000000000000000e+003) (54, -1.87486228942871093750e+001) (21, -1.38890707492828369141e+000) (39, 1.61529123783111572266e+000) (11, -9.88222718238830566406e-001) (18, 7.38639235496520996094e-001) (4, 1.07371101379394531250e+002) (56, 1.50000000000000000000e+003) (33, 1.50000000000000000000e+003) (9, -3.77457022666931152344e+000) (44, 1.50000000000000000000e+003) (10, 4.79566764831542968750e+000) (25, 1.50000000000000000000e+003) (38, -4.11083745956420898438e+000) (12, 1.50000000000000000000e+003) (17, 1.50000000000000000000e+003) (66, -1.86518979072570800781e+000) (58, 1.50000000000000000000e+003) (31, 1.50000000000000000000e+003) (65, 1.50000000000000000000e+003) (1, 2.67485529184341430664e-001) (29, 1.50000000000000000000e+003) (24, 1.55729496479034423828e+000) (64, 1.50000000000000000000e+003) (69, 1.50000000000000000000e+003) (62, 1.50000000000000000000e+003) (20, 4.04881763458251953125e+000) (60, 1.50000000000000000000e+003) (22, 1.20833206176757812500e+000) (0, 2.85270900726318359375e+001) (50, 6.22813105583190917969e-001) (43, -2.53374290466308593750e+001) (7, 1.53726637363433837891e+000) (70, -6.73100531101226806641e-001) (4, 1.48242773437500000000e+003) (24, 1.50000000000000000000e+003) (20, -3.32596850395202636719e+000) (28, 1.50000000000000000000e+003) (31, 1.50000000000000000000e+003) (49, 1.50000000000000000000e+003) (38, 1.46010168457031250000e+003) (68, 1.50000000000000000000e+003) (64, 1.50000000000000000000e+003) (7, 5.37671623229980468750e+001) (9, 1.04607191085815429688e+001) (67, 6.15151834487915039062e+000) (16, 1.50000000000000000000e+003) (26, 1.50000000000000000000e+003) (62, 1.50000000000000000000e+003) (22, 2.74060821533203125000e+001) (29, 1.50000000000000000000e+003) (37, 1.71945343017578125000e+002) (2, 1.48490673828125000000e+003) (17, 1.50000000000000000000e+003) (51, -2.64642486572265625000e+001) (46, 1.50000000000000000000e+003) (35, 3.36765670776367187500e+001) (36, 1.49928186035156250000e+003) (0, 3.07355995178222656250e+001) (41, -8.87650871276855468750e+000) (25, 1.50000000000000000000e+003) (40, -8.85481357574462890625e+000) (6, 3.21532096862792968750e+001) (23, -9.82273941040039062500e+001) (18, 4.31027126312255859375e+000) (55, -1.50000000000000000000e+003) (57, 1.50000000000000000000e+003) (32, 1.50000000000000000000e+003) (48, 1.50000000000000000000e+003) (70, 1.34811282157897949219e+000) (44, 1.50000000000000000000e+003) (19, -6.84227561950683593750e+000) (62, 1.50000000000000000000e+003) (32, 1.50000000000000000000e+003) (33, 1.50000000000000000000e+003) (59, 1.50000000000000000000e+003) (57, 1.50000000000000000000e+003) (68, 1.50000000000000000000e+003) (69, 1.50000000000000000000e+003) (21, 8.13489615917205810547e-001) (61, 1.50000000000000000000e+003) (55, -1.50000000000000000000e+003) (16, 1.50000000000000000000e+003) (1, 1.56434402465820312500e+001) (10, 2.58545074462890625000e+002) (51, 2.95060873031616210938e+000) (3, 1.46262231445312500000e+003) (35, -4.55345687866210937500e+001) (23, 1.18663244628906250000e+003) (20, -7.72272586822509765625e+000) (4, 1.43973950195312500000e+003) (25, 1.50000000000000000000e+003) (5, 1.48553253173828125000e+002) (22, 6.02176055908203125000e+001) (49, 1.50000000000000000000e+003) (6, 3.49821777343750000000e+001) (45, 1.50000000000000000000e+003) (2, 1.14469653320312500000e+003) (50, -4.12741756439208984375e+000) (28, 1.50000000000000000000e+003) (52, 1.27466125488281250000e+003) (11, 6.19540344238281250000e+002) (31, 1.50000000000000000000e+003) (9, 1.46151879882812500000e+003) (34, 1.50000000000000000000e+003) (70, 1.49970434570312500000e+003) (16, 1.50000000000000000000e+003) (67, 1.49999963378906250000e+003) (38, 1.30918432617187500000e+003) (37, 1.27465649414062500000e+003) (21, 8.59263992309570312500e+001) (9, 1.43812060546875000000e+003) (34, 1.58487339019775390625e+001) (15, 1.50000000000000000000e+003) (40, -1.10901171875000000000e+003) (52, -1.50000000000000000000e+003) (3, 1.50000000000000000000e+003) (33, 1.50000000000000000000e+003) (44, 1.50000000000000000000e+003) (63, 1.50000000000000000000e+003) (48, 1.50000000000000000000e+003) (14, 1.50000000000000000000e+003) (7, -1.85519447326660156250e+001) (24, 1.50000000000000000000e+003) (17, 1.50000000000000000000e+003) (46, 1.50000000000000000000e+003) (22, 1.49282336425781250000e+003) (64, 1.50000000000000000000e+003) (54, 1.26880004882812500000e+003) (66, 4.51671600341796875000e+002) (65, 1.50000000000000000000e+003) (8, 1.06929248046875000000e+003) (23, 5.06890380859375000000e+002) (58, 1.50000000000000000000e+003) (47, 1.50000000000000000000e+003) (42, 1.49941101074218750000e+003) (51, 1.49999108886718750000e+003) (10, 1.46565429687500000000e+003) (30, 1.50000000000000000000e+003) (29, 1.50000000000000000000e+003) (11, 1.50000000000000000000e+003) (70, -1.00160457193851470947e-001) (39, -4.56135272979736328125e+000) (46, 1.50000000000000000000e+003) (37, -7.67079305648803710938e+000) (64, 1.50000000000000000000e+003) (13, 1.50000000000000000000e+003) (53, 1.86515426635742187500e+001) (48, 1.50000000000000000000e+003) (54, -8.61314620971679687500e+001) (7, 2.73868346214294433594e+000) (24, -2.19098043441772460938e+000) (6, -5.04280805587768554688e+000) (38, -7.06418395042419433594e-001) (29, 1.50000000000000000000e+003) (23, -2.55424571037292480469e+000) (36, -3.30415077209472656250e+001) (34, 4.18281221389770507812e+000) (57, 1.50000000000000000000e+003) (33, 1.50000000000000000000e+003) (40, 3.01385372877120971680e-001) (45, 1.50000000000000000000e+003) (27, -1.50000000000000000000e+003) (20, -1.05416464805603027344e+000) (50, -9.13111507892608642578e-001) (59, 1.50000000000000000000e+003) (19, 3.72716879844665527344e+000) (52, -4.09290790557861328125e+000) (51, 7.83989429473876953125e-001) (3, -1.37501239776611328125e+001) (56, 1.50000000000000000000e+003) (47, 1.50000000000000000000e+003) (1, 7.54376351833343505859e-001) (61, 1.50000000000000000000e+003) (2, 9.77939128875732421875e+000) (67, -9.56876468658447265625e+000) (12, 1.50000000000000000000e+003) (70, 8.62213745713233947754e-002) (28, 1.50000000000000000000e+003) (4, -3.52304148674011230469e+000) (64, 1.50000000000000000000e+003) (3, 1.56661093235015869141e+000) (12, 1.50000000000000000000e+003) (60, 1.50000000000000000000e+003) (45, 1.50000000000000000000e+003) (0, -4.61106014251708984375e+000) (61, 1.50000000000000000000e+003) (62, 1.50000000000000000000e+003) (24, 5.99092864990234375000e+000) (41, 1.71903955936431884766e+000) (50, 6.97715473175048828125e+000) (18, -3.45507192611694335938e+000) (40, 2.47861337661743164062e+000) (13, 1.50000000000000000000e+003) (53, -3.08899078369140625000e+001) (51, 1.09067052602767944336e-001) (14, 1.50000000000000000000e+003) (49, 1.50000000000000000000e+003) (35, -3.61607261002063751221e-002) (6, 4.84096944332122802734e-001) (56, 1.50000000000000000000e+003) (34, -1.23230397701263427734e-001) (37, 4.55565261840820312500e+000) (42, 1.28683652877807617188e+001) (16, 1.50000000000000000000e+003) (31, 1.50000000000000000000e+003) (59, 1.50000000000000000000e+003) (44, 1.50000000000000000000e+003) (15, 1.50000000000000000000e+003) (46, 1.50000000000000000000e+003) (9, 7.21607923507690429688e-001) (58, 1.50000000000000000000e+003) (36, 2.85404944419860839844e+000) (70, 3.33753538131713867188e+000) (55, -1.50000000000000000000e+003) (16, 1.50000000000000000000e+003) (41, 1.43695593261718750000e+003) (63, 1.50000000000000000000e+003) (65, 1.50000000000000000000e+003) (4, 1.79951736450195312500e+002) (64, 1.50000000000000000000e+003) (11, 1.45282568359375000000e+003) (24, 3.80191841125488281250e+001) (6, 1.86809249877929687500e+002) (33, 1.50000000000000000000e+003) (37, 3.37761962890625000000e+002) (38, 1.40360278320312500000e+003) (28, 1.50000000000000000000e+003) (8, 1.87800903320312500000e+001) (40, 2.72484588623046875000e+001) (67, 1.96479284763336181641e+000) (56, 1.50000000000000000000e+003) (12, 1.50000000000000000000e+003) (66, 1.46543994140625000000e+003) (1, 7.36283731460571289062e+000) (19, 2.84992332458496093750e+001) (62, 1.50000000000000000000e+003) (23, -6.39840173721313476562e+000) (42, 1.15926342773437500000e+003) (29, 1.50000000000000000000e+003) (15, 1.50000000000000000000e+003) (57, 1.50000000000000000000e+003) (31, 1.50000000000000000000e+003) (17, 1.50000000000000000000e+003) (27, 1.50000000000000000000e+003) (46, 1.50000000000000000000e+003) (20, -8.82843971252441406250e-001) (18, 8.11518783569335937500e+001) (21, -2.44775032997131347656e+000) (70, 1.07241857051849365234e+000) (45, 1.50000000000000000000e+003) (16, 1.50000000000000000000e+003) (39, 1.15125842285156250000e+003) (61, 1.50000000000000000000e+003) (54, 4.55722839355468750000e+002) (3, -2.47538490295410156250e+001) (50, 5.29398143291473388672e-001) (20, 1.06533193588256835938e+001) (46, 1.50000000000000000000e+003) (12, 1.50000000000000000000e+003) (40, 1.12932624816894531250e+002) (25, 1.50000000000000000000e+003) (67, 9.25741732120513916016e-001) (10, 1.50000000000000000000e+003) (55, -1.50000000000000000000e+003) (6, 6.38592004776000976562e+000) (33, 1.50000000000000000000e+003) (5, -3.18780922889709472656e+000) (63, 1.50000000000000000000e+003) (32, 1.50000000000000000000e+003) (34, -3.61542440950870513916e-002) (17, 1.50000000000000000000e+003) (37, 1.49983288574218750000e+003) (30, 1.50000000000000000000e+003) (44, 1.50000000000000000000e+003) (1, 1.09656028747558593750e+001) (38, 1.44380651855468750000e+003) (31, 1.50000000000000000000e+003) (4, -4.30989694595336914062e+000) (57, 1.50000000000000000000e+003) (11, 1.50000000000000000000e+003) (56, 1.50000000000000000000e+003) (13, 1.50000000000000000000e+003) (66, 1.32242784500122070312e+001) (22, -9.84490776062011718750e+000) (70, 1.49965063476562500000e+003) (64, 1.50000000000000000000e+003) (19, 4.61004272460937500000e+002) (20, 1.46059036254882812500e+002) (41, 1.07610107421875000000e+003) (55, -1.50000000000000000000e+003) (35, 1.49999755859375000000e+003) (54, 7.90800048828125000000e+002) (38, 5.00221290588378906250e+001) (9, 1.49999658203125000000e+003) (36, 1.49779772949218750000e+003) (31, 1.50000000000000000000e+003) (39, 4.00653503417968750000e+002) (57, 1.50000000000000000000e+003) (4, 1.48353540039062500000e+003) (49, 1.50000000000000000000e+003) (37, 1.49769140625000000000e+003) (30, 1.50000000000000000000e+003) (45, 1.50000000000000000000e+003) (13, 1.50000000000000000000e+003) (63, 1.50000000000000000000e+003) (32, 1.50000000000000000000e+003) (66, 9.08950012207031250000e+002) (60, 1.50000000000000000000e+003) (14, 1.50000000000000000000e+003) (56, 1.50000000000000000000e+003) (2, 1.45099267578125000000e+003) (47, 1.50000000000000000000e+003) (58, 1.50000000000000000000e+003) (7, 1.49895837402343750000e+003) (50, 4.65174163818359375000e+002) (28, 1.50000000000000000000e+003) (16, 1.50000000000000000000e+003) (0, -4.81730103492736816406e-002) (5, 1.42049316406250000000e+003) (12, 1.50000000000000000000e+003) (70, 1.63243222236633300781e+000) (37, -1.44451160430908203125e+001) (55, -1.50000000000000000000e+003) (32, 1.50000000000000000000e+003) (33, 1.50000000000000000000e+003) (59, 1.50000000000000000000e+003) (46, 1.50000000000000000000e+003) (19, 1.11188983917236328125e+001) (45, 1.50000000000000000000e+003) (3, 1.35533742904663085938e+001) (20, 1.58748502731323242188e+001) (18, 5.12950782775878906250e+001) (15, 1.50000000000000000000e+003) (68, 1.50000000000000000000e+003) (9, -6.77816581726074218750e+000) (31, 1.50000000000000000000e+003) (29, 1.50000000000000000000e+003) (16, 1.50000000000000000000e+003) (48, 1.50000000000000000000e+003) (7, 4.52191829681396484375e+000) (50, 1.02651662826538085938e+001) (43, -1.73050262451171875000e+002) (42, -5.64888458251953125000e+001) (12, 1.50000000000000000000e+003) (8, 8.37648681640625000000e+002) (54, -1.50000000000000000000e+003) (5, 1.99813747406005859375e+001) (47, 1.50000000000000000000e+003) (44, 1.50000000000000000000e+003) (65, 1.50000000000000000000e+003) (21, -2.18539595603942871094e+000) (67, 9.51089668273925781250e+000) (25, 1.50000000000000000000e+003) (64, 1.50000000000000000000e+003) (26, 1.50000000000000000000e+003) (4, 2.23014564514160156250e+001) (70, -1.87968981266021728516e+000) (57, 1.50000000000000000000e+003) (34, 1.04400742053985595703e+000) (18, 2.89180189371109008789e-001) (1, -6.72878444194793701172e-001) (6, 1.07388305664062500000e+000) (59, 1.50000000000000000000e+003) (15, 1.50000000000000000000e+003) (36, 4.89771336317062377930e-001) (28, 1.50000000000000000000e+003) (54, -1.50000000000000000000e+003) (24, 5.16943237304687500000e+002) (7, 9.48701858520507812500e-001) (42, 1.38408339023590087891e+000) (16, 1.50000000000000000000e+003) (62, 1.50000000000000000000e+003) (13, 1.50000000000000000000e+003) (26, 1.50000000000000000000e+003) (0, 3.43386840820312500000e+001) (51, -8.12928736209869384766e-001) (39, -5.12067973613739013672e-001) (64, 1.50000000000000000000e+003) (53, 7.01404785156250000000e+002) (61, 1.50000000000000000000e+003) (58, 1.50000000000000000000e+003) (67, -4.88379627466201782227e-001) (10, 2.26074600219726562500e+000) (66, -3.29952359199523925781e+000) (17, 1.50000000000000000000e+003) (2, -8.94388079643249511719e-001) (63, 1.50000000000000000000e+003) (49, 1.50000000000000000000e+003) (22, -1.27576744556427001953e+000) (29, 1.50000000000000000000e+003) (50, -7.75349065661430358887e-002) (55, -1.50000000000000000000e+003) (70, 1.50000000000000000000e+003) (67, 1.48703991699218750000e+003) (34, 1.27386512756347656250e+002) (7, 1.02603158950805664062e+001) (63, 1.50000000000000000000e+003) (65, 1.50000000000000000000e+003) (3, 1.49653186035156250000e+003) (50, 4.81745033264160156250e+001) (4, 1.50000000000000000000e+003) (21, 2.33708744049072265625e+001) (10, 1.01961157226562500000e+003) (35, 3.47615509033203125000e+001) (54, -1.06213842773437500000e+003) (11, 1.44339074707031250000e+003) (57, 1.50000000000000000000e+003) (13, 1.50000000000000000000e+003) (27, 1.50000000000000000000e+003) (9, 1.21450683593750000000e+003) (29, 1.50000000000000000000e+003) (36, 4.37623992919921875000e+002) (44, 1.50000000000000000000e+003) (19, 1.14821923828125000000e+003) (37, 4.44656738281250000000e+002) (56, 1.50000000000000000000e+003) (64, 1.50000000000000000000e+003) (59, 1.50000000000000000000e+003) (46, 1.50000000000000000000e+003) (62, 1.50000000000000000000e+003) (55, -1.50000000000000000000e+003) (43, 1.50000000000000000000e+003) (49, 1.50000000000000000000e+003) (52, 8.91540405273437500000e+002) (18, 6.69869461059570312500e+001) (1, 1.50000000000000000000e+003) (42, 1.46011962890625000000e+003) (2, 1.49318115234375000000e+003) (70, 1.49600646972656250000e+003) (58, 1.50000000000000000000e+003) (15, 1.50000000000000000000e+003) (45, 1.50000000000000000000e+003) (5, 1.49994580078125000000e+003) (31, 1.50000000000000000000e+003) (55, -1.09199951171875000000e+002) (59, 1.50000000000000000000e+003) (27, 1.50000000000000000000e+003) (26, 1.50000000000000000000e+003) (56, 1.50000000000000000000e+003) (25, 1.50000000000000000000e+003) (29, 1.50000000000000000000e+003) (63, 1.50000000000000000000e+003) (16, 1.50000000000000000000e+003) (17, 1.50000000000000000000e+003) (53, 1.17825903320312500000e+003) (48, 1.50000000000000000000e+003) (40, 3.00520935058593750000e+002) (28, 1.50000000000000000000e+003) (8, 1.21129638671875000000e+003) (24, 1.50000000000000000000e+003) (57, 1.50000000000000000000e+003) (33, 1.50000000000000000000e+003) (47, 1.50000000000000000000e+003) (18, 1.07260058593750000000e+003) (41, 1.49373925781250000000e+003) (52, 1.49434790039062500000e+003) (67, 1.49986938476562500000e+003) (1, 1.50000000000000000000e+003) (21, 1.49565417480468750000e+003) (66, 1.49392053222656250000e+003) (50, 1.49999987792968750000e+003) (32, 1.50000000000000000000e+003) (62, 1.50000000000000000000e+003) (35, 1.49507348632812500000e+003) (70, 1.54221820831298828125e+000) (8, 3.07029094696044921875e+001) (39, 5.13756704330444335938e+000) (40, -4.77402019500732421875e+000) (3, 8.85851097106933593750e+000) (63, 1.50000000000000000000e+003) (59, 1.50000000000000000000e+003) (43, 9.04405151367187500000e+002) (18, 4.65619430541992187500e+001) (2, 1.49794885253906250000e+003) (11, -3.35158172607421875000e+002) (14, 1.50000000000000000000e+003) (65, 1.50000000000000000000e+003) (54, -1.34339990234375000000e+003) (41, 1.95816528797149658203e+000) (7, 1.12933528423309326172e+000) (27, 1.50000000000000000000e+003) (47, 1.50000000000000000000e+003) (64, 1.50000000000000000000e+003) (56, 1.50000000000000000000e+003) (53, 1.73344767093658447266e+000) (62, 1.50000000000000000000e+003) (42, 3.33400487899780273438e-001) (33, 1.50000000000000000000e+003) (67, 2.06737632751464843750e+001) (34, 1.40309524536132812500e+000) (25, -1.31580004882812500000e+003) (10, -1.42164897918701171875e+001) (35, -2.87588996887207031250e+001) (26, -9.15800048828125000000e+002) (58, 1.50000000000000000000e+003) (50, 8.28147888183593750000e+000) (38, 1.50000000000000000000e+003) (4, 1.23372116088867187500e+001) (16, 1.50000000000000000000e+003) (31, 1.50000000000000000000e+003) (70, 1.48454064941406250000e+003) (69, 1.50000000000000000000e+003) (52, 7.52415180206298828125e+000) (3, 1.18960375976562500000e+003) (20, 3.02909912109375000000e+002) (37, 8.55008506774902343750e+000) (62, 1.50000000000000000000e+003) (12, 1.50000000000000000000e+003) (8, 3.30186218023300170898e-001) (23, 1.43987109375000000000e+003) (33, 1.50000000000000000000e+003) (28, 1.50000000000000000000e+003) (4, 1.43973950195312500000e+003) (41, 5.95934204101562500000e+002) (7, 1.46270898437500000000e+003) (13, 1.50000000000000000000e+003) (15, 1.50000000000000000000e+003) (2, 1.16541577148437500000e+003) (21, -3.15693450927734375000e+002) (68, 1.50000000000000000000e+003) (9, -7.01495504379272460938e+000) (27, 1.50000000000000000000e+003) (18, 1.47377300262451171875e+001) (67, 1.42768811035156250000e+003) (5, 1.43522314453125000000e+003) (26, 1.50000000000000000000e+003) (25, 1.50000000000000000000e+003) (60, 1.50000000000000000000e+003) (22, 4.17410564422607421875e+000) (29, 1.50000000000000000000e+003) (6, 1.49338940429687500000e+003) (66, 1.37406506347656250000e+003) (24, 1.50000000000000000000e+003) (56, 1.50000000000000000000e+003) (47, 1.50000000000000000000e+003) (35, 1.28284790039062500000e+003) (70, -1.50000000000000000000e+003) (35, -1.03989978027343750000e+003) (25, -1.50000000000000000000e+003) (26, -1.50000000000000000000e+003) (45, 1.50000000000000000000e+003) (56, 1.50000000000000000000e+003) (19, -1.37234997558593750000e+003) (60, 1.50000000000000000000e+003) (22, -1.49961901855468750000e+003) (14, 1.50000000000000000000e+003) (48, 1.50000000000000000000e+003) (44, 1.50000000000000000000e+003) (1, -1.50000000000000000000e+003) (49, 1.50000000000000000000e+003) (39, -1.43000000000000000000e+003) (58, 1.50000000000000000000e+003) (15, 1.50000000000000000000e+003) (34, -1.01413879394531250000e+003) (47, 1.50000000000000000000e+003) (51, -1.46028039550781250000e+003) (24, -1.50000000000000000000e+003) (67, -1.50000000000000000000e+003) (50, -1.47216308593750000000e+003) (12, 1.50000000000000000000e+003) (2, -1.45881030273437500000e+003) (52, -1.03405529785156250000e+003) (8, -1.44174731445312500000e+003) (32, 1.50000000000000000000e+003) (13, 1.50000000000000000000e+003) (28, 1.50000000000000000000e+003) (23, -1.05626135253906250000e+003) (33, 1.50000000000000000000e+003) (7, -1.42324450683593750000e+003) (40, -1.43729431152343750000e+003) (37, -1.23108215332031250000e+003) (31, 1.50000000000000000000e+003) (70, 4.48907136917114257812e-001) (3, -2.78360676765441894531e+000) (68, 1.50000000000000000000e+003) (35, 4.05451202392578125000e+000) (25, 1.50000000000000000000e+003) (33, 1.50000000000000000000e+003) (30, 1.50000000000000000000e+003) (46, 1.50000000000000000000e+003) (43, -4.20449924468994140625e+000) (49, 1.50000000000000000000e+003) (59, 1.50000000000000000000e+003) (48, 1.50000000000000000000e+003) (15, 1.50000000000000000000e+003) (66, -7.60999500751495361328e-001) (62, 1.50000000000000000000e+003) (12, 1.50000000000000000000e+003) (61, 1.50000000000000000000e+003) (37, 3.61703324317932128906e+000) (5, 2.07123786211013793945e-001) (57, 1.50000000000000000000e+003) (56, 1.50000000000000000000e+003) (7, 2.60377734899520874023e-001) (14, 1.50000000000000000000e+003) (31, 1.50000000000000000000e+003) (40, 1.92114067077636718750e+000) (9, 7.82777726650238037109e-001) (26, 1.50000000000000000000e+003) (23, -3.10552525520324707031e+000) (67, 2.56139069795608520508e-001) (51, 2.16702505946159362793e-001) (11, -9.97690124511718750000e+002) (21, -5.14025688171386718750e-001) (64, 1.50000000000000000000e+003) (22, -2.30995044112205505371e-001) (41, 5.06414556503295898438e+000) (58, 1.50000000000000000000e+003) (70, -1.73418748378753662109e+000) (46, 1.50000000000000000000e+003) (32, 1.50000000000000000000e+003) (48, 1.50000000000000000000e+003) (9, 1.46730358886718750000e+003) (14, 1.50000000000000000000e+003) (24, 1.50000000000000000000e+003) (2, 1.49428210449218750000e+003) (58, 1.50000000000000000000e+003) (60, 1.50000000000000000000e+003) (69, 1.50000000000000000000e+003) (41, 1.05660009765625000000e+003) (13, 1.50000000000000000000e+003) (16, 1.50000000000000000000e+003) (34, -1.33487634658813476562e+001) (50, -5.73563098907470703125e+000) (54, 1.64585037231445312500e+002) (25, 1.50000000000000000000e+003) (51, 1.27357616424560546875e+001) (42, 1.00660009765625000000e+003) (6, 5.17795959472656250000e+002) (57, 1.50000000000000000000e+003) (49, 1.50000000000000000000e+003) (27, 1.50000000000000000000e+003) (37, 1.49991479492187500000e+003) (39, -2.72443599700927734375e+001) (64, 1.50000000000000000000e+003) (63, 1.50000000000000000000e+003) (40, -6.85365676879882812500e+000) (4, 1.50000000000000000000e+003) (62, 1.50000000000000000000e+003) (55, -1.50000000000000000000e+003) (1, 4.44608592987060546875e+000) (3, 1.49992675781250000000e+003) (30, 1.50000000000000000000e+003) (15, 1.50000000000000000000e+003) (70, 8.42605495452880859375e+000) (63, 1.50000000000000000000e+003) (56, 1.50000000000000000000e+003) (27, 1.50000000000000000000e+003) (43, -8.82865371704101562500e+001) (14, 1.50000000000000000000e+003) (65, 1.50000000000000000000e+003) (24, -5.13233184814453125000e+000) (46, 1.50000000000000000000e+003) (38, 1.30144006347656250000e+003) (20, 9.50070190429687500000e+000) (32, 1.50000000000000000000e+003) (13, 1.50000000000000000000e+003) (22, -2.80554723739624023438e+000) (11, -2.69757019042968750000e+002) (58, 1.50000000000000000000e+003) (19, -6.19736146926879882812e+000) (5, 8.56449317932128906250e+000) (12, 1.50000000000000000000e+003) (66, 5.16420173645019531250e+001) (51, 5.51572837829589843750e+001) (39, 1.50000000000000000000e+003) (17, 1.50000000000000000000e+003) (8, 1.85078220367431640625e+001) (64, 1.50000000000000000000e+003) (68, 1.50000000000000000000e+003) (6, 1.22771191596984863281e+000) (23, -1.05317535400390625000e+001) (3, -5.08294939994812011719e-001) (60, 1.50000000000000000000e+003) (47, 1.50000000000000000000e+003) (37, -5.81266784667968750000e+001) (34, 2.39759302139282226562e+000) (48, 1.50000000000000000000e+003) (44, 1.50000000000000000000e+003) (10, -7.80132980346679687500e+001) (70, 1.81278407573699951172e-001) (13, 1.50000000000000000000e+003) (47, 1.50000000000000000000e+003) (12, 1.50000000000000000000e+003) (17, 1.50000000000000000000e+003) (48, 1.50000000000000000000e+003) (28, 1.50000000000000000000e+003) (40, -3.33892416954040527344e+000) (16, 1.50000000000000000000e+003) (45, 1.50000000000000000000e+003) (39, -1.37298851013183593750e+001) (65, 1.50000000000000000000e+003) (5, -6.34736895561218261719e-001) (9, 2.64139580726623535156e+000) (57, 1.50000000000000000000e+003) (69, 1.50000000000000000000e+003) (41, -2.26455545425415039062e+000) (2, -1.11257727050781250000e+003) (10, -5.85246038436889648438e+000) (54, -7.65800048828125000000e+002) (15, 1.50000000000000000000e+003) (31, 1.50000000000000000000e+003) (43, -1.13141841888427734375e+001) (3, 9.81528472900390625000e+000) (30, 1.50000000000000000000e+003) (68, 1.50000000000000000000e+003) (67, -4.97420616447925567627e-002) (52, 1.20275640487670898438e+000) (25, -1.50000000000000000000e+003) (44, 1.50000000000000000000e+003) (6, 2.49838888645172119141e-001) (64, 1.50000000000000000000e+003) (61, 1.50000000000000000000e+003) (24, -6.45603454589843750000e+002) (18, 5.19057333469390869141e-001) (53, -1.01454591751098632812e+001) (70, 1.15089952945709228516e-001) (8, 1.95060360431671142578e+000) (26, -1.50000000000000000000e+003) (0, 2.81363058090209960938e+000) (44, 1.50000000000000000000e+003) (29, 1.50000000000000000000e+003) (28, 1.50000000000000000000e+003) (67, -6.23767137527465820312e-001) (51, 2.69652575254440307617e-001) (7, 9.84784141182899475098e-002) (59, 1.50000000000000000000e+003) (57, 1.50000000000000000000e+003) (5, 3.23683142662048339844e-001) (47, 1.50000000000000000000e+003) (15, 1.50000000000000000000e+003) (1, -2.99818962812423706055e-001) (27, -1.50000000000000000000e+003) (11, 8.19628620147705078125e+000) (6, 1.29424202442169189453e+000) (9, 8.86139214038848876953e-001) (58, 1.50000000000000000000e+003) (66, -5.56525588035583496094e-001) (12, 1.50000000000000000000e+003) (42, -2.67569422721862792969e-001) (24, -2.53349137306213378906e+000) (33, 1.50000000000000000000e+003) (4, 1.22436320781707763672e+000) (23, 3.97387766838073730469e+000) (19, 1.16799247264862060547e+000) (38, 3.82112598419189453125e+000) (35, -6.12527668476104736328e-001) (61, 1.50000000000000000000e+003) (34, -3.20333659648895263672e-001) (48, 1.50000000000000000000e+003) (63, 1.50000000000000000000e+003) (60, 1.50000000000000000000e+003) (70, -4.54297018051147460938e+000) (4, 2.06822509765625000000e+001) (37, -1.49988476562500000000e+003) (41, 1.78588104248046875000e+000) (53, 8.77354145050048828125e+000) (29, 1.50000000000000000000e+003) (40, -8.91096591949462890625e+000) (18, -1.30915551757812500000e+003) (68, 1.50000000000000000000e+003) (62, 1.50000000000000000000e+003) (30, 1.50000000000000000000e+003) (43, 4.65808451175689697266e-001) (28, 1.50000000000000000000e+003) (63, 1.50000000000000000000e+003) (21, -1.09864645004272460938e+001) (42, -7.10698413848876953125e+000) (19, -7.14230155944824218750e+000) (31, 1.50000000000000000000e+003) (6, -1.25451013183593750000e+003) (48, 1.50000000000000000000e+003) (61, 1.50000000000000000000e+003) (20, -5.38617515563964843750e+000) (44, 1.50000000000000000000e+003) (22, -7.21695327758789062500e+000) (34, -2.40009784698486328125e+001) (23, -6.38503670692443847656e-001) (10, -1.47053430175781250000e+003) (69, 1.50000000000000000000e+003) (7, -2.83937358856201171875e+001) (15, 1.50000000000000000000e+003) (39, 1.10647382736206054688e+001) (45, 1.50000000000000000000e+003) (14, 1.50000000000000000000e+003) (50, 1.11598110198974609375e+001) (57, 1.50000000000000000000e+003) (67, -1.40608730316162109375e+001) (70, 4.92109775543212890625e-001) (16, 1.50000000000000000000e+003) (49, 1.50000000000000000000e+003) (35, 7.59860277175903320312e+000) (25, 1.50000000000000000000e+003) (10, -1.22580528259277343750e+000) (30, 1.50000000000000000000e+003) (6, -1.03050661087036132812e+001) (15, 1.50000000000000000000e+003) (45, 1.50000000000000000000e+003) (17, 1.50000000000000000000e+003) (54, 1.04080004882812500000e+003) (40, -8.15640640258789062500e+000) (43, 1.26751106262207031250e+002) (59, 1.50000000000000000000e+003) (48, 1.50000000000000000000e+003) (39, 4.36787557601928710938e+000) (27, 1.50000000000000000000e+003) (31, 1.50000000000000000000e+003) (65, 1.50000000000000000000e+003) (46, 1.50000000000000000000e+003) (23, -1.46044174194335937500e+002) (37, 4.95483856201171875000e+001) (57, 1.50000000000000000000e+003) (18, 7.33732104301452636719e-001) (47, 1.50000000000000000000e+003) (3, 7.49783935546875000000e+002) (51, -4.55043716430664062500e+001) (67, -2.63166993856430053711e-001) (42, -4.75291137695312500000e+001) (5, -5.75948858261108398438e+000) (44, 1.50000000000000000000e+003) (63, 1.50000000000000000000e+003) (36, -1.95482540130615234375e+001) (62, 1.50000000000000000000e+003) (28, 1.50000000000000000000e+003) (70, 1.50000000000000000000e+003) (2, 7.71295852661132812500e+001) (44, 1.50000000000000000000e+003) (9, 1.41301220703125000000e+003) (58, 1.50000000000000000000e+003) (19, 1.60894317626953125000e+001) (41, 1.38641577148437500000e+003) (23, 1.43869653320312500000e+003) (48, 1.50000000000000000000e+003) (17, 1.50000000000000000000e+003) (55, -1.50000000000000000000e+003) (66, 1.17978057861328125000e+002) (42, 8.81242126464843750000e+002) (61, 1.50000000000000000000e+003) (6, 7.78982620239257812500e+001) (52, 9.19295288085937500000e+002) (18, 3.94582710266113281250e+001) (62, 1.50000000000000000000e+003) (53, 8.48606567382812500000e+002) (39, 8.41371536254882812500e+001) (50, 8.86824264526367187500e+001) (68, 1.50000000000000000000e+003) (45, 1.50000000000000000000e+003) (33, 1.50000000000000000000e+003) (56, 1.50000000000000000000e+003) (65, 1.50000000000000000000e+003) (37, 1.49960766601562500000e+003) (30, 1.50000000000000000000e+003) (46, 1.50000000000000000000e+003) (25, 1.50000000000000000000e+003) (54, 1.31726135253906250000e+003) (59, 1.50000000000000000000e+003) (38, 3.18453731536865234375e+001) (27, 1.50000000000000000000e+003) (11, 1.50000000000000000000e+003) (3, 8.26933044433593750000e+002) (70, 4.11703443527221679688e+000) (10, 4.85706359863281250000e+002) (31, 1.50000000000000000000e+003) (47, 1.50000000000000000000e+003) (61, 1.50000000000000000000e+003) (3, 7.97481954097747802734e-001) (28, 1.50000000000000000000e+003) (55, -1.50000000000000000000e+003) (25, 1.50000000000000000000e+003) (40, -3.10579948425292968750e+001) (18, 8.47388935089111328125e+000) (32, 1.50000000000000000000e+003) (50, 1.22039013671875000000e+003) (51, 8.05626953125000000000e+002) (54, 9.40800048828125000000e+002) (13, 1.50000000000000000000e+003) (41, -1.13351621627807617188e+001) (48, 1.50000000000000000000e+003) (22, -1.82756748199462890625e+001) (34, 9.43216037750244140625e+000) (23, -4.85248474121093750000e+002) (36, -1.42791616916656494141e+000) (21, -3.34054107666015625000e+001) (12, 1.50000000000000000000e+003) (57, 1.50000000000000000000e+003) (53, -1.48254577636718750000e+002) (0, -3.88102078437805175781e+000) (46, 1.50000000000000000000e+003) (26, 1.50000000000000000000e+003) (16, 1.50000000000000000000e+003) (37, -1.90086803436279296875e+001) (52, 5.73519836425781250000e+002) (35, 2.63519477844238281250e+000) (59, 1.50000000000000000000e+003) (60, 1.50000000000000000000e+003) (17, 1.50000000000000000000e+003) (70, 8.15815091133117675781e-001) (36, 5.70445022583007812500e+001) (6, -2.24603271484375000000e+000) (0, 7.89176821708679199219e-001) (14, 1.50000000000000000000e+003) (44, 1.50000000000000000000e+003) (19, 1.13005483150482177734e+000) (57, 1.50000000000000000000e+003) (33, 1.50000000000000000000e+003) (8, -3.60561728477478027344e+000) (20, 1.02202391624450683594e+000) (55, -1.50000000000000000000e+003) (59, 1.50000000000000000000e+003) (12, 1.50000000000000000000e+003) (24, 1.50000000000000000000e+003) (40, 5.23066806793212890625e+000) (46, 1.50000000000000000000e+003) (23, 9.39261352539062500000e+002) (18, 1.83577907085418701172e+000) (15, 1.50000000000000000000e+003) (22, 6.87661588191986083984e-001) (17, 1.50000000000000000000e+003) (9, 2.33839488029479980469e+000) (41, 1.15805334472656250000e+003) (64, 1.50000000000000000000e+003) (10, 7.54810607910156250000e+002) (56, 1.50000000000000000000e+003) (66, 8.68089973926544189453e-001) (25, 1.50000000000000000000e+003) (50, 2.10086479783058166504e-001) (28, 1.50000000000000000000e+003) (1, 7.82267570495605468750e-001) (2, 6.12463684082031250000e+002) (63, 1.50000000000000000000e+003) (4, 1.50000000000000000000e+003) (21, 1.84097170829772949219e+000) (70, 1.37133538722991943359e+000) (6, 1.36461696624755859375e+001) (10, 1.50000000000000000000e+003) (65, 1.50000000000000000000e+003) (41, 1.12326135253906250000e+003) (53, 1.42604785156250000000e+003) (5, 1.50000000000000000000e+003) (36, 1.24061047363281250000e+003) (12, 1.50000000000000000000e+003) (35, -2.72490905761718750000e+002) (15, 1.50000000000000000000e+003) (8, 1.50000000000000000000e+003) (11, 1.50000000000000000000e+003) (59, 1.50000000000000000000e+003) (7, 6.00085205078125000000e+002) (14, 1.50000000000000000000e+003) (55, -1.50000000000000000000e+003) (57, 1.50000000000000000000e+003) (31, 1.50000000000000000000e+003) (62, 1.50000000000000000000e+003) (9, 1.50000000000000000000e+003) (21, 3.40674667358398437500e+001) (32, 1.50000000000000000000e+003) (28, 1.50000000000000000000e+003) (23, 1.23810754394531250000e+003) (29, 1.50000000000000000000e+003) (50, -2.74155586957931518555e-001) (20, 3.58089981079101562500e+001) (27, 1.50000000000000000000e+003) (38, -1.33213027954101562500e+002) (56, 1.50000000000000000000e+003) (39, 6.86835479736328125000e+001) (2, 5.63638420104980468750e+001) (66, -1.01205453872680664062e+001) (54, 9.29456481933593750000e+002) (25, 1.50000000000000000000e+003) (70, 2.01561808586120605469e+000) (4, -7.22000169754028320312e+000) (60, 1.50000000000000000000e+003) (3, 1.30703544616699218750e+000) (24, 1.50000000000000000000e+003) (51, 2.41223812103271484375e+000) (0, -2.70424175262451171875e+001) (44, 1.50000000000000000000e+003) (47, 1.50000000000000000000e+003) (63, 1.50000000000000000000e+003) (8, -2.24132003784179687500e+001) (20, -2.61312866210937500000e+002) (28, 1.50000000000000000000e+003) (23, -1.52312866210937500000e+002) (48, 1.50000000000000000000e+003) (36, 7.00688552856445312500e+001) (54, 1.50000000000000000000e+003) (19, -3.50163955688476562500e+001) (33, 1.50000000000000000000e+003) (1, 8.10654067993164062500e+000) (9, 1.49352026367187500000e+003) (67, 1.64857280254364013672e+000) (52, 5.70351886749267578125e+000) (12, 1.50000000000000000000e+003) (10, 6.28936523437500000000e+002) (49, 1.50000000000000000000e+003) (39, -1.80333107709884643555e-001) (68, 1.50000000000000000000e+003) (45, 1.50000000000000000000e+003) (16, 1.50000000000000000000e+003) (11, 3.15490020751953125000e+002) (50, 2.01590614318847656250e+001) (57, 1.50000000000000000000e+003) (61, 1.50000000000000000000e+003) (25, 1.50000000000000000000e+003) (40, 2.74902129173278808594e+000) (70, -4.19725358486175537109e-001) (38, 4.04500808715820312500e+001) (19, -1.02052536010742187500e+001) (11, 1.46550317382812500000e+003) (43, -1.08811859130859375000e+002) (64, 1.50000000000000000000e+003) (8, 3.35305595397949218750e+001) (41, -1.39993829727172851562e+001) (35, -3.13561606407165527344e+000) (5, 1.47930765151977539062e+001) (26, -1.50000000000000000000e+003) (4, 4.42993164062500000000e+000) (16, 1.50000000000000000000e+003) (40, -1.61374628543853759766e+000) (31, 1.50000000000000000000e+003) (23, 2.78301658630371093750e+001) (9, 8.00843566894531250000e+002) (46, 1.50000000000000000000e+003) (15, 1.50000000000000000000e+003) (49, 1.50000000000000000000e+003) (30, 1.50000000000000000000e+003) (62, 1.50000000000000000000e+003) (21, 2.24164056777954101562e+000) (24, -1.50000000000000000000e+003) (47, 1.50000000000000000000e+003) (20, 6.16302604675292968750e+001) (58, 1.50000000000000000000e+003) (57, 1.50000000000000000000e+003) (32, 1.50000000000000000000e+003) (7, -5.47087764739990234375e+000) (22, 2.53615219116210937500e+002) (27, -1.50000000000000000000e+003) (52, -5.96938362121582031250e+001) (56, 1.50000000000000000000e+003) (39, -2.94301738739013671875e+001) (68, 1.50000000000000000000e+003) (70, 3.43128943443298339844e+000) (48, 1.50000000000000000000e+003) (59, 1.50000000000000000000e+003) (24, -5.36751556396484375000e+000) (55, 2.40800048828125000000e+002) (9, 2.05990219116210937500e+000) (3, 1.43400000000000000000e+003) (67, 3.18723917007446289062e+000) (7, 5.23912525177001953125e+000) (45, 1.50000000000000000000e+003) (49, 1.50000000000000000000e+003) (64, 1.50000000000000000000e+003) (53, -6.89970493316650390625e+000) (27, 1.50000000000000000000e+003) (65, 1.50000000000000000000e+003) (58, 1.50000000000000000000e+003) (32, 1.50000000000000000000e+003) (51, -5.57264995574951171875e+000) (41, 4.12731218338012695312e+000) (46, 1.50000000000000000000e+003) (21, 1.19212257862091064453e+000) (61, 1.50000000000000000000e+003) (29, 1.50000000000000000000e+003) (20, 2.04608082771301269531e+000) (54, -9.19075698852539062500e+001) (68, 1.50000000000000000000e+003) (10, 2.36416625976562500000e+000) (43, -1.39744257926940917969e+000) (30, 1.50000000000000000000e+003) (2, 6.07810058593750000000e+001) (47, 1.50000000000000000000e+003) (1, 3.50136852264404296875e+000) (8, -9.12355422973632812500e+000) (44, 1.50000000000000000000e+003) (25, 2.44025301933288574219e+000) (23, -1.15823757648468017578e+000) (70, 1.50000000000000000000e+003) (27, 1.50000000000000000000e+003) (65, 1.50000000000000000000e+003) (38, 1.27220239257812500000e+003) (63, 1.50000000000000000000e+003) (13, 1.50000000000000000000e+003) (2, 1.50000000000000000000e+003) (24, 1.50000000000000000000e+003) (44, 1.50000000000000000000e+003) (1, 1.50000000000000000000e+003) (20, 2.84719024658203125000e+002) (23, 1.43356494140625000000e+003) (14, 1.50000000000000000000e+003) (69, 1.50000000000000000000e+003) (39, 1.44416839599609375000e+002) (46, 1.50000000000000000000e+003) (51, 1.49946362304687500000e+003) (21, 7.55906448364257812500e+001) (59, 1.50000000000000000000e+003) (10, 1.50000000000000000000e+003) (48, 1.50000000000000000000e+003) (54, 1.26880004882812500000e+003) (66, 1.50000000000000000000e+003) (19, 1.40265222167968750000e+003) (16, 1.50000000000000000000e+003) (57, 1.50000000000000000000e+003) (4, 1.38837597656250000000e+003) (17, 1.50000000000000000000e+003) (47, 1.50000000000000000000e+003) (43, 1.25715698242187500000e+003) (33, 1.50000000000000000000e+003) (35, 6.00516080856323242188e+000) (56, 1.50000000000000000000e+003) (53, -6.22110290527343750000e+002) (61, 1.50000000000000000000e+003) (8, 1.49459997558593750000e+003) (70, -9.78159010410308837891e-002) (33, 1.50000000000000000000e+003) (49, 1.50000000000000000000e+003) (12, 1.50000000000000000000e+003) (1, -7.60426282882690429688e-001) (66, 9.55536425113677978516e-001) (64, 1.50000000000000000000e+003) (27, -9.33149291992187500000e+002) (24, -1.24495429992675781250e+001) (45, 1.50000000000000000000e+003) (44, 1.50000000000000000000e+003) (16, 1.50000000000000000000e+003) (61, 1.50000000000000000000e+003) (51, 4.65221196413040161133e-001) (39, 9.93164896965026855469e-001) (29, 1.50000000000000000000e+003) (50, -6.39790818095207214355e-002) (63, 1.50000000000000000000e+003) (42, -4.40895271301269531250e+001) (25, -1.50000000000000000000e+003) (60, 1.50000000000000000000e+003) (59, 1.50000000000000000000e+003) (10, 3.86263854980468750000e+002) (11, 9.06071228027343750000e+002) (31, 1.50000000000000000000e+003) (0, -4.75480365753173828125e+000) (41, -2.01276898384094238281e-001) (19, 4.24071311950683593750e+000) (22, 8.61355400085449218750e+000) (23, 3.66760253906250000000e+001) (7, -1.39530980587005615234e+000) (32, 1.50000000000000000000e+003) (6, -1.11189770698547363281e+000) (43, 6.42668685913085937500e+001) (14, 1.50000000000000000000e+003) (38, -1.31899631023406982422e+000) (70, 1.84724485874176025391e+000) (25, 1.50000000000000000000e+003) (32, 1.50000000000000000000e+003) (46, 1.50000000000000000000e+003) (5, 1.34560403823852539062e+001) (28, 1.50000000000000000000e+003) (48, 1.50000000000000000000e+003) (38, 1.49480090332031250000e+003) (39, 1.24615185546875000000e+003) (20, 3.29826736450195312500e+001) (44, 1.50000000000000000000e+003) (4, 6.82578125000000000000e+002) (65, 1.50000000000000000000e+003) (69, 1.50000000000000000000e+003) (43, -3.45247436523437500000e+002) (49, 1.50000000000000000000e+003) (55, -1.50000000000000000000e+003) (59, 1.50000000000000000000e+003) (42, 2.98652515411376953125e+001) (13, 1.50000000000000000000e+003) (16, 1.50000000000000000000e+003) (52, -1.60346710205078125000e+002) (37, 1.74276626586914062500e+002) (22, 1.26929016113281250000e+001) (1, 1.05202901363372802734e+000) (11, 1.45282568359375000000e+003) (53, 7.04241088867187500000e+002) (63, 1.50000000000000000000e+003) (62, 1.50000000000000000000e+003) (40, 1.10954086303710937500e+002) (51, 5.11304616928100585938e+000) (68, 1.50000000000000000000e+003) (56, 1.50000000000000000000e+003) (10, 7.80082015991210937500e+001) (7, 9.73393058776855468750e+000) (17, 1.50000000000000000000e+003) (70, 1.10041892528533935547e+000) (23, 8.48371826171875000000e+002) (6, 6.50660705566406250000e+000) (30, 1.50000000000000000000e+003) (42, 1.49845874023437500000e+003) (59, 1.50000000000000000000e+003) (15, 1.50000000000000000000e+003) (27, 1.50000000000000000000e+003) (56, 1.50000000000000000000e+003) (0, -5.55334520339965820312e+000) (18, -2.40953996777534484863e-001) (31, 1.50000000000000000000e+003) (62, 1.50000000000000000000e+003) (46, 1.50000000000000000000e+003) (58, 1.50000000000000000000e+003) (57, 1.50000000000000000000e+003) (1, 5.38248825073242187500e+000) (49, 1.50000000000000000000e+003) (11, -4.09658849239349365234e-001) (43, -2.26474609375000000000e+001) (66, -1.36416280269622802734e+000) (13, 1.50000000000000000000e+003) (41, -9.12273406982421875000e-001) (17, 1.50000000000000000000e+003) (47, 1.50000000000000000000e+003) (5, 1.50452484130859375000e+002) (28, 1.50000000000000000000e+003) (52, 2.58071660995483398438e+000) (67, -6.50209724903106689453e-001) (12, 1.50000000000000000000e+003) (63, 1.50000000000000000000e+003) (38, -2.65236783027648925781e+000) (40, 2.25018191337585449219e+000) (32, 1.50000000000000000000e+003) (24, 1.50000000000000000000e+003) (29, 1.50000000000000000000e+003) (70, -2.96940875053405761719e+000) (19, -7.12059783935546875000e+000) (27, -1.50000000000000000000e+003) (26, -1.50000000000000000000e+003) (28, 1.50000000000000000000e+003) (51, 1.77686729431152343750e+001) (54, -1.00580004882812500000e+003) (32, 1.50000000000000000000e+003) (1, -1.60923433303833007812e+000) (30, 1.50000000000000000000e+003) (48, 1.50000000000000000000e+003) (64, 1.50000000000000000000e+003) (33, 1.50000000000000000000e+003) (53, 2.35847091674804687500e+001) (21, -3.55697860717773437500e+001) (31, 1.50000000000000000000e+003) (52, 7.42748928070068359375e+000) (14, 1.50000000000000000000e+003) (42, -1.03534194946289062500e+002) (2, -8.73477554321289062500e+001) (55, 1.50000000000000000000e+003) (47, 1.50000000000000000000e+003) (60, 1.50000000000000000000e+003) (10, 2.81581634521484375000e+002) (58, 1.50000000000000000000e+003) (43, 9.13721923828125000000e+002) (65, 1.50000000000000000000e+003) (11, -1.99584603309631347656e-001) (3, 5.86655822753906250000e+002) (6, -2.55761361122131347656e+000) (63, 1.50000000000000000000e+003) (44, 1.50000000000000000000e+003) (4, -8.95576095581054687500e+001) (46, 1.50000000000000000000e+003) (22, 2.98251514434814453125e+001) (5, -1.61439437866210937500e+001) (70, 7.82905697822570800781e-001) (61, 1.50000000000000000000e+003) (67, -3.18681180477142333984e-001) (25, 1.50000000000000000000e+003) (11, 5.82646545410156250000e+002) (41, -8.40203285217285156250e+000) (59, 1.50000000000000000000e+003) (62, 1.50000000000000000000e+003) (48, 1.50000000000000000000e+003) (2, -3.80079627037048339844e+000) (52, 1.41259717941284179688e+000) (34, -3.44659201800823211670e-004) (21, -2.57083082199096679688e+000) (68, 1.50000000000000000000e+003) (64, 1.50000000000000000000e+003) (10, -6.76808261871337890625e+000) (46, 1.50000000000000000000e+003) (9, -1.57170605659484863281e+000) (31, 1.50000000000000000000e+003) (54, 8.90800048828125000000e+002) (36, -9.36861801147460937500e+000) (6, -1.71739711761474609375e+001) (58, 1.50000000000000000000e+003) (45, 1.50000000000000000000e+003) (63, 1.50000000000000000000e+003) (20, 3.52669954299926757812e+000) (29, 1.50000000000000000000e+003) (57, 1.50000000000000000000e+003) (39, -3.95135092735290527344e+000) (0, 7.59084463119506835938e+000) (43, 2.23110076904296875000e+002) (7, -1.82532329559326171875e+001) (51, -3.98874473571777343750e+000) (14, 1.50000000000000000000e+003) (17, 1.50000000000000000000e+003) (8, -8.69605255126953125000e+000) (70, 6.03581190109252929688e-001) (34, 1.50000000000000000000e+003) (38, 4.45708656311035156250e+001) (14, 1.50000000000000000000e+003) (30, 1.50000000000000000000e+003) (29, 1.50000000000000000000e+003) (4, -5.33772239685058593750e+001) (36, 1.49532312011718750000e+003) (28, 1.50000000000000000000e+003) (42, -1.09659612178802490234e+000) (15, 1.50000000000000000000e+003) (1, 1.99796795845031738281e+000) (57, 1.50000000000000000000e+003) (21, 8.14398705959320068359e-001) (68, 1.50000000000000000000e+003) (59, 1.50000000000000000000e+003) (33, 1.50000000000000000000e+003) (48, 1.50000000000000000000e+003) (60, 1.50000000000000000000e+003) (12, 1.50000000000000000000e+003) (65, 1.50000000000000000000e+003) (32, 1.50000000000000000000e+003) (53, 2.64263877868652343750e+001) (46, 1.50000000000000000000e+003) (62, 1.50000000000000000000e+003) (31, 1.50000000000000000000e+003) (52, -1.32195556640625000000e+003) (3, 3.99644088745117187500e+001) (24, -2.91920833587646484375e+001) (7, 4.18219985961914062500e+001) (66, -6.12400293350219726562e+000) (44, 1.50000000000000000000e+003) (37, 2.25042999267578125000e+002) (8, 5.44401184082031250000e+002) (61, 1.50000000000000000000e+003) (0, 1.93066871166229248047e+000) (70, -5.91255366802215576172e-001) (27, -1.50000000000000000000e+003) (53, 8.90642517089843750000e+002) (68, 1.50000000000000000000e+003) (9, -4.11294317245483398438e+000) (22, -4.14092391729354858398e-001) (58, 1.50000000000000000000e+003) (43, -1.26744335937500000000e+003) (52, 4.83547639846801757812e+000) (7, -8.41484725475311279297e-001) (38, -3.16016173362731933594e+000) (36, 1.21473565697669982910e-001) (23, -1.87335186004638671875e+001) (10, -2.34101448059082031250e+001) (15, 1.50000000000000000000e+003) (47, 1.50000000000000000000e+003) (0, 1.43922615051269531250e+000) (37, 1.06255769729614257812e+001) (41, 2.59837341308593750000e+000) (24, -1.50000000000000000000e+003) (44, 1.50000000000000000000e+003) (54, -1.50000000000000000000e+003) (45, 1.50000000000000000000e+003) (8, -2.04348316192626953125e+001) (69, 1.50000000000000000000e+003) (56, 1.50000000000000000000e+003) (57, 1.50000000000000000000e+003) (65, 1.50000000000000000000e+003) (35, -1.29190337657928466797e+000) (25, -1.50000000000000000000e+003) (55, -2.15800048828125000000e+002) (49, 1.50000000000000000000e+003) (3, 2.41409444808959960938e+000) (20, -2.88790851831436157227e-001) (50, -8.47046661376953125000e+000) (18, -8.61026227474212646484e-001) (70, -9.63086962699890136719e-001) (50, 7.48650970458984375000e+001) (5, 2.85457253456115722656e-001) (4, -4.51478660106658935547e-001) (30, 1.50000000000000000000e+003) (37, -4.91173791885375976562e+000) (33, 1.50000000000000000000e+003) (36, -2.79955196380615234375e+001) (60, 1.50000000000000000000e+003) (40, 2.75982589721679687500e+001) (7, 3.68084049224853515625e+000) (43, -2.83777557373046875000e+002) (58, 1.50000000000000000000e+003) (56, 1.50000000000000000000e+003) (18, -3.46327710151672363281e+000) (0, 2.00659999847412109375e+001) (6, 7.80818891525268554688e+000) (63, 1.50000000000000000000e+003) (66, 2.22294406890869140625e+001) (59, 1.50000000000000000000e+003) (42, 3.34757957458496093750e+001) (52, 2.42067680358886718750e+001) (69, 1.50000000000000000000e+003) (67, 1.16469514369964599609e+000) (45, 1.50000000000000000000e+003) (24, 1.50000000000000000000e+003) (38, 4.61768484115600585938e+000) (39, 9.65261535644531250000e+002) (61, 1.50000000000000000000e+003) (28, 1.50000000000000000000e+003) (31, 1.50000000000000000000e+003) (68, 1.50000000000000000000e+003) (44, 1.50000000000000000000e+003) (51, 1.09649991989135742188e+001) (29, 1.50000000000000000000e+003) (32, 1.50000000000000000000e+003) (70, 7.50128328800201416016e-001) (28, 1.50000000000000000000e+003) (16, 1.50000000000000000000e+003) (7, 1.60068798065185546875e+001) (69, 1.50000000000000000000e+003) (29, 1.50000000000000000000e+003) (40, -1.89886398315429687500e+001) (27, 1.50000000000000000000e+003) (55, -1.50000000000000000000e+003) (31, 1.50000000000000000000e+003) (41, -2.83113026618957519531e+000) (45, 1.50000000000000000000e+003) (50, 5.40979766845703125000e+000) (54, -4.01468315124511718750e+001) (38, 4.82870521545410156250e+001) (21, 1.38550758361816406250e+000) (11, 2.62161743164062500000e+002) (67, -1.66351354122161865234e+000) (42, -2.28046083450317382812e+000) (36, 1.49847937011718750000e+003) (60, 1.50000000000000000000e+003) (30, 1.50000000000000000000e+003) (25, -4.52864599227905273438e+000) (47, 1.50000000000000000000e+003) (63, 1.50000000000000000000e+003) (46, 1.50000000000000000000e+003) (26, 1.50000000000000000000e+003) (22, -6.75599241256713867188e+000) (18, -8.97814846038818359375e+000) (43, 1.17790734863281250000e+003) (4, 1.33153553009033203125e+001) (35, 1.48993560791015625000e+002) (33, 1.50000000000000000000e+003) (64, 1.50000000000000000000e+003) (8, -1.05110299587249755859e+000) (17, 1.50000000000000000000e+003) (70, 1.29918122291564941406e+000) (63, 1.50000000000000000000e+003) (58, 1.50000000000000000000e+003) (5, 4.18676757812500000000e+002) (14, 1.50000000000000000000e+003) (57, 1.50000000000000000000e+003) (9, 1.50000000000000000000e+003) (24, 1.50000000000000000000e+003) (59, 1.50000000000000000000e+003) (60, 1.50000000000000000000e+003) (45, 1.50000000000000000000e+003) (65, 1.50000000000000000000e+003) (1, 6.84694957733154296875e+000) (10, 1.50000000000000000000e+003) (2, 1.50000000000000000000e+003) (61, 1.50000000000000000000e+003) (26, 1.50000000000000000000e+003) (33, 1.50000000000000000000e+003) (27, 1.50000000000000000000e+003) (36, -8.83010864257812500000e+000) (19, 1.83144927024841308594e+000) (3, 1.50000000000000000000e+003) (31, 1.50000000000000000000e+003) (12, 1.50000000000000000000e+003) (30, 1.50000000000000000000e+003) (15, 1.50000000000000000000e+003) (23, 1.03327685546875000000e+003) (8, 1.50000000000000000000e+003) (39, 3.66253051757812500000e+002) (67, -7.07930505275726318359e-001) (34, -5.61690330505371093750e+000) (53, 1.06478881835937500000e+003) (13, 1.50000000000000000000e+003) (17, 1.50000000000000000000e+003) (69, 1.50000000000000000000e+003) (16, 1.50000000000000000000e+003) (70, 1.50000000000000000000e+003) (2, 1.49327600097656250000e+003) (44, 1.50000000000000000000e+003) (49, 1.50000000000000000000e+003) (35, -4.24876159667968750000e+002) (5, 1.49994055175781250000e+003) (42, 1.49981433105468750000e+003) (48, 1.50000000000000000000e+003) (36, 1.49985852050781250000e+003) (9, 1.36295971679687500000e+003) (23, 1.46781896972656250000e+003) (34, 5.29184082031250000000e+002) (13, 1.50000000000000000000e+003) (30, 1.50000000000000000000e+003) (1, 1.50000000000000000000e+003) (43, 1.47914514160156250000e+003) (53, 6.53329223632812500000e+002) (26, 1.50000000000000000000e+003) (22, 1.22680895996093750000e+003) (54, 1.50000000000000000000e+003) (24, 1.50000000000000000000e+003) (45, 1.50000000000000000000e+003) (8, 1.44743994140625000000e+003) (19, 1.21103967285156250000e+003) (18, 1.49999975585937500000e+003) (10, 1.50000000000000000000e+003) (50, 1.86619014739990234375e+001) (12, 1.50000000000000000000e+003) (62, 1.50000000000000000000e+003) (17, 1.50000000000000000000e+003) (63, 1.50000000000000000000e+003) (55, -1.50000000000000000000e+003) (14, 1.50000000000000000000e+003) (29, 1.50000000000000000000e+003) (27, 1.50000000000000000000e+003) (25, 1.50000000000000000000e+003) (70, 1.64237511157989501953e+000) (4, 1.49953820800781250000e+003) (31, 1.50000000000000000000e+003) (50, -3.49865436553955078125e+000) (13, 1.50000000000000000000e+003) (27, 1.50000000000000000000e+003) (8, -1.53270840644836425781e+000) (24, 