FANN_FLO_2.1
num_layers=4
learning_rate=0.500000
connection_rate=1.000000
network_type=0
learning_momentum=0.100000
training_algorithm=0
train_error_function=1
train_stop_function=0
cascade_output_change_fraction=0.010000
quickprop_decay=-0.000100
quickprop_mu=1.750000
rprop_increase_factor=1.200000
rprop_decrease_factor=0.500000
rprop_delta_min=0.000000
rprop_delta_max=50.000000
rprop_delta_zero=0.100000
cascade_output_stagnation_epochs=12
cascade_candidate_change_fraction=0.010000
cascade_candidate_stagnation_epochs=12
cascade_max_out_epochs=150
cascade_min_out_epochs=50
cascade_max_cand_epochs=150
cascade_min_cand_epochs=50
cascade_num_candidate_groups=2
bit_fail_limit=3.49999994039535522461e-001
cascade_candidate_limit=1.00000000000000000000e+003
cascade_weight_multiplier=4.00000005960464477539e-001
cascade_activation_functions_count=10
cascade_activation_functions=3 5 7 8 10 11 14 15 16 17 
cascade_activation_steepnesses_count=4
cascade_activation_steepnesses=2.50000000000000000000e-001 5.00000000000000000000e-001 7.50000000000000000000e-001 1.00000000000000000000e+000 
layer_sizes=91 201 101 4 
scale_included=0
neurons (num_inputs, activation_function, activation_steepness)=(0, 0, 0.00000000000000000000e+000) (0, 0, 0.00000000000000000000e+000) (0, 0, 0.00000000000000000000e+000) (0, 0, 0.00000000000000000000e+000) (0, 0, 0.00000000000000000000e+000) (0, 0, 0.00000000000000000000e+000) (0, 0, 0.00000000000000000000e+000) (0, 0, 0.00000000000000000000e+000) (0, 0, 0.00000000000000000000e+000) (0, 0, 0.00000000000000000000e+000) (0, 0, 0.00000000000000000000e+000) (0, 0, 0.00000000000000000000e+000) (0, 0, 0.00000000000000000000e+000) (0, 0, 0.00000000000000000000e+000) (0, 0, 0.00000000000000000000e+000) (0, 0, 0.00000000000000000000e+000) (0, 0, 0.00000000000000000000e+000) (0, 0, 0.00000000000000000000e+000) (0, 0, 0.00000000000000000000e+000) (0, 0, 0.00000000000000000000e+000) (0, 0, 0.00000000000000000000e+000) (0, 0, 0.00000000000000000000e+000) (0, 0, 0.00000000000000000000e+000) (0, 0, 0.00000000000000000000e+000) (0, 0, 0.00000000000000000000e+000) (0, 0, 0.00000000000000000000e+000) (0, 0, 0.00000000000000000000e+000) (0, 0, 0.00000000000000000000e+000) (0, 0, 0.00000000000000000000e+000) (0, 0, 0.00000000000000000000e+000) (0, 0, 0.00000000000000000000e+000) (0, 0, 0.00000000000000000000e+000) (0, 0, 0.00000000000000000000e+000) (0, 0, 0.00000000000000000000e+000) (0, 0, 0.00000000000000000000e+000) (0, 0, 0.00000000000000000000e+000) (0, 0, 0.00000000000000000000e+000) (0, 0, 0.00000000000000000000e+000) (0, 0, 0.00000000000000000000e+000) (0, 0, 0.00000000000000000000e+000) (0, 0, 0.00000000000000000000e+000) (0, 0, 0.00000000000000000000e+000) (0, 0, 0.00000000000000000000e+000) (0, 0, 0.00000000000000000000e+000) (0, 0, 0.00000000000000000000e+000) (0, 0, 0.00000000000000000000e+000) (0, 0, 0.00000000000000000000e+000) (0, 0, 0.00000000000000000000e+000) (0, 0, 0.00000000000000000000e+000) (0, 0, 0.00000000000000000000e+000) (0, 0, 0.00000000000000000000e+000) (0, 0, 0.00000000000000000000e+000) (0, 0, 0.00000000000000000000e+000) (0, 0, 0.00000000000000000000e+000) (0, 0, 0.00000000000000000000e+000) (0, 0, 0.00000000000000000000e+000) (0, 0, 0.00000000000000000000e+000) (0, 0, 0.00000000000000000000e+000) (0, 0, 0.00000000000000000000e+000) (0, 0, 0.00000000000000000000e+000) (0, 0, 0.00000000000000000000e+000) (0, 0, 0.00000000000000000000e+000) (0, 0, 0.00000000000000000000e+000) (0, 0, 0.00000000000000000000e+000) (0, 0, 0.00000000000000000000e+000) (0, 0, 0.00000000000000000000e+000) (0, 0, 0.00000000000000000000e+000) (0, 0, 0.00000000000000000000e+000) (0, 0, 0.00000000000000000000e+000) (0, 0, 0.00000000000000000000e+000) (0, 0, 0.00000000000000000000e+000) (0, 0, 0.00000000000000000000e+000) (0, 0, 0.00000000000000000000e+000) (0, 0, 0.00000000000000000000e+000) (0, 0, 0.00000000000000000000e+000) (0, 0, 0.00000000000000000000e+000) (0, 0, 0.00000000000000000000e+000) (0, 0, 0.00000000000000000000e+000) (0, 0, 0.00000000000000000000e+000) (0, 0, 0.00000000000000000000e+000) (0, 0, 0.00000000000000000000e+000) (0, 0, 0.00000000000000000000e+000) (0, 0, 0.00000000000000000000e+000) (0, 0, 0.00000000000000000000e+000) (0, 0, 0.00000000000000000000e+000) (0, 0, 0.00000000000000000000e+000) (0, 0, 0.00000000000000000000e+000) (0, 0, 0.00000000000000000000e+000) (0, 0, 0.00000000000000000000e+000) (0, 0, 0.00000000000000000000e+000) (0, 0, 0.00000000000000000000e+000) (91, 6, 5.00000000000000000000e-001) (91, 6, 5.00000000000000000000e-001) (91, 6, 5.00000000000000000000e-001) (91, 6, 5.00000000000000000000e-001) (91, 6, 5.00000000000000000000e-001) (91, 6, 5.00000000000000000000e-001) (91, 6, 5.00000000000000000000e-001) (91, 6, 5.00000000000000000000e-001) (91, 6, 5.00000000000000000000e-001) (91, 6, 5.00000000000000000000e-001) (91, 6, 5.00000000000000000000e-001) (91, 6, 5.00000000000000000000e-001) (91, 6, 5.00000000000000000000e-001) (91, 6, 5.00000000000000000000e-001) (91, 6, 5.00000000000000000000e-001) (91, 6, 5.00000000000000000000e-001) (91, 6, 5.00000000000000000000e-001) (91, 6, 5.00000000000000000000e-001) (91, 6, 5.00000000000000000000e-001) (91, 6, 5.00000000000000000000e-001) (91, 6, 5.00000000000000000000e-001) (91, 6, 5.00000000000000000000e-001) (91, 6, 5.00000000000000000000e-001) (91, 6, 5.00000000000000000000e-001) (91, 6, 5.00000000000000000000e-001) (91, 6, 5.00000000000000000000e-001) (91, 6, 5.00000000000000000000e-001) (91, 6, 5.00000000000000000000e-001) (91, 6, 5.00000000000000000000e-001) (91, 6, 5.00000000000000000000e-001) (91, 6, 5.00000000000000000000e-001) (91, 6, 5.00000000000000000000e-001) (91, 6, 5.00000000000000000000e-001) (91, 6, 5.00000000000000000000e-001) (91, 6, 5.00000000000000000000e-001) (91, 6, 5.00000000000000000000e-001) (91, 6, 5.00000000000000000000e-001) (91, 6, 5.00000000000000000000e-001) (91, 6, 5.00000000000000000000e-001) (91, 6, 5.00000000000000000000e-001) (91, 6, 5.00000000000000000000e-001) (91, 6, 5.00000000000000000000e-001) (91, 6, 5.00000000000000000000e-001) (91, 6, 5.00000000000000000000e-001) (91, 6, 5.00000000000000000000e-001) (91, 6, 5.00000000000000000000e-001) (91, 6, 5.00000000000000000000e-001) (91, 6, 5.00000000000000000000e-001) (91, 6, 5.00000000000000000000e-001) (91, 6, 5.00000000000000000000e-001) (91, 6, 5.00000000000000000000e-001) (91, 6, 5.00000000000000000000e-001) (91, 6, 5.00000000000000000000e-001) (91, 6, 5.00000000000000000000e-001) (91, 6, 5.00000000000000000000e-001) (91, 6, 5.00000000000000000000e-001) (91, 6, 5.00000000000000000000e-001) (91, 6, 5.00000000000000000000e-001) (91, 6, 5.00000000000000000000e-001) (91, 6, 5.00000000000000000000e-001) (91, 6, 5.00000000000000000000e-001) (91, 6, 5.00000000000000000000e-001) (91, 6, 5.00000000000000000000e-001) (91, 6, 5.00000000000000000000e-001) (91, 6, 5.00000000000000000000e-001) (91, 6, 5.00000000000000000000e-001) (91, 6, 5.00000000000000000000e-001) (91, 6, 5.00000000000000000000e-001) (91, 6, 5.00000000000000000000e-001) (91, 6, 5.00000000000000000000e-001) (91, 6, 5.00000000000000000000e-001) (91, 6, 5.00000000000000000000e-001) (91, 6, 5.00000000000000000000e-001) (91, 6, 5.00000000000000000000e-001) (91, 6, 5.00000000000000000000e-001) (91, 6, 5.00000000000000000000e-001) (91, 6, 5.00000000000000000000e-001) (91, 6, 5.00000000000000000000e-001) (91, 6, 5.00000000000000000000e-001) (91, 6, 5.00000000000000000000e-001) (91, 6, 5.00000000000000000000e-001) (91, 6, 5.00000000000000000000e-001) (91, 6, 5.00000000000000000000e-001) (91, 6, 5.00000000000000000000e-001) (91, 6, 5.00000000000000000000e-001) (91, 6, 5.00000000000000000000e-001) (91, 6, 5.00000000000000000000e-001) (91, 6, 5.00000000000000000000e-001) (91, 6, 5.00000000000000000000e-001) (91, 6, 5.00000000000000000000e-001) (91, 6, 5.00000000000000000000e-001) (91, 6, 5.00000000000000000000e-001) (91, 6, 5.00000000000000000000e-001) (91, 6, 5.00000000000000000000e-001) (91, 6, 5.00000000000000000000e-001) (91, 6, 5.00000000000000000000e-001) (91, 6, 5.00000000000000000000e-001) (91, 6, 5.00000000000000000000e-001) (91, 6, 5.00000000000000000000e-001) (91, 6, 5.00000000000000000000e-001) (91, 6, 5.00000000000000000000e-001) (91, 6, 5.00000000000000000000e-001) (91, 6, 5.00000000000000000000e-001) (91, 6, 5.00000000000000000000e-001) (91, 6, 5.00000000000000000000e-001) (91, 6, 5.00000000000000000000e-001) (91, 6, 5.00000000000000000000e-001) (91, 6, 5.00000000000000000000e-001) (91, 6, 5.00000000000000000000e-001) (91, 6, 5.00000000000000000000e-001) (91, 6, 5.00000000000000000000e-001) (91, 6, 5.00000000000000000000e-001) (91, 6, 5.00000000000000000000e-001) (91, 6, 5.00000000000000000000e-001) (91, 6, 5.00000000000000000000e-001) (91, 6, 5.00000000000000000000e-001) (91, 6, 5.00000000000000000000e-001) (91, 6, 5.00000000000000000000e-001) (91, 6, 5.00000000000000000000e-001) (91, 6, 5.00000000000000000000e-001) (91, 6, 5.00000000000000000000e-001) (91, 6, 5.00000000000000000000e-001) (91, 6, 5.00000000000000000000e-001) (91, 6, 5.00000000000000000000e-001) (91, 6, 5.00000000000000000000e-001) (91, 6, 5.00000000000000000000e-001) (91, 6, 5.00000000000000000000e-001) (91, 6, 5.00000000000000000000e-001) (91, 6, 5.00000000000000000000e-001) (91, 6, 5.00000000000000000000e-001) (91, 6, 5.00000000000000000000e-001) (91, 6, 5.00000000000000000000e-001) (91, 6, 5.00000000000000000000e-001) (91, 6, 5.00000000000000000000e-001) (91, 6, 5.00000000000000000000e-001) (91, 6, 5.00000000000000000000e-001) (91, 6, 5.00000000000000000000e-001) (91, 6, 5.00000000000000000000e-001) (91, 6, 5.00000000000000000000e-001) (91, 6, 5.00000000000000000000e-001) (91, 6, 5.00000000000000000000e-001) (91, 6, 5.00000000000000000000e-001) (91, 6, 5.00000000000000000000e-001) (91, 6, 5.00000000000000000000e-001) (91, 6, 5.00000000000000000000e-001) (91, 6, 5.00000000000000000000e-001) (91, 6, 5.00000000000000000000e-001) (91, 6, 5.00000000000000000000e-001) (91, 6, 5.00000000000000000000e-001) (91, 6, 5.00000000000000000000e-001) (91, 6, 5.00000000000000000000e-001) (91, 6, 5.00000000000000000000e-001) (91, 6, 5.00000000000000000000e-001) (91, 6, 5.00000000000000000000e-001) (91, 6, 5.00000000000000000000e-001) (91, 6, 5.00000000000000000000e-001) (91, 6, 5.00000000000000000000e-001) (91, 6, 5.00000000000000000000e-001) (91, 6, 5.00000000000000000000e-001) (91, 6, 5.00000000000000000000e-001) (91, 6, 5.00000000000000000000e-001) (91, 6, 5.00000000000000000000e-001) (91, 6, 5.00000000000000000000e-001) (91, 6, 5.00000000000000000000e-001) (91, 6, 5.00000000000000000000e-001) (91, 6, 5.00000000000000000000e-001) (91, 6, 5.00000000000000000000e-001) (91, 6, 5.00000000000000000000e-001) (91, 6, 5.00000000000000000000e-001) (91, 6, 5.00000000000000000000e-001) (91, 6, 5.00000000000000000000e-001) (91, 6, 5.00000000000000000000e-001) (91, 6, 5.00000000000000000000e-001) (91, 6, 5.00000000000000000000e-001) (91, 6, 5.00000000000000000000e-001) (91, 6, 5.00000000000000000000e-001) (91, 6, 5.00000000000000000000e-001) (91, 6, 5.00000000000000000000e-001) (91, 6, 5.00000000000000000000e-001) (91, 6, 5.00000000000000000000e-001) (91, 6, 5.00000000000000000000e-001) (91, 6, 5.00000000000000000000e-001) (91, 6, 5.00000000000000000000e-001) (91, 6, 5.00000000000000000000e-001) (91, 6, 5.00000000000000000000e-001) (91, 6, 5.00000000000000000000e-001) (91, 6, 5.00000000000000000000e-001) (91, 6, 5.00000000000000000000e-001) (91, 6, 5.00000000000000000000e-001) (91, 6, 5.00000000000000000000e-001) (91, 6, 5.00000000000000000000e-001) (91, 6, 5.00000000000000000000e-001) (91, 6, 5.00000000000000000000e-001) (91, 6, 5.00000000000000000000e-001) (91, 6, 5.00000000000000000000e-001) (91, 6, 5.00000000000000000000e-001) (91, 6, 5.00000000000000000000e-001) (91, 6, 5.00000000000000000000e-001) (91, 6, 5.00000000000000000000e-001) (91, 6, 5.00000000000000000000e-001) (0, 6, 0.00000000000000000000e+000) (201, 6, 5.00000000000000000000e-001) (201, 6, 5.00000000000000000000e-001) (201, 6, 5.00000000000000000000e-001) (201, 6, 5.00000000000000000000e-001) (201, 6, 5.00000000000000000000e-001) (201, 6, 5.00000000000000000000e-001) (201, 6, 5.00000000000000000000e-001) (201, 6, 5.00000000000000000000e-001) (201, 6, 5.00000000000000000000e-001) (201, 6, 5.00000000000000000000e-001) (201, 6, 5.00000000000000000000e-001) (201, 6, 5.00000000000000000000e-001) (201, 6, 5.00000000000000000000e-001) (201, 6, 5.00000000000000000000e-001) (201, 6, 5.00000000000000000000e-001) (201, 6, 5.00000000000000000000e-001) (201, 6, 5.00000000000000000000e-001) (201, 6, 5.00000000000000000000e-001) (201, 6, 5.00000000000000000000e-001) (201, 6, 5.00000000000000000000e-001) (201, 6, 5.00000000000000000000e-001) (201, 6, 5.00000000000000000000e-001) (201, 6, 5.00000000000000000000e-001) (201, 6, 5.00000000000000000000e-001) (201, 6, 5.00000000000000000000e-001) (201, 6, 5.00000000000000000000e-001) (201, 6, 5.00000000000000000000e-001) (201, 6, 5.00000000000000000000e-001) (201, 6, 5.00000000000000000000e-001) (201, 6, 5.00000000000000000000e-001) (201, 6, 5.00000000000000000000e-001) (201, 6, 5.00000000000000000000e-001) (201, 6, 5.00000000000000000000e-001) (201, 6, 5.00000000000000000000e-001) (201, 6, 5.00000000000000000000e-001) (201, 6, 5.00000000000000000000e-001) (201, 6, 5.00000000000000000000e-001) (201, 6, 5.00000000000000000000e-001) (201, 6, 5.00000000000000000000e-001) (201, 6, 5.00000000000000000000e-001) (201, 6, 5.00000000000000000000e-001) (201, 6, 5.00000000000000000000e-001) (201, 6, 5.00000000000000000000e-001) (201, 6, 5.00000000000000000000e-001) (201, 6, 5.00000000000000000000e-001) (201, 6, 5.00000000000000000000e-001) (201, 6, 5.00000000000000000000e-001) (201, 6, 5.00000000000000000000e-001) (201, 6, 5.00000000000000000000e-001) (201, 6, 5.00000000000000000000e-001) (201, 6, 5.00000000000000000000e-001) (201, 6, 5.00000000000000000000e-001) (201, 6, 5.00000000000000000000e-001) (201, 6, 5.00000000000000000000e-001) (201, 6, 5.00000000000000000000e-001) (201, 6, 5.00000000000000000000e-001) (201, 6, 5.00000000000000000000e-001) (201, 6, 5.00000000000000000000e-001) (201, 6, 5.00000000000000000000e-001) (201, 6, 5.00000000000000000000e-001) (201, 6, 5.00000000000000000000e-001) (201, 6, 5.00000000000000000000e-001) (201, 6, 5.00000000000000000000e-001) (201, 6, 5.00000000000000000000e-001) (201, 6, 5.00000000000000000000e-001) (201, 6, 5.00000000000000000000e-001) (201, 6, 5.00000000000000000000e-001) (201, 6, 5.00000000000000000000e-001) (201, 6, 5.00000000000000000000e-001) (201, 6, 5.00000000000000000000e-001) (201, 6, 5.00000000000000000000e-001) (201, 6, 5.00000000000000000000e-001) (201, 6, 5.00000000000000000000e-001) (201, 6, 5.00000000000000000000e-001) (201, 6, 5.00000000000000000000e-001) (201, 6, 5.00000000000000000000e-001) (201, 6, 5.00000000000000000000e-001) (201, 6, 5.00000000000000000000e-001) (201, 6, 5.00000000000000000000e-001) (201, 6, 5.00000000000000000000e-001) (201, 6, 5.00000000000000000000e-001) (201, 6, 5.00000000000000000000e-001) (201, 6, 5.00000000000000000000e-001) (201, 6, 5.00000000000000000000e-001) (201, 6, 5.00000000000000000000e-001) (201, 6, 5.00000000000000000000e-001) (201, 6, 5.00000000000000000000e-001) (201, 6, 5.00000000000000000000e-001) (201, 6, 5.00000000000000000000e-001) (201, 6, 5.00000000000000000000e-001) (201, 6, 5.00000000000000000000e-001) (201, 6, 5.00000000000000000000e-001) (201, 6, 5.00000000000000000000e-001) (201, 6, 5.00000000000000000000e-001) (201, 6, 5.00000000000000000000e-001) (201, 6, 5.00000000000000000000e-001) (201, 6, 5.00000000000000000000e-001) (201, 6, 5.00000000000000000000e-001) (201, 6, 5.00000000000000000000e-001) (201, 6, 5.00000000000000000000e-001) (0, 6, 0.00000000000000000000e+000) (101, 5, 1.00000000000000000000e+000) (101, 5, 1.00000000000000000000e+000) (101, 5, 1.00000000000000000000e+000) (0, 5, 1.00000000000000000000e+000) 
connections (connected_to_neuron, weight)=(0, 2.28295016288757324219e+000) (1, -7.53009653091430664062e+000) (2, 3.37104082107543945312e+000) (3, 7.46049356460571289062e+000) (4, -1.78261697292327880859e+000) (5, -2.51145935058593750000e+000) (6, 1.21093755587935447693e-002) (7, -2.19116220250725746155e-003) (8, -2.21846599578857421875e+001) (9, -1.22869758605957031250e+001) (10, -8.33972358703613281250e+000) (11, -3.12496805191040039062e+000) (12, 2.11031627655029296875e+001) (13, 1.60464687347412109375e+001) (14, 5.54626472294330596924e-002) (15, -6.03942871093750000000e-002) (16, -6.24389934539794921875e+000) (17, 5.16764545440673828125e+000) (18, 1.56242351531982421875e+001) (19, -1.08594636917114257812e+001) (20, -3.50311889648437500000e+001) (21, -3.81379318237304687500e+000) (22, 2.07493057250976562500e+001) (23, 9.72083759307861328125e+000) (24, 9.57576274871826171875e-001) (25, 1.13837569952011108398e-001) (26, -1.95312500000000000000e-002) (27, 7.71362334489822387695e-002) (28, 2.17163097113370895386e-002) (29, -9.08935591578483581543e-002) (30, -9.11621078848838806152e-002) (31, -5.19287101924419403076e-002) (32, -4.48338088989257812500e+001) (33, 7.21206247806549072266e-001) (34, 2.54530372619628906250e+001) (35, -1.09055337905883789062e+001) (36, -7.07071781158447265625e+000) (37, 3.18278751373291015625e+001) (38, 2.99475212097167968750e+001) (39, -1.05882768630981445312e+001) (40, -2.41865596771240234375e+001) (41, -7.97118473052978515625e+000) (42, 6.72676980495452880859e-001) (43, 3.29173475503921508789e-001) (44, 9.41467285156250000000e-002) (45, 8.25256332755088806152e-002) (46, -7.57324248552322387695e-002) (47, -2.87414547055959701538e-002) (48, 3.50280776619911193848e-002) (49, -3.46740745007991790771e-002) (50, -9.79187041521072387695e-002) (51, -6.85485824942588806152e-002) (52, -7.09215641021728515625e+000) (53, 3.70117759704589843750e+000) (54, 3.90874356031417846680e-001) (55, -5.04672241210937500000e+000) (56, -6.03046512603759765625e+000) (57, -2.26004486083984375000e+001) (58, -2.58870277404785156250e+001) (59, -1.10503082275390625000e+001) (60, -1.57488155364990234375e+000) (61, 1.83898936957120895386e-002) (62, -9.16748046875000000000e-002) (63, 2.06909179687500000000e-002) (64, -4.77722175419330596924e-002) (65, 6.32324209436774253845e-003) (66, 3.41430678963661193848e-002) (67, 7.16613754630088806152e-002) (68, -6.08215093612670898438e+000) (69, -9.96585845947265625000e+000) (70, -1.85280799865722656250e+001) (71, -6.03980970382690429688e+000) (72, -5.63875317573547363281e-001) (73, -9.06189009547233581543e-002) (74, 8.54064971208572387695e-002) (75, 7.48840346932411193848e-002) (76, 2.67333984375000000000e-002) (77, 9.14611816406250000000e-002) (78, -7.02514639124274253845e-003) (79, -6.82739242911338806152e-002) (80, 9.44702178239822387695e-002) (81, 4.25842292606830596924e-002) (82, 6.91833496093750000000e-002) (83, -6.33667036890983581543e-002) (84, -8.75976607203483581543e-002) (85, -3.73250350952148437500e+001) (86, 6.96608495712280273438e+000) (87, 3.01574710756540298462e-002) (88, 3.31359878182411193848e-002) (89, -4.32312004268169403076e-002) (90, -1.00416278839111328125e+001) (0, -3.14260840415954589844e+000) (1, 3.82862710952758789062e+000) (2, -6.24160289764404296875e+000) (3, -2.71515789031982421875e+001) (4, -2.27601280212402343750e+001) (5, -5.53110027313232421875e+000) (6, -5.71899442002177238464e-003) (7, 2.93579115532338619232e-003) (8, 7.60521793365478515625e+000) (9, -4.93097931146621704102e-001) (10, 9.19341278076171875000e+000) (11, 2.24627628326416015625e+001) (12, 6.55143260955810546875e+000) (13, -3.83707880973815917969e+000) (14, -8.52111801505088806152e-002) (15, 3.59252952039241790771e-002) (16, 1.05434579849243164062e+001) (17, -5.26531219482421875000e+000) (18, -3.98597192764282226562e+000) (19, -4.14232134819030761719e-001) (20, 2.50027465820312500000e+000) (21, -9.48967647552490234375e+000) (22, -2.27690162658691406250e+001) (23, -2.25581359863281250000e+001) (24, -1.22680187225341796875e+001) (25, -2.15669798851013183594e+000) (26, 1.23962406069040298462e-002) (27, 9.24682617187500000000e-003) (28, -7.53845199942588806152e-002) (29, 5.39855957031250000000e-002) (30, -4.03381362557411193848e-002) (31, -9.93591323494911193848e-002) (32, 6.48864650726318359375e+000) (33, 1.57621002197265625000e+001) (34, 1.88094959259033203125e+001) (35, 1.43389720916748046875e+001) (36, 1.46308555603027343750e+001) (37, 4.35755062103271484375e+000) (38, 3.41396540403366088867e-001) (39, 6.33531379699707031250e+000) (40, -1.03860449790954589844e+000) (41, -6.88003540039062500000e+000) (42, -2.31885075569152832031e+000) (43, 3.07415992021560668945e-001) (44, -4.75585944950580596924e-002) (45, -8.28979536890983581543e-002) (46, -3.04260253906250000000e-002) (47, -4.41040061414241790771e-002) (48, -8.35876464843750000000e-002) (49, -7.56286606192588806152e-002) (50, -1.18591310456395149231e-002) (51, -3.45581062138080596924e-002) (52, 1.22276091575622558594e+000) (53, 3.45366973876953125000e+001) (54, 2.02695941925048828125e+001) (55, 1.39020168781280517578e+000) (56, 7.67242145538330078125e+000) (57, 1.80841274261474609375e+001) (58, 2.41906375885009765625e+001) (59, 2.48689804077148437500e+001) (60, 1.10344858169555664062e+001) (61, 8.55163559317588806152e-002) (62, -5.03479018807411193848e-002) (63, -5.74584975838661193848e-002) (64, 2.74047851562500000000e-002) (65, 2.39562988281250000000e-002) (66, 5.57739250361919403076e-002) (67, 7.11853057146072387695e-002) (68, 1.22755117416381835938e+001) (69, -4.20299148559570312500e+000) (70, -9.07072353363037109375e+000) (71, -6.98044395446777343750e+000) (72, -1.29463076591491699219e+000) (73, -5.64880371093750000000e-002) (74, 8.46374556422233581543e-002) (75, 6.34216293692588806152e-002) (76, -7.09228515625000000000e-002) (77, 6.04248081799596548080e-004) (78, 5.69885261356830596924e-002) (79, -5.44372573494911193848e-002) (80, -5.17578143626451492310e-003) (81, -6.24450705945491790771e-002) (82, 3.14514152705669403076e-002) (83, -9.74975600838661193848e-002) (84, -2.59765628725290298462e-002) (85, 1.72270965576171875000e+001) (86, -1.45953440666198730469e+000) (87, 6.79199248552322387695e-002) (88, 1.84692386537790298462e-002) (89, -9.53918471932411193848e-002) (90, 2.50117759704589843750e+001) (0, -2.03706932067871093750e+000) (1, 1.76734358072280883789e-001) (2, -1.89470844268798828125e+001) (3, -9.95726966857910156250e+000) (4, 4.87161827087402343750e+000) (5, 3.17122197151184082031e+000) (6, 6.48681670427322387695e-002) (7, 9.73571762442588806152e-002) (8, 1.21110544204711914062e+001) (9, -2.72678279876708984375e+001) (10, -2.46648712158203125000e+001) (11, 1.00995502471923828125e+001) (12, 1.72101092338562011719e+000) (13, -6.63554620742797851562e+000) (14, -6.08337409794330596924e-002) (15, 3.86535637080669403076e-002) (16, 2.07633056640625000000e+001) (17, 8.89120864868164062500e+000) (18, -1.26548910140991210938e+001) (19, -1.87226791381835937500e+001) (20, -1.47412281036376953125e+001) (21, -9.43445786833763122559e-002) (22, 1.53601818084716796875e+001) (23, 1.18963098526000976562e+001) (24, 2.34827470779418945312e+000) (25, 4.13593530654907226562e-001) (26, -3.44116203486919403076e-002) (27, 1.79687496274709701538e-002) (28, 3.93310561776161193848e-002) (29, -5.02136237919330596924e-002) (30, 6.46545439958572387695e-002) (31, -2.81066894531250000000e-002) (32, 1.49398889541625976562e+001) (33, 1.63189277648925781250e+001) (34, 3.17174320220947265625e+001) (35, 2.16426315307617187500e+001) (36, -1.27927947044372558594e+000) (37, -9.55375385284423828125e+000) (38, -9.18808841705322265625e+000) (39, -3.99519777297973632812e+000) (40, -5.22707271575927734375e+000) (41, -1.15689296722412109375e+001) (42, -6.87346744537353515625e+000) (43, -2.87580460309982299805e-001) (44, 5.60729987919330596924e-002) (45, 7.91137740015983581543e-002) (46, 3.32885757088661193848e-002) (47, -8.98498520255088806152e-002) (48, -6.64306655526161193848e-002) (49, -1.51733402162790298462e-002) (50, -8.39782729744911193848e-002) (51, 1.89636237919330596924e-002) (52, 2.84947466850280761719e+000) (53, -1.70746040344238281250e+001) (54, -2.82385501861572265625e+001) (55, -2.69519042968750000000e+001) (56, -2.83457012176513671875e+001) (57, -2.03299903869628906250e+001) (58, 7.45131492614746093750e+000) (59, 6.17500114440917968750e+000) (60, -4.07605409622192382812e+000) (61, 7.72033706307411193848e-002) (62, 5.70739768445491790771e-002) (63, -1.31225585937500000000e-003) (64, -5.39184585213661193848e-002) (65, 3.94714362919330596924e-002) (66, 9.58618149161338806152e-002) (67, -1.27807622775435447693e-002) (68, 4.51838493347167968750e+001) (69, -1.93003730773925781250e+001) (70, -2.19592456817626953125e+001) (71, -8.72960281372070312500e+000) (72, -1.33007705211639404297e+000) (73, 5.82946799695491790771e-002) (74, -1.78405772894620895386e-002) (75, -4.29443381726741790771e-002) (76, 5.41320815682411193848e-002) (77, 1.38854980468750000000e-002) (78, -6.72302246093750000000e-002) (79, 2.84790042787790298462e-002) (80, -5.60913085937500000000e-002) (81, 1.09130861237645149231e-002) (82, 7.03125027939677238464e-003) (83, 1.62719730287790298462e-002) (84, -7.10937529802322387695e-002) (85, 4.04139709472656250000e+000) (86, 7.70709180831909179688e+000) (87, 3.09265144169330596924e-002) (88, 4.80407737195491790771e-002) (89, 6.49231001734733581543e-002) (90, -1.02126626968383789062e+001) (0, 2.44151630401611328125e+001) (1, 1.60028438568115234375e+001) (2, 5.47442674636840820312e+000) (3, -6.54725074768066406250e+000) (4, -5.86106777191162109375e+000) (5, -1.14310371875762939453e+000) (6, -8.32519531250000000000e-002) (7, -9.69726592302322387695e-002) (8, 9.58198904991149902344e-002) (9, 5.73489999771118164062e+000) (10, 1.25583028793334960938e+001) (11, 6.95262002944946289062e+000) (12, -1.00371682643890380859e+000) (13, -1.36594069004058837891e+000) (14, -6.38305693864822387695e-002) (15, -9.79187041521072387695e-002) (16, -1.60600719451904296875e+001) (17, -8.38046550750732421875e+000) (18, 3.07412886619567871094e+000) (19, -2.61404170989990234375e+001) (20, -2.72229232788085937500e+001) (21, 2.10110931396484375000e+001) (22, 2.04294681549072265625e+001) (23, -4.23008918762207031250e+000) (24, -3.85242819786071777344e+000) (25, -1.06377422809600830078e+000) (26, 1.94152835756540298462e-002) (27, -6.05285651981830596924e-002) (28, -8.88793990015983581543e-002) (29, 6.97570815682411193848e-002) (30, 6.59790039062500000000e-002) (31, 8.23425278067588806152e-002) (32, 1.89511775970458984375e+001) (33, -5.67375183105468750000e+000) (34, -1.67834739685058593750e+001) (35, 2.50268840789794921875e+001) (36, 3.83447861671447753906e+000) (37, -2.79398231506347656250e+001) (38, 5.30880498886108398438e+000) (39, 1.13744773864746093750e+001) (40, -1.86059212684631347656e+000) (41, 3.22547912597656250000e+000) (42, 3.74344563484191894531e+000) (43, 3.49656462669372558594e-001) (44, 9.18334946036338806152e-002) (45, 6.45935088396072387695e-002) (46, 4.71313484013080596924e-002) (47, -8.78112837672233581543e-002) (48, 3.35937514901161193848e-002) (49, -4.41223159432411193848e-002) (50, -7.91564956307411193848e-002) (51, -4.34265136718750000000e-002) (52, -2.74169216156005859375e+001) (53, 5.32510232925415039062e+000) (54, 1.72706298828125000000e+001) (55, 4.39050674438476562500e+000) (56, 1.39664201736450195312e+001) (57, 3.05230846405029296875e+001) (58, 3.21044540405273437500e+001) (59, 2.16216945648193359375e+001) (60, 7.29861068725585937500e+000) (61, -7.54272490739822387695e-002) (62, 9.62341353297233581543e-002) (63, 4.80407737195491790771e-002) (64, 6.56005889177322387695e-002) (65, 7.39868208765983581543e-002) (66, -7.43347182869911193848e-002) (67, 5.99731467664241790771e-002) (68, 5.91727638244628906250e+000) (69, -2.56871509552001953125e+000) (70, 1.87332427501678466797e+000) (71, 5.21630716323852539062e+000) (72, 1.58363692462444305420e-002) (73, 2.71850582212209701538e-002) (74, -3.82690434344112873077e-003) (75, -6.70166034251451492310e-003) (76, 8.95263701677322387695e-002) (77, 3.82995605468750000000e-002) (78, 7.87292495369911193848e-002) (79, -1.64794924785383045673e-004) (80, -9.85717773437500000000e-002) (81, -7.43286162614822387695e-002) (82, -5.30395517125725746155e-003) (83, 7.59155303239822387695e-002) (84, -7.33337402343750000000e-002) (85, -5.12454271316528320312e+000) (86, -1.22190752029418945312e+001) (87, -5.10314963757991790771e-002) (88, 6.62780776619911193848e-002) (89, -5.17150871455669403076e-002) (90, 1.23532018661499023438e+001) (0, -1.85329837799072265625e+001) (1, 6.09598064422607421875e+000) (2, 1.89951133728027343750e+001) (3, 1.75481414794921875000e+001) (4, 6.94867563247680664062e+000) (5, 7.09254205226898193359e-001) (6, 1.95617675781250000000e-002) (7, -6.66870102286338806152e-002) (8, 1.37740726470947265625e+001) (9, 2.01546592712402343750e+001) (10, -6.04228162765502929688e+000) (11, -1.98990306854248046875e+001) (12, 2.05287666320800781250e+001) (13, 2.33128871917724609375e+001) (14, -1.75537113100290298462e-002) (15, -9.62341353297233581543e-002) (16, 1.94161758422851562500e+001) (17, -4.31394910812377929688e+000) (18, -3.54443283081054687500e+001) (19, -2.62074494361877441406e+000) (20, 2.24301204681396484375e+001) (21, 2.23650288581848144531e+000) (22, -4.41287504509091377258e-003) (23, -1.10033822059631347656e+000) (24, -5.33363103866577148438e+000) (25, -7.55753397941589355469e-001) (26, -4.83581535518169403076e-002) (27, 7.63549804687500000000e-002) (28, -9.26879867911338806152e-002) (29, -6.18530288338661193848e-002) (30, -4.23645041882991790771e-002) (31, 1.38549804687500000000e-002) (32, 3.33888435363769531250e+000) (33, 1.03897361755371093750e+001) (34, 2.41540756225585937500e+001) (35, 1.63378410339355468750e+001) (36, -1.41454010009765625000e+001) (37, -1.90318470001220703125e+001) (38, 1.27032542228698730469e+000) (39, 1.49783754348754882812e+001) (40, 1.33565015792846679688e+001) (41, 1.19423456192016601562e+001) (42, 7.48997211456298828125e+000) (43, 1.29370820522308349609e+000) (44, -2.02758796513080596924e-002) (45, 3.27697768807411193848e-002) (46, -7.90466293692588806152e-002) (47, 3.38867194950580596924e-002) (48, -9.56726074218750000000e-002) (49, -5.98266609013080596924e-002) (50, -3.35510261356830596924e-002) (51, -3.97094748914241790771e-002) (52, -9.21512126922607421875e+000) (53, -3.66496300697326660156e+000) (54, 7.05613374710083007812e-001) (55, 1.07686843872070312500e+001) (56, -1.03539237976074218750e+001) (57, -1.53254222869873046875e+001) (58, 2.13449192047119140625e+001) (59, 2.15264320373535156250e+001) (60, 1.25794100761413574219e+000) (61, 3.36547866463661193848e-002) (62, 6.36352524161338806152e-002) (63, -7.86132812500000000000e-002) (64, 4.05151359736919403076e-002) (65, 9.96643081307411193848e-002) (66, 9.16503891348838806152e-002) (67, 5.02502433955669403076e-002) (68, -3.55698966979980468750e+001) (69, -5.90670871734619140625e+000) (70, 2.88451528549194335938e+000) (71, 3.42144227027893066406e+000) (72, 2.09623336791992187500e-001) (73, -7.89001509547233581543e-002) (74, -8.77380371093750000000e-002) (75, 5.94299323856830596924e-002) (76, -7.57629424333572387695e-002) (77, -9.39147993922233581543e-002) (78, 4.60693351924419403076e-002) (79, 2.64465343207120895386e-002) (80, 1.35559085756540298462e-002) (81, -2.00622566044330596924e-002) (82, 6.04370124638080596924e-002) (83, 9.15954634547233581543e-002) (84, 4.53002937138080596924e-002) (85, -1.95946979522705078125e+000) (86, -2.05092754364013671875e+001) (87, 1.39343263581395149231e-002) (88, -8.48999023437500000000e-002) (89, -9.72229018807411193848e-002) (90, 2.59559841156005859375e+001) (0, -8.88917160034179687500e+000) (1, -1.03483781814575195312e+001) (2, -1.02180137634277343750e+001) (3, -1.57589979171752929688e+001) (4, -1.35619344711303710938e+001) (5, -3.28289651870727539062e+000) (6, 5.26489280164241790771e-002) (7, -8.58642607927322387695e-002) (8, 2.46514946222305297852e-001) (9, -3.12317543029785156250e+001) (10, -2.45402011871337890625e+001) (11, 2.46367931365966796875e+000) (12, 3.05352473258972167969e+000) (13, -1.26808512210845947266e+000) (14, 4.23400886356830596924e-002) (15, 5.62683120369911193848e-002) (16, 1.48813176155090332031e+000) (17, -2.40300254821777343750e+001) (18, -2.64370536804199218750e+001) (19, -1.65789279937744140625e+001) (20, -1.30277671813964843750e+001) (21, -5.09603548049926757812e+000) (22, 2.10384826660156250000e+001) (23, 3.52628135681152343750e+001) (24, 1.74987087249755859375e+001) (25, 2.32519078254699707031e+000) (26, -8.44848677515983581543e-002) (27, -7.26440474390983581543e-002) (28, 7.02636763453483581543e-002) (29, -3.01757808774709701538e-002) (30, -4.39453125000000000000e-003) (31, -8.29223617911338806152e-002) (32, -2.16666027903556823730e-001) (33, -1.44299697875976562500e+001) (34, 3.85765457153320312500e+000) (35, -7.74031341075897216797e-001) (36, -3.56101131439208984375e+000) (37, 2.42692508697509765625e+001) (38, 2.57102680206298828125e+001) (39, 1.00006663799285888672e+000) (40, -1.91964435577392578125e+001) (41, -2.55265674591064453125e+001) (42, -1.17501449584960937500e+001) (43, -1.29900383949279785156e+000) (44, 1.85607913881540298462e-002) (45, -2.41882335394620895386e-002) (46, 3.90930175781250000000e-002) (47, -3.99536155164241790771e-002) (48, 1.70227047055959701538e-002) (49, 2.98278816044330596924e-002) (50, 1.04492185637354850769e-002) (51, 8.72802746016532182693e-004) (52, -7.20037078857421875000e+000) (53, -2.10585727691650390625e+001) (54, -8.78398323059082031250e+000) (55, 4.73828411102294921875e+000) (56, -7.03988361358642578125e+000) (57, 4.96516656875610351562e+000) (58, 1.74340896606445312500e+001) (59, -9.26809215545654296875e+000) (60, -1.39267702102661132812e+001) (61, -9.00268554687500000000e-002) (62, 9.50256362557411193848e-002) (63, 7.47619643807411193848e-002) (64, 5.18798828125000000000e-002) (65, -9.14245620369911193848e-002) (66, 6.33178725838661193848e-002) (67, 5.77087402343750000000e-002) (68, -2.71843204498291015625e+001) (69, -2.76004371643066406250e+001) (70, -1.85821285247802734375e+001) (71, -9.64236736297607421875e+000) (72, -9.13999438285827636719e-001) (73, -9.00451689958572387695e-002) (74, 2.15393062680959701538e-002) (75, -2.51464843750000000000e-002) (76, -6.41967803239822387695e-002) (77, 3.50891128182411193848e-002) (78, -4.36645522713661193848e-002) (79, -6.13098144531250000000e-002) (80, 4.30969260632991790771e-002) (81, 6.23168935999274253845e-003) (82, 9.54895019531250000000e-002) (83, -3.14575210213661193848e-002) (84, -3.64379887469112873077e-003) (85, 3.13021316528320312500e+001) (86, 2.37380771636962890625e+001) (87, 3.06152347475290298462e-002) (88, -5.80383315682411193848e-002) (89, -6.66503906250000000000e-002) (90, -1.88170299530029296875e+001) (0, -3.31596221923828125000e+001) (1, -1.05661182403564453125e+001) (2, -1.14166698455810546875e+001) (3, -6.28551185131072998047e-001) (4, 7.82359218597412109375e+000) (5, 4.00762510299682617188e+000) (6, 4.85717765986919403076e-002) (7, 1.09252929687500000000e-002) (8, 2.51017112731933593750e+001) (9, 1.97156798839569091797e+000) (10, -1.59556312561035156250e+001) (11, 2.70298862457275390625e+000) (12, 5.24684715270996093750e+000) (13, -2.57886624336242675781e+000) (14, -5.31311035156250000000e-002) (15, -8.40087905526161193848e-002) (16, -9.39925765991210937500e+000) (17, -7.74135208129882812500e+000) (18, 7.33317136764526367188e+000) (19, 3.39638292789459228516e-001) (20, -1.14861898422241210938e+001) (21, 1.36733083724975585938e+001) (22, 1.12905311584472656250e+001) (23, -1.68954887390136718750e+001) (24, -1.48284006118774414062e+001) (25, -2.42111825942993164062e+000) (26, -1.51733402162790298462e-002) (27, -6.01928718388080596924e-002) (28, 2.22534183412790298462e-002) (29, 9.43969711661338806152e-002) (30, -6.53259307146072387695e-002) (31, 9.82910171151161193848e-002) (32, -2.97220683097839355469e+000) (33, -1.14823045730590820312e+001) (34, 1.07053911685943603516e+000) (35, -1.27506756782531738281e+000) (36, -1.17098693847656250000e+001) (37, -3.51275749206542968750e+001) (38, -3.42772712707519531250e+001) (39, -6.98061656951904296875e+000) (40, 1.43547754287719726562e+001) (41, 1.09384346008300781250e+001) (42, 3.29128146171569824219e-001) (43, -8.62716063857078552246e-002) (44, -5.96252456307411193848e-002) (45, 3.31359878182411193848e-002) (46, 9.44213848561048507690e-003) (47, 9.01062041521072387695e-002) (48, -6.77490257658064365387e-004) (49, -2.18994151800870895386e-002) (50, -5.76599128544330596924e-002) (51, -1.15783689543604850769e-002) (52, 1.08891744613647460938e+001) (53, 1.52233085632324218750e+001) (54, -1.70488134026527404785e-001) (55, -1.20283622741699218750e+001) (56, -1.19904060363769531250e+001) (57, -1.03443641662597656250e+001) (58, 3.58925843238830566406e+000) (59, 6.64901137351989746094e-001) (60, -3.88491058349609375000e+000) (61, -7.14111328125000000000e-003) (62, -6.26342818140983581543e-002) (63, 7.41210952401161193848e-002) (64, -2.32421886175870895386e-002) (65, -4.10461425781250000000e-002) (66, -4.43725585937500000000e-002) (67, -4.91333007812500000000e-003) (68, 8.86498336791992187500e+001) (69, 1.07567701339721679688e+001) (70, -9.31179523468017578125e+000) (71, -9.81353998184204101562e-001) (72, 3.38381648063659667969e-001) (73, -8.31237807869911193848e-002) (74, 1.05590820312500000000e-002) (75, 8.87451171875000000000e-002) (76, -7.94860869646072387695e-002) (77, 9.40795913338661193848e-002) (78, 6.31530806422233581543e-002) (79, 9.74487289786338806152e-002) (80, 3.75000014901161193848e-002) (81, -1.39404302462935447693e-002) (82, 4.15832512080669403076e-002) (83, 4.94506843388080596924e-002) (84, -3.15673835575580596924e-002) (85, 5.49911081790924072266e-001) (86, 2.97855854034423828125e+000) (87, 6.23657219111919403076e-002) (88, 9.18151885271072387695e-002) (89, -3.57360839843750000000e-002) (90, 1.80032615661621093750e+001) (0, -4.89278221130371093750e+001) (1, -2.81535415649414062500e+001) (2, -2.56336765289306640625e+001) (3, -2.78524303436279296875e+001) (4, -8.65430736541748046875e+000) (5, 2.72322964668273925781e+000) (6, -4.88830581307411193848e-002) (7, -6.86462447047233581543e-002) (8, -1.04697399139404296875e+001) (9, 1.73207969665527343750e+001) (10, 1.23883104324340820312e+001) (11, -7.74374771118164062500e+000) (12, 6.93174076080322265625e+000) (13, 1.04749183654785156250e+001) (14, 8.01757797598838806152e-002) (15, -7.88574200123548507690e-003) (16, -3.57466197013854980469e+000) (17, -8.99291610717773437500e+000) (18, -7.07723617553710937500e+000) (19, -1.09233283996582031250e+000) (20, -4.74126291275024414062e+000) (21, -2.13651638031005859375e+001) (22, -8.87979793548583984375e+000) (23, 1.08663549423217773438e+001) (24, 7.11721277236938476562e+000) (25, 1.06551659107208251953e+000) (26, 5.01159690320491790771e-002) (27, 7.31811523437500000000e-002) (28, -5.68420402705669403076e-002) (29, -5.74462898075580596924e-002) (30, -6.41906782984733581543e-002) (31, 2.33947765082120895386e-002) (32, 2.74475193023681640625e+001) (33, 2.46811847686767578125e+001) (34, 3.23585968017578125000e+001) (35, 2.48228569030761718750e+001) (36, -3.23556035757064819336e-001) (37, -7.14024686813354492188e+000) (38, 9.85347568988800048828e-001) (39, 4.44655609130859375000e+000) (40, 1.06675910949707031250e+000) (41, 2.31125622987747192383e-001) (42, 6.71624422073364257812e-001) (43, 2.54286676645278930664e-001) (44, -4.83459495007991790771e-002) (45, 8.27148482203483581543e-002) (46, -3.00598144531250000000e-002) (47, -9.75219756364822387695e-002) (48, -8.41552764177322387695e-002) (49, -3.81164550781250000000e-002) (50, -9.17663574218750000000e-002) (51, 8.71521010994911193848e-002) (52, 1.84757556915283203125e+001) (53, 1.53096532821655273438e+001) (54, 1.45689554214477539062e+001) (55, 1.67074623107910156250e+001) (56, -4.44992685317993164062e+000) (57, -1.82510833740234375000e+001) (58, -9.84813785552978515625e+000) (59, -9.51297378540039062500e+000) (60, -7.48548221588134765625e+000) (61, 3.18603515625000000000e-002) (62, 1.39282224699854850769e-002) (63, -5.84411621093750000000e-002) (64, -5.04394546151161193848e-002) (65, 1.56616214662790298462e-002) (66, 5.86486831307411193848e-002) (67, -2.90710460394620895386e-002) (68, -3.05031757354736328125e+001) (69, -2.25266265869140625000e+001) (70, -1.16314811706542968750e+001) (71, -5.21963262557983398438e+000) (72, -1.24667716026306152344e+000) (73, -9.94018539786338806152e-002) (74, -2.78259273618459701538e-002) (75, -1.94702146109193563461e-003) (76, -8.74511748552322387695e-002) (77, -4.92309592664241790771e-002) (78, -8.33068862557411193848e-002) (79, 9.15527343750000000000e-005) (80, 3.75244133174419403076e-002) (81, 6.89147934317588806152e-002) (82, 2.40417476743459701538e-002) (83, 6.96472153067588806152e-002) (84, -7.67700225114822387695e-002) (85, 7.31240224838256835938e+000) (86, 1.27266473770141601562e+001) (87, -8.93676802515983581543e-002) (88, 4.59106452763080596924e-002) (89, 1.51062011718750000000e-002) (90, 4.25613260269165039062e+000) (0, 2.19170513153076171875e+001) (1, 2.84862327575683593750e+001) (2, 2.24488391876220703125e+001) (3, 3.55090785026550292969e+000) (4, -4.19275856018066406250e+000) (5, -9.74177658557891845703e-001) (6, 1.96166988462209701538e-002) (7, -5.82824721932411193848e-002) (8, 1.34802031517028808594e+000) (9, -1.22065086364746093750e+001) (10, 3.90187263488769531250e+000) (11, 1.86125316619873046875e+001) (12, -1.26717758178710937500e+001) (13, -1.62398872375488281250e+001) (14, 5.90087883174419403076e-002) (15, 4.42932136356830596924e-002) (16, 9.14414024353027343750e+000) (17, 1.80716953277587890625e+001) (18, 8.34734725952148437500e+000) (19, 7.56011867523193359375e+000) (20, 1.95973796844482421875e+001) (21, 1.71606616973876953125e+001) (22, -5.69105243682861328125e+000) (23, -1.27289447784423828125e+001) (24, -2.21936726570129394531e+000) (25, 5.96158087253570556641e-001) (26, 9.90966781973838806152e-002) (27, 8.89404341578483581543e-002) (28, 3.24584953486919403076e-002) (29, 9.07531753182411193848e-002) (30, 6.52526840567588806152e-002) (31, -5.41259758174419403076e-002) (32, -1.14984149932861328125e+001) (33, -3.92776222229003906250e+001) (34, -2.80836658477783203125e+001) (35, -2.35248050689697265625e+001) (36, -2.66847324371337890625e+001) (37, -6.18526887893676757812e+000) (38, 3.44153642654418945312e+000) (39, -7.84061574935913085938e+000) (40, -1.44865150451660156250e+001) (41, -1.05096626281738281250e+001) (42, -3.16813659667968750000e+000) (43, -4.72098261117935180664e-001) (44, 9.54101607203483581543e-002) (45, -3.81103530526161193848e-002) (46, -7.03369155526161193848e-002) (47, -5.42968772351741790771e-002) (48, -2.34497077763080596924e-002) (49, 3.60778830945491790771e-002) (50, -6.56127929687500000000e-002) (51, -9.05273482203483581543e-002) (52, 3.20256195068359375000e+001) (53, 1.71292037963867187500e+001) (54, -3.54047417640686035156e+000) (55, -8.41922569274902343750e+000) (56, 3.85942411422729492188e+000) (57, -4.60971069335937500000e+000) (58, -3.73823432922363281250e+001) (59, -2.68798999786376953125e+001) (60, -2.77739310264587402344e+000) (61, -5.91552741825580596924e-002) (62, -6.40380904078483581543e-002) (63, 2.38586422055959701538e-002) (64, 7.11853057146072387695e-002) (65, -9.61120650172233581543e-002) (66, 5.86120598018169403076e-002) (67, 5.37109375000000000000e-003) (68, 9.95634746551513671875e+000) (69, -1.14160881042480468750e+001) (70, -1.26447725296020507812e+001) (71, -5.34141778945922851562e+000) (72, -7.70069658756256103516e-003) (73, 1.95129401981830596924e-002) (74, 8.07373076677322387695e-002) (75, 4.52880859375000000000e-002) (76, 4.55139167606830596924e-002) (77, 4.74914573132991790771e-002) (78, 8.07678252458572387695e-002) (79, 2.17651370912790298462e-002) (80, -9.91760268807411193848e-002) (81, -1.60339362919330596924e-002) (82, -5.81054715439677238464e-003) (83, 2.27844249457120895386e-002) (84, -5.53466789424419403076e-002) (85, 9.60858941078186035156e-001) (86, -1.94821262359619140625e+001) (87, -1.17980958893895149231e-002) (88, -4.63928245007991790771e-002) (89, -2.36267093569040298462e-002) (90, -1.12514009475708007812e+001) (0, 4.35788059234619140625e+000) (1, -6.00282955169677734375e+000) (2, -6.97249841690063476562e+000) (3, 1.37554931640625000000e+000) (4, 5.16847562789916992188e+000) (5, 2.29651975631713867188e+000) (6, -1.15295415744185447693e-002) (7, -3.91296409070491790771e-002) (8, 8.65761470794677734375e+000) (9, 2.32293643951416015625e+001) (10, 2.05372085571289062500e+001) (11, 5.88022327423095703125e+000) (12, -1.27149734497070312500e+001) (13, -1.11365709304809570312e+001) (14, 2.54150386899709701538e-002) (15, -3.75000014901161193848e-002) (16, 3.28494620323181152344e+000) (17, -2.53212146759033203125e+001) (18, -5.00088882446289062500e+001) (19, -3.13326969146728515625e+001) (20, 1.17209024429321289062e+001) (21, 3.99476737976074218750e+001) (22, 1.00612983703613281250e+001) (23, -1.82629566192626953125e+001) (24, -8.78306198120117187500e+000) (25, -1.24694204330444335938e+000) (26, 4.75585944950580596924e-002) (27, -3.46191413700580596924e-002) (28, -3.25805656611919403076e-002) (29, -9.63195785880088806152e-002) (30, -5.88989257812500000000e-002) (31, -2.98095699399709701538e-002) (32, 1.71694869995117187500e+001) (33, 1.45217971801757812500e+001) (34, -1.18011484146118164062e+001) (35, -2.68206138610839843750e+001) (36, -2.20217189788818359375e+001) (37, -1.79962120056152343750e+001) (38, 1.39478778839111328125e+001) (39, 3.53983230590820312500e+001) (40, 1.96692924499511718750e+001) (41, 7.22918987274169921875e+000) (42, 2.66696500778198242188e+000) (43, 2.93173670768737792969e-001) (44, -4.40673828125000000000e-002) (45, 5.30395507812500000000e-002) (46, -6.26342818140983581543e-002) (47, 8.11828598380088806152e-002) (48, -1.18225095793604850769e-002) (49, -3.45642082393169403076e-002) (50, 9.82055664062500000000e-002) (51, -7.15515166521072387695e-002) (52, -8.05821990966796875000e+000) (53, 5.11245384216308593750e+001) (54, 2.63389987945556640625e+001) (55, -3.29648971557617187500e+000) (56, 1.47535638809204101562e+001) (57, 2.21273822784423828125e+001) (58, 3.68333601951599121094e+000) (59, 3.45669627189636230469e-001) (60, 3.00224256515502929688e+000) (61, -6.27441424876451492310e-003) (62, 9.25781279802322387695e-002) (63, 1.66015625000000000000e-002) (64, -1.96716319769620895386e-002) (65, -1.09374998137354850769e-002) (66, 4.11132834851741790771e-002) (67, 1.61315929144620895386e-002) (68, -4.22004318237304687500e+001) (69, -2.51947021484375000000e+001) (70, -7.25248956680297851562e+000) (71, 1.33255124092102050781e+000) (72, 3.54253470897674560547e-001) (73, -8.04992690682411193848e-002) (74, 4.73693870007991790771e-002) (75, -7.89123550057411193848e-002) (76, 6.45996108651161193848e-002) (77, 3.02001964300870895386e-002) (78, -2.54333503544330596924e-002) (79, 2.92114261537790298462e-002) (80, 6.83471709489822387695e-002) (81, 4.27734367549419403076e-002) (82, 4.07531745731830596924e-002) (83, -7.30590848252177238464e-003) (84, 7.02453628182411193848e-002) (85, -1.33467292785644531250e+001) (86, 1.35400400161743164062e+001) (87, -5.77575676143169403076e-002) (88, -5.96374534070491790771e-002) (89, 7.85644575953483581543e-002) (90, 1.93375282287597656250e+001) (0, 2.20952854156494140625e+001) (1, 1.92511882781982421875e+001) (2, 2.50016651153564453125e+001) (3, 2.85732879638671875000e+001) (4, 1.18999109268188476562e+001) (5, -7.63305366039276123047e-001) (6, -7.62817412614822387695e-002) (7, 8.69323760271072387695e-002) (8, -1.61940872669219970703e+000) (9, -6.51379871368408203125e+000) (10, 3.42391014099121093750e+000) (11, 5.75283908843994140625e+000) (12, -1.25150909423828125000e+001) (13, -1.01542596817016601562e+001) (14, -9.38415527343750000000e-002) (15, 6.07055686414241790771e-002) (16, 1.65940666198730468750e+001) (17, 1.00950422286987304688e+001) (18, 3.36755180358886718750e+000) (19, 4.66518926620483398438e+000) (20, -7.84332990646362304688e+000) (21, -8.09412539005279541016e-001) (22, 1.73584461212158203125e+001) (23, 6.49693536758422851562e+000) (24, -3.29590082168579101562e+000) (25, -4.65389370918273925781e-001) (26, -7.50854536890983581543e-002) (27, 3.59863303601741790771e-002) (28, -7.22106918692588806152e-002) (29, -3.45031730830669403076e-002) (30, 4.84497062861919403076e-002) (31, -9.50012207031250000000e-002) (32, 8.07466506958007812500e+000) (33, 2.22342038154602050781e+000) (34, 9.01652431488037109375e+000) (35, 7.19365119934082031250e+000) (36, 2.09418344497680664062e+000) (37, 1.37656660079956054688e+001) (38, 9.76190567016601562500e+000) (39, 4.52558326721191406250e+000) (40, 2.67825126647949218750e+000) (41, -5.85145592689514160156e-001) (42, -9.28821191191673278809e-002) (43, -7.82678127288818359375e-002) (44, 1.45874021109193563461e-003) (45, 7.49694854021072387695e-002) (46, -2.61108409613370895386e-002) (47, 3.12133785337209701538e-002) (48, -4.02160659432411193848e-002) (49, 8.40271040797233581543e-002) (50, 4.65759299695491790771e-002) (51, 5.76965324580669403076e-002) (52, -1.36212682723999023438e+001) (53, -4.41850242614746093750e+001) (54, -1.63933029174804687500e+001) (55, 1.35255336761474609375e+001) (56, 1.11177330017089843750e+001) (57, -6.17938899993896484375e+000) (58, -9.23789787292480468750e+000) (59, 5.44854402542114257812e+000) (60, 6.61453008651733398438e+000) (61, 1.67602542787790298462e-002) (62, 9.81689468026161193848e-002) (63, -2.65075694769620895386e-002) (64, 9.53979492187500000000e-002) (65, 6.63940459489822387695e-002) (66, -9.78210493922233581543e-002) (67, -2.81555186957120895386e-002) (68, -2.73832583427429199219e+000) (69, 1.48887910842895507812e+001) (70, 4.53951168060302734375e+000) (71, -2.30112284421920776367e-001) (72, 9.82981920242309570312e-001) (73, 1.01867681369185447693e-002) (74, -3.23486339766532182693e-004) (75, -7.52380415797233581543e-002) (76, -2.92846690863370895386e-002) (77, -3.63708510994911193848e-002) (78, -9.07409712672233581543e-002) (79, 4.91760261356830596924e-002) (80, -5.07385246455669403076e-002) (81, 3.86413596570491790771e-002) (82, 5.42480461299419403076e-002) (83, 9.82604995369911193848e-002) (84, -3.25378440320491790771e-002) (85, -4.89816045761108398438e+000) (86, -5.26909065246582031250e+000) (87, -4.19128425419330596924e-002) (88, 8.43627974390983581543e-002) (89, -7.63793960213661193848e-002) (90, -1.41323070526123046875e+001) (0, -2.91984176635742187500e+001) (1, -2.70044898986816406250e+001) (2, -9.39240837097167968750e+000) (3, 2.82042479515075683594e+000) (4, 5.69922590255737304688e+000) (5, 2.81008028984069824219e+000) (6, -6.84204092249274253845e-003) (7, 3.18664573132991790771e-002) (8, 1.87388095855712890625e+001) (9, 1.46859750747680664062e+001) (10, 3.52672553062438964844e+000) (11, -1.47027444839477539062e+001) (12, -2.78411121368408203125e+001) (13, -1.45144262313842773438e+001) (14, 5.10131828486919403076e-002) (15, 3.61084006726741790771e-002) (16, -8.19284439086914062500e+000) (17, -4.76305150985717773438e+000) (18, 1.97178325653076171875e+001) (19, 2.94730892181396484375e+001) (20, -1.26630821228027343750e+001) (21, -2.40143947601318359375e+001) (22, -7.46296930313110351562e+000) (23, -1.40934247970581054688e+001) (24, -1.28158082962036132812e+001) (25, -2.78405785560607910156e+000) (26, 5.40588386356830596924e-002) (27, 1.40747074037790298462e-002) (28, 5.40771484375000000000e-002) (29, 3.36120612919330596924e-002) (30, -8.26232954859733581543e-002) (31, -6.40441924333572387695e-002) (32, 3.56147861480712890625e+000) (33, 5.22306976318359375000e+001) (34, 1.11925411224365234375e+001) (35, 4.93509626388549804688e+000) (36, 1.35249509811401367188e+001) (37, -1.72957782745361328125e+001) (38, -2.95331268310546875000e+001) (39, -1.92453536987304687500e+001) (40, -1.44825954437255859375e+001) (41, -8.87650585174560546875e+000) (42, -2.02249693870544433594e+000) (43, 7.37709505483508110046e-003) (44, 3.97399924695491790771e-002) (45, -8.49060043692588806152e-002) (46, 8.40454101562500000000e-002) (47, 2.28759776800870895386e-002) (48, 7.70568847656250000000e-002) (49, -2.06298828125000000000e-002) (50, -5.26794455945491790771e-002) (51, -8.95141586661338806152e-002) (52, -2.98488941192626953125e+001) (53, 3.57038459777832031250e+001) (54, 1.91959400177001953125e+001) (55, -1.67397422790527343750e+001) (56, 1.48509969711303710938e+001) (57, 3.19783096313476562500e+001) (58, 1.08782148361206054688e+001) (59, 6.46258831024169921875e+000) (60, 6.93547296524047851562e+000) (61, 3.40148918330669403076e-002) (62, -2.63183601200580596924e-002) (63, -6.48620650172233581543e-002) (64, 3.58398444950580596924e-002) (65, 9.91394072771072387695e-002) (66, -4.87853996455669403076e-002) (67, -4.54956069588661193848e-002) (68, -2.47673683166503906250e+001) (69, -1.29318027496337890625e+001) (70, -1.08908519744873046875e+001) (71, -2.48133826255798339844e+000) (72, -6.63587272167205810547e-001) (73, -9.93713364005088806152e-002) (74, -1.29211423918604850769e-002) (75, -6.39160200953483581543e-002) (76, 6.70532211661338806152e-002) (77, 3.11096198856830596924e-002) (78, 9.52758789062500000000e-002) (79, 5.20141609013080596924e-002) (80, -2.06970218569040298462e-002) (81, -3.07434089481830596924e-002) (82, 9.08874496817588806152e-002) (83, -6.92688003182411193848e-002) (84, 5.93688972294330596924e-002) (85, -3.61888160705566406250e+001) (86, -8.98796272277832031250e+000) (87, 6.72180205583572387695e-002) (88, 3.99597175419330596924e-002) (89, 9.73938032984733581543e-002) (90, 1.30464601516723632812e+000) (0, 3.32406425476074218750e+001) (1, 8.79172992706298828125e+000) (2, 1.39275515079498291016e+000) (3, 9.27332210540771484375e+000) (4, 1.21958084106445312500e+001) (5, 4.63518905639648437500e+000) (6, -9.01367217302322387695e-002) (7, -6.28479048609733581543e-002) (8, -2.00984706878662109375e+001) (9, -1.12261295318603515625e+001) (10, 3.79007577896118164062e+000) (11, 1.26458826065063476562e+001) (12, 1.14959373474121093750e+001) (13, 3.46992659568786621094e+000) (14, -8.84094238281250000000e-002) (15, -2.68188472837209701538e-002) (16, 9.03936195373535156250e+000) (17, 1.46198987960815429688e+001) (18, 5.90030765533447265625e+000) (19, 8.89022171497344970703e-001) (20, -1.20317010879516601562e+001) (21, -8.68318557739257812500e+000) (22, 7.06129741668701171875e+000) (23, 3.44828510284423828125e+000) (24, -4.00097101926803588867e-001) (25, 6.09639108180999755859e-001) (26, -2.64099128544330596924e-002) (27, -7.03735370188951492310e-003) (28, 7.18688964843750000000e-002) (29, -8.38378891348838806152e-002) (30, -3.60473655164241790771e-002) (31, -9.26269516348838806152e-002) (32, 7.74481821060180664062e+000) (33, 2.19895210266113281250e+001) (34, -2.85110592842102050781e+000) (35, -7.80369615554809570312e+000) (36, 4.33365154266357421875e+000) (37, 9.96464061737060546875e+000) (38, 2.47254419326782226562e+000) (39, -1.11995496749877929688e+001) (40, -9.02894115447998046875e+000) (41, -6.96792793273925781250e+000) (42, -4.85855007171630859375e+000) (43, -2.75884568691253662109e-001) (44, -2.72460933774709701538e-002) (45, -3.26843261718750000000e-002) (46, 8.18542465567588806152e-002) (47, -5.88684082031250000000e-002) (48, -3.80371101200580596924e-002) (49, -1.84692386537790298462e-002) (50, -5.74401877820491790771e-002) (51, -9.74914580583572387695e-002) (52, -2.52796020507812500000e+001) (53, -3.56930160522460937500e+001) (54, -9.76553320884704589844e-001) (55, 2.07246494293212890625e+001) (56, 2.00008049011230468750e+001) (57, 2.31046562194824218750e+001) (58, 4.48733615875244140625e+000) (59, -1.97666950225830078125e+001) (60, -1.16433019638061523438e+001) (61, -3.87573242187500000000e-003) (62, 2.43164058774709701538e-002) (63, -7.13317915797233581543e-002) (64, 4.99267578125000000000e-002) (65, 7.99743682146072387695e-002) (66, 1.80419925600290298462e-002) (67, -9.77172888815402984619e-003) (68, 1.31293582916259765625e+001) (69, 7.22113418579101562500e+000) (70, -7.71601581573486328125e+000) (71, -9.97942256927490234375e+000) (72, -3.64767527580261230469e+000) (73, -9.31396484375000000000e-002) (74, -2.81127933412790298462e-002) (75, -7.40600600838661193848e-002) (76, -9.97253432869911193848e-002) (77, -8.38806182146072387695e-002) (78, 6.98242196813225746155e-003) (79, -4.57336418330669403076e-002) (80, 4.76440452039241790771e-002) (81, 7.73864760994911193848e-002) (82, 1.19201662018895149231e-002) (83, -2.32666023075580596924e-002) (84, -4.21813987195491790771e-002) (85, 1.74152297973632812500e+001) (86, -1.96655178070068359375e+001) (87, -7.40478560328483581543e-002) (88, 7.76184126734733581543e-002) (89, -5.31616210937500000000e-002) (90, -5.02460765838623046875e+000) (0, -1.92099571228027343750e+001) (1, -1.55497169494628906250e+001) (2, -1.10514698028564453125e+001) (3, -5.69468641281127929688e+000) (4, -5.55600225925445556641e-001) (5, 1.78609192371368408203e-001) (6, -9.46655310690402984619e-003) (7, -6.97998031973838806152e-002) (8, 2.08042106628417968750e+001) (9, 1.92565078735351562500e+001) (10, 5.44022846221923828125e+000) (11, -4.62972879409790039062e+000) (12, -6.87224721908569335938e+000) (13, -3.23349761962890625000e+000) (14, 9.21264663338661193848e-002) (15, 4.55810539424419403076e-002) (16, -8.73604488372802734375e+000) (17, -1.17299213409423828125e+001) (18, -2.77485752105712890625e+000) (19, 3.92810642719268798828e-001) (20, 1.45433378219604492188e+000) (21, -1.32142448425292968750e+000) (22, -1.13740558624267578125e+001) (23, -1.64030399322509765625e+001) (24, -8.83466434478759765625e+000) (25, -1.00594043731689453125e+000) (26, -2.01293956488370895386e-002) (27, 7.98767134547233581543e-002) (28, 3.45703139901161193848e-002) (29, 3.55346687138080596924e-002) (30, 4.99084480106830596924e-002) (31, 1.77978519350290298462e-002) (32, 3.33135108947753906250e+001) (33, 1.59013900756835937500e+001) (34, 8.03462088108062744141e-001) (35, 9.84963715076446533203e-001) (36, 1.26939802169799804688e+001) (37, 1.67363586425781250000e+001) (38, 1.10696201324462890625e+001) (39, -3.45784258842468261719e+000) (40, -1.68611755371093750000e+001) (41, -1.62332439422607421875e+001) (42, -6.26497125625610351562e+000) (43, -1.20903020724654197693e-002) (44, 4.19433601200580596924e-002) (45, -5.41259758174419403076e-002) (46, 8.55651870369911193848e-002) (47, -8.14147964119911193848e-002) (48, -5.63659667968750000000e-002) (49, -4.49523925781250000000e-002) (50, -1.55517579987645149231e-002) (51, 3.53027358651161193848e-002) (52, 2.37397823333740234375e+001) (53, 2.09271831512451171875e+001) (54, 2.40329933166503906250e+000) (55, -1.39988451004028320312e+001) (56, -2.21648941040039062500e+001) (57, -2.08336849212646484375e+001) (58, -1.73111915588378906250e+001) (59, -1.72661800384521484375e+001) (60, -8.25186824798583984375e+000) (61, -2.13256832212209701538e-002) (62, 4.76928725838661193848e-002) (63, 5.84228523075580596924e-002) (64, 2.20214854925870895386e-002) (65, 9.65270996093750000000e-002) (66, 1.92077644169330596924e-002) (67, -1.37207033112645149231e-002) (68, -1.43632726669311523438e+001) (69, -2.31452941894531250000e+001) (70, -1.88657627105712890625e+001) (71, -8.54625415802001953125e+000) (72, -8.99540126323699951172e-001) (73, 4.77294921875000000000e-002) (74, -3.19213867187500000000e-002) (75, 8.61267074942588806152e-002) (76, 5.78674338757991790771e-002) (77, -2.45788581669330596924e-002) (78, -6.91528338938951492310e-003) (79, -7.68188461661338806152e-002) (80, 1.51977536734193563461e-003) (81, 7.00683612376451492310e-003) (82, 2.98583991825580596924e-002) (83, 6.08581565320491790771e-002) (84, -8.32092314958572387695e-002) (85, -4.62104409933090209961e-001) (86, -1.33710002899169921875e+000) (87, 4.93652336299419403076e-002) (88, -4.25537116825580596924e-002) (89, -4.15710471570491790771e-002) (90, 2.19564685821533203125e+001) (0, -2.99579887390136718750e+001) (1, -6.22899484634399414062e+000) (2, 5.53772163391113281250e+000) (3, 1.22293109893798828125e+001) (4, 7.59531831741333007812e+000) (5, 1.58900487422943115234e+000) (6, -2.46520992368459701538e-002) (7, 3.10974121093750000000e-002) (8, 1.19462776184082031250e+000) (9, -2.52782211303710937500e+001) (10, -3.46836547851562500000e+001) (11, -1.39814605712890625000e+001) (12, 2.21679782867431640625e+000) (13, 1.96116948127746582031e+000) (14, -8.82080122828483581543e-002) (15, 5.87097182869911193848e-002) (16, -9.98031330108642578125e+000) (17, -1.60245323181152343750e+001) (18, 8.83529949188232421875e+000) (19, 7.84383869171142578125e+000) (20, -2.05901775360107421875e+001) (21, -1.03044776916503906250e+001) (22, 7.80792474746704101562e+000) (23, 6.26130151748657226562e+000) (24, 3.47238826751708984375e+000) (25, 4.64566141366958618164e-001) (26, 1.09313968569040298462e-002) (27, 7.80090317130088806152e-002) (28, 1.09252927359193563461e-003) (29, 4.86511252820491790771e-002) (30, -1.36840818449854850769e-002) (31, 3.99902351200580596924e-002) (32, 5.08374710083007812500e+001) (33, 5.11610937118530273438e+000) (34, -2.46642513275146484375e+001) (35, -1.53473651409149169922e+000) (36, -1.29647455215454101562e+001) (37, -5.39242630004882812500e+001) (38, -3.14219932556152343750e+001) (39, -1.83378458023071289062e+000) (40, -7.44541549682617187500e+000) (41, -9.33913421630859375000e+000) (42, -4.28813838958740234375e+000) (43, -4.15295213460922241211e-001) (44, -7.30712935328483581543e-002) (45, -6.84204101562500000000e-002) (46, 7.65075683593750000000e-002) (47, -8.45336914062500000000e-003) (48, 1.75903327763080596924e-002) (49, 6.41418471932411193848e-002) (50, -6.41357451677322387695e-002) (51, 3.02429199218750000000e-002) (52, 1.80049476623535156250e+001) (53, 1.71018135547637939453e+000) (54, -2.26048336029052734375e+001) (55, -2.80266361236572265625e+001) (56, -1.72032985687255859375e+001) (57, -1.18705358505249023438e+001) (58, -7.20014750957489013672e-001) (59, -3.58244627714157104492e-002) (60, -2.54937052726745605469e+000) (61, -6.90612792968750000000e-002) (62, 1.78955085575580596924e-002) (63, 8.80310088396072387695e-002) (64, -5.10498061776161193848e-002) (65, 5.91430664062500000000e-002) (66, 2.89184581488370895386e-002) (67, -1.90490726381540298462e-002) (68, 2.14856662750244140625e+001) (69, 2.81314897537231445312e+000) (70, -3.41028165817260742188e+000) (71, -1.47458398342132568359e+000) (72, 3.87007623910903930664e-001) (73, 3.59741225838661193848e-002) (74, -1.13830566406250000000e-002) (75, 5.07995598018169403076e-002) (76, 3.85742187500000000000e-002) (77, 4.82971183955669403076e-002) (78, -8.79699736833572387695e-002) (79, -9.39209014177322387695e-002) (80, 7.62939453125000000000e-002) (81, 8.42712447047233581543e-002) (82, 7.74047896265983581543e-002) (83, 2.79541015625000000000e-002) (84, -5.69946281611919403076e-002) (85, -3.75747413635253906250e+001) (86, -1.42688112258911132812e+001) (87, 2.25585941225290298462e-002) (88, -5.14770522713661193848e-002) (89, -3.41735854744911193848e-002) (90, -2.78298358917236328125e+001) (0, -2.31733131408691406250e+000) (1, -1.09199056625366210938e+001) (2, -2.83310871124267578125e+001) (3, -2.70848236083984375000e+001) (4, -5.68507003784179687500e+000) (5, 2.67776942253112792969e+000) (6, 3.41552756726741790771e-002) (7, 3.67431645281612873077e-003) (8, -1.02575054168701171875e+001) (9, -5.86274027824401855469e-001) (10, 3.78638315200805664062e+000) (11, -8.16587162017822265625e+000) (12, -1.47710695266723632812e+001) (13, -6.63291978836059570312e+000) (14, -5.84716796875000000000e-002) (15, 7.53601118922233581543e-002) (16, 1.66802012920379638672e+000) (17, -8.83528292179107666016e-001) (18, -1.02647523880004882812e+001) (19, -1.26326456069946289062e+001) (20, 1.14171314239501953125e+001) (21, 2.13154735565185546875e+001) (22, -8.09979248046875000000e+000) (23, -2.30412902832031250000e+001) (24, -9.07496166229248046875e+000) (25, -8.18833708763122558594e-001) (26, 7.77648910880088806152e-002) (27, -7.47497603297233581543e-002) (28, -5.33264167606830596924e-002) (29, -4.17297370731830596924e-002) (30, 9.34570357203483581543e-002) (31, 8.52722153067588806152e-002) (32, -1.41849918365478515625e+001) (33, -2.90776324272155761719e+000) (34, -1.08213567733764648438e+001) (35, -3.35141487121582031250e+001) (36, 3.03352713584899902344e-001) (37, 4.27681388854980468750e+001) (38, 1.46736536026000976562e+001) (39, -9.04543685913085937500e+000) (40, -5.45427560806274414062e+000) (41, -1.38858604431152343750e+000) (42, 1.18893301486968994141e+000) (43, -2.82604604959487915039e-001) (44, -1.36352544650435447693e-002) (45, 3.83850112557411193848e-002) (46, -4.29199226200580596924e-002) (47, 7.78076201677322387695e-002) (48, 8.20068344473838806152e-002) (49, 7.99316391348838806152e-002) (50, 2.55615245550870895386e-002) (51, -4.25659194588661193848e-002) (52, -8.60590457916259765625e-001) (53, -1.58375412225723266602e-001) (54, -8.92900943756103515625e+000) (55, -7.24261164665222167969e-001) (56, -9.93088722229003906250e+000) (57, -1.95147323608398437500e+001) (58, 5.53376150131225585938e+000) (59, 2.47287693023681640625e+001) (60, 1.05616941452026367188e+001) (61, -8.76708999276161193848e-002) (62, 9.79187041521072387695e-002) (63, -3.73962409794330596924e-002) (64, -8.02734419703483581543e-002) (65, 4.82238791882991790771e-002) (66, 2.92358407750725746155e-003) (67, -1.00097653921693563461e-003) (68, -6.55464267730712890625e+000) (69, -7.98446464538574218750e+000) (70, -1.74357852935791015625e+001) (71, -7.19570398330688476562e+000) (72, 4.71070438623428344727e-001) (73, -1.98303218930959701538e-002) (74, 8.75732451677322387695e-002) (75, 5.11962883174419403076e-002) (76, -3.00720222294330596924e-002) (77, 8.36425796151161193848e-002) (78, -6.34155273437500000000e-002) (79, 8.40881392359733581543e-002) (80, -4.31335456669330596924e-002) (81, -1.01745603606104850769e-002) (82, 4.55871596932411193848e-002) (83, -1.11022954806685447693e-002) (84, 3.64990229718387126923e-003) (85, -4.17318677902221679688e+000) (86, -9.62715911865234375000e+000) (87, 9.24255400896072387695e-002) (88, -9.77722182869911193848e-002) (89, -9.09545943140983581543e-002) (90, -2.07254123687744140625e+001) (0, -2.44315509796142578125e+001) (1, -1.33973760604858398438e+001) (2, -5.33355712890625000000e+000) (3, -4.76655387878417968750e+000) (4, 1.17360627651214599609e+000) (5, 3.19799876213073730469e+000) (6, -4.51232902705669403076e-002) (7, 3.44116203486919403076e-002) (8, -2.46317634582519531250e+001) (9, -1.77513656616210937500e+001) (10, -1.65965509414672851562e+000) (11, 3.80408430099487304688e+000) (12, 2.03907337188720703125e+001) (13, 1.43731565475463867188e+001) (14, -8.53027328848838806152e-002) (15, 9.75952204316854476929e-003) (16, -1.71375293731689453125e+001) (17, -1.23747386932373046875e+001) (18, -1.22874765396118164062e+001) (19, -1.03090512752532958984e+000) (20, -8.07933032512664794922e-001) (21, -1.33517849445343017578e+000) (22, 3.51888489723205566406e+000) (23, -4.61421489715576171875e+000) (24, -6.44212341308593750000e+000) (25, -7.96282768249511718750e-001) (26, -1.55090335756540298462e-002) (27, 1.72546394169330596924e-002) (28, 6.82189986109733581543e-002) (29, -1.26342778094112873077e-003) (30, 6.34765625000000000000e-002) (31, 8.07617232203483581543e-002) (32, 5.22423601150512695312e+000) (33, 1.21657361984252929688e+001) (34, -9.00499820709228515625e+000) (35, -1.52462167739868164062e+001) (36, -1.79915676116943359375e+001) (37, -1.52969970703125000000e+001) (38, -1.22639822959899902344e+000) (39, -3.71406006813049316406e+000) (40, -2.91503548622131347656e+000) (41, 3.96619844436645507812e+000) (42, 1.97694087028503417969e+000) (43, -1.70017443597316741943e-002) (44, -5.69641105830669403076e-002) (45, -1.36291505768895149231e-002) (46, 7.21008330583572387695e-002) (47, -8.31542983651161193848e-002) (48, -7.05505385994911193848e-002) (49, -6.79321307688951492310e-003) (50, -2.90588382631540298462e-002) (51, 9.52758826315402984619e-003) (52, 6.80804729461669921875e+000) (53, 3.49614448547363281250e+001) (54, 1.99743118286132812500e+001) (55, -6.63018083572387695312e+000) (56, -8.06035995483398437500e+000) (57, 7.16015398502349853516e-001) (58, 2.42747020721435546875e+001) (59, 2.10992431640625000000e+001) (60, 2.92965793609619140625e+000) (61, -1.84143073856830596924e-002) (62, 3.26965339481830596924e-002) (63, 7.28942900896072387695e-002) (64, -8.18908736109733581543e-002) (65, -5.41076660156250000000e-002) (66, 8.97216796875000000000e-002) (67, -7.57385268807411193848e-002) (68, -3.74051183462142944336e-001) (69, 1.90923309326171875000e+001) (70, 2.20110607147216796875e+001) (71, 9.81306457519531250000e+000) (72, 2.31186103820800781250e+000) (73, 6.97998031973838806152e-002) (74, 7.13439956307411193848e-002) (75, -9.23645049333572387695e-002) (76, -1.98059082031250000000e-002) (77, 5.62744168564677238464e-003) (78, -6.22253417968750000000e-002) (79, 2.62451171875000000000e-003) (80, 6.43310546875000000000e-002) (81, 9.00512710213661193848e-002) (82, -5.83984367549419403076e-002) (83, 1.71325691044330596924e-002) (84, -4.89196777343750000000e-002) (85, -1.39238405227661132812e+001) (86, -2.76004195213317871094e+000) (87, -5.70068368688225746155e-003) (88, 2.90649421513080596924e-002) (89, -4.14062514901161193848e-002) (90, 5.02138473093509674072e-002) (0, -4.94923553466796875000e+001) (1, -1.95252361297607421875e+001) (2, 2.64188498258590698242e-001) (3, 7.45598983764648437500e+000) (4, 3.95867323875427246094e+000) (5, -1.61262422800064086914e-001) (6, -1.39099126681685447693e-002) (7, 1.61132810171693563461e-003) (8, -1.44939136505126953125e+001) (9, -1.73700809478759765625e+001) (10, -1.69481601715087890625e+001) (11, -7.86114931106567382812e-001) (12, 2.13261642456054687500e+001) (13, 1.22212572097778320312e+001) (14, 1.77001953125000000000e-002) (15, 1.29516599699854850769e-002) (16, -2.37357635498046875000e+001) (17, 4.09893363714218139648e-001) (18, 9.91202926635742187500e+000) (19, 8.02515983581542968750e+000) (20, -2.01613211631774902344e+000) (21, -8.39964294433593750000e+000) (22, -1.57526702880859375000e+001) (23, -1.66639499664306640625e+001) (24, -6.59315776824951171875e+000) (25, -1.47183799743652343750e+000) (26, -2.43041999638080596924e-002) (27, 8.45153853297233581543e-002) (28, -7.95410200953483581543e-002) (29, 4.99267578125000000000e-002) (30, 7.60803222656250000000e-002) (31, 7.45483413338661193848e-002) (32, 2.03185811638832092285e-001) (33, 3.41048431396484375000e+001) (34, 2.32708320617675781250e+001) (35, 3.39296493530273437500e+001) (36, 7.19400310516357421875e+000) (37, -4.32408599853515625000e+001) (38, -1.88177604675292968750e+001) (39, 7.58780908584594726562e+000) (40, -6.57091569900512695312e+000) (41, -1.18700685501098632812e+001) (42, -4.78204727172851562500e+000) (43, -2.35427096486091613770e-001) (44, -8.54492187500000000000e-004) (45, 1.11450199037790298462e-002) (46, -6.03393577039241790771e-002) (47, 2.49633789062500000000e-002) (48, -3.65417487919330596924e-002) (49, 4.39209006726741790771e-002) (50, -2.29248050600290298462e-002) (51, -3.32031250000000000000e-002) (52, 8.50524365901947021484e-001) (53, 2.26759185791015625000e+001) (54, -3.09346885681152343750e+001) (55, -2.86790313720703125000e+001) (56, 2.80374908447265625000e+000) (57, 1.53481082916259765625e+001) (58, 3.33518600463867187500e+001) (59, 2.59698963165283203125e+001) (60, 6.08343172073364257812e+000) (61, -7.20642134547233581543e-002) (62, 1.62902828305959701538e-002) (63, -3.14941420219838619232e-003) (64, -5.98754873499274253845e-003) (65, 5.89416511356830596924e-002) (66, -2.39562988281250000000e-002) (67, -5.43762221932411193848e-002) (68, -1.31294612884521484375e+001) (69, 6.51529932022094726562e+000) (70, -3.06371355056762695312e+000) (71, -2.26286888122558593750e+000) (72, 1.98785156011581420898e-001) (73, -8.02917480468750000000e-002) (74, -6.97509795427322387695e-002) (75, 6.49047866463661193848e-002) (76, -7.31689482927322387695e-002) (77, -5.08850105106830596924e-002) (78, -5.91979995369911193848e-002) (79, 4.19921875000000000000e-002) (80, 5.41076660156250000000e-002) (81, -6.26159682869911193848e-002) (82, 2.85827647894620895386e-002) (83, -6.78039565682411193848e-002) (84, -1.11328130587935447693e-002) (85, -5.92428398132324218750e+001) (86, 3.29081459045410156250e+001) (87, -3.54675315320491790771e-002) (88, -8.43505859375000000000e-002) (89, 2.54760738462209701538e-002) (90, -4.08687448501586914062e+000) (0, -3.95327796936035156250e+001) (1, -1.92738628387451171875e+001) (2, -7.96779155731201171875e-001) (3, 1.22999362945556640625e+001) (4, 1.78612384796142578125e+001) (5, 8.07035923004150390625e+000) (6, -4.48791496455669403076e-002) (7, 8.83606001734733581543e-002) (8, 3.53353691101074218750e+000) (9, 2.17414045333862304688e+000) (10, -1.46858081817626953125e+001) (11, -1.56245698928833007812e+001) (12, 1.44321889877319335938e+001) (13, 1.45084238052368164062e+001) (14, 8.40026885271072387695e-002) (15, 8.63037165254354476929e-003) (16, 4.48715829849243164062e+000) (17, -1.63301925659179687500e+001) (18, -2.28149662017822265625e+001) (19, -7.49047100543975830078e-001) (20, 1.13307008743286132812e+001) (21, -6.30967473983764648438e+000) (22, -9.09376907348632812500e+000) (23, -1.28373098373413085938e+000) (24, 1.06095182895660400391e+000) (25, 1.72023987770080566406e+000) (26, 7.83630385994911193848e-002) (27, -2.97180172055959701538e-002) (28, -3.57055664062500000000e-003) (29, -2.14172359555959701538e-002) (30, 5.14099113643169403076e-002) (31, 7.18566924333572387695e-002) (32, -6.34221887588500976562e+000) (33, 7.01065015792846679688e+000) (34, 4.52736377716064453125e+000) (35, -1.28848876953125000000e+001) (36, -4.52880811691284179688e+000) (37, 9.49182319641113281250e+000) (38, -8.01824665069580078125e+000) (39, -9.36051845550537109375e+000) (40, 1.01350231170654296875e+001) (41, 1.50240650177001953125e+001) (42, 6.09319686889648437500e+000) (43, 1.25208765268325805664e-001) (44, 6.94580078125000000000e-002) (45, -8.87756347656250000000e-002) (46, -6.39038113877177238464e-003) (47, 3.89404296875000000000e-002) (48, -2.11181640625000000000e-002) (49, -2.89672855287790298462e-002) (50, -6.05712905526161193848e-002) (51, -4.25964370369911193848e-002) (52, 2.07464256286621093750e+001) (53, -1.45880327224731445312e+001) (54, -2.10652275085449218750e+001) (55, 1.19654245376586914062e+001) (56, 6.93448019027709960938e+000) (57, -7.21078395843505859375e-001) (58, 1.06570692062377929688e+001) (59, -1.59979808330535888672e+000) (60, -7.64418315887451171875e+000) (61, -3.78967300057411193848e-002) (62, 1.12670902162790298462e-002) (63, -1.08642578125000000000e-002) (64, -2.33764648437500000000e-002) (65, 5.93322776257991790771e-002) (66, -4.97741699218750000000e-002) (67, -6.30249008536338806152e-002) (68, -2.84613221883773803711e-001) (69, 5.81471383571624755859e-001) (70, -1.16782636642456054688e+001) (71, -8.15861225128173828125e+000) (72, 1.41043081879615783691e-001) (73, 5.78125007450580596924e-002) (74, -3.57055664062500000000e-002) (75, 7.32543990015983581543e-002) (76, -9.63439941406250000000e-002) (77, -8.68286117911338806152e-002) (78, -3.51989753544330596924e-002) (79, -7.75939971208572387695e-002) (80, -4.70031760632991790771e-002) (81, -7.17285200953483581543e-002) (82, -3.04016117006540298462e-002) (83, -6.06323257088661193848e-002) (84, 6.31469711661338806152e-002) (85, 5.68004083633422851562e+000) (86, 7.78447675704956054688e+000) (87, -1.59912114031612873077e-003) (88, -2.45056152343750000000e-002) (89, -3.98864746093750000000e-002) (90, 7.04479646682739257812e+000) (0, -2.63211650848388671875e+001) (1, -1.59418783187866210938e+001) (2, 1.30496339797973632812e+001) (3, 3.66738662719726562500e+001) (4, 1.67819747924804687500e+001) (5, -2.15677070617675781250e+000) (6, -4.87121604382991790771e-002) (7, -1.65405273437500000000e-002) (8, 9.16541862487792968750e+000) (9, -1.50582704544067382812e+001) (10, -1.23590803146362304688e+001) (11, 1.15419359207153320312e+001) (12, -5.22845447063446044922e-001) (13, -8.51336097717285156250e+000) (14, -9.72167998552322387695e-002) (15, 2.18017585575580596924e-002) (16, 2.34762401580810546875e+001) (17, 3.23228836059570312500e+000) (18, -1.74384212493896484375e+001) (19, -1.14104356765747070312e+001) (20, 6.58384752273559570312e+000) (21, 1.17691392898559570312e+001) (22, 8.98556995391845703125e+000) (23, 6.25040674209594726562e+000) (24, 4.46657329797744750977e-001) (25, -1.54545044898986816406e+000) (26, -4.46533225476741790771e-002) (27, -7.26562514901161193848e-002) (28, 9.02099609375000000000e-002) (29, -8.47045928239822387695e-002) (30, -5.18798828125000000000e-002) (31, 7.80273452401161193848e-002) (32, -4.50552034378051757812e+000) (33, -9.23877620697021484375e+000) (34, -3.21659421920776367188e+000) (35, -7.14593887329101562500e-001) (36, -7.60850906372070312500e+000) (37, -5.74332714080810546875e-001) (38, 3.44812226295471191406e+000) (39, -5.08319997787475585938e+000) (40, -1.43367567062377929688e+001) (41, -1.11111536026000976562e+001) (42, -1.21586525440216064453e+000) (43, 9.50556024909019470215e-002) (44, -2.56896968930959701538e-002) (45, 5.45471198856830596924e-002) (46, 3.22814956307411193848e-002) (47, 9.01733413338661193848e-002) (48, -9.59533676505088806152e-002) (49, -8.27514678239822387695e-002) (50, -3.92456054687500000000e-002) (51, -6.17919936776161193848e-002) (52, 1.43859806060791015625e+001) (53, 3.31668663024902343750e+001) (54, 1.61649799346923828125e+001) (55, -3.73974895477294921875e+000) (56, -1.51019060611724853516e+000) (57, -6.85531520843505859375e+000) (58, -2.71638107299804687500e+000) (59, 8.22857189178466796875e+000) (60, 4.83097410202026367188e+000) (61, 7.15759322047233581543e-002) (62, -9.78393573313951492310e-003) (63, 5.95886223018169403076e-002) (64, 5.51818870007991790771e-002) (65, -8.14941450953483581543e-002) (66, 9.45495590567588806152e-002) (67, 1.94274913519620895386e-002) (68, -1.22527446746826171875e+001) (69, -1.16330280303955078125e+001) (70, 3.23610901832580566406e+000) (71, 3.80401086807250976562e+000) (72, -1.00319355260580778122e-003) (73, 1.98547374457120895386e-002) (74, 6.37084990739822387695e-002) (75, -2.25280765444040298462e-002) (76, 6.39038113877177238464e-003) (77, -9.46044921875000000000e-003) (78, -1.92687995731830596924e-002) (79, 1.61376949399709701538e-002) (80, 9.03259292244911193848e-002) (81, 3.15063484013080596924e-002) (82, -9.81933623552322387695e-002) (83, -4.58068847656250000000e-002) (84, 7.26928710937500000000e-002) (85, 3.69811973571777343750e+001) (86, 6.44918680191040039062e+000) (87, 4.84191887080669403076e-002) (88, 3.51806655526161193848e-002) (89, -2.42248531430959701538e-002) (90, 1.28134775161743164062e+000) (0, 3.33819656372070312500e+001) (1, -6.70974969863891601562e+000) (2, -2.17409744262695312500e+001) (3, -1.83622474670410156250e+001) (4, -1.34795236587524414062e+001) (5, -5.89291429519653320312e+000) (6, 1.91711429506540298462e-002) (7, 2.50061042606830596924e-002) (8, 3.30650758743286132812e+000) (9, -1.93710839748382568359e+000) (10, 3.63487696647644042969e+000) (11, 2.09228777885437011719e+000) (12, -1.81499137878417968750e+001) (13, -1.33061122894287109375e+001) (14, -4.99877939000725746155e-003) (15, -5.65124526619911193848e-002) (16, 2.71283473968505859375e+001) (17, 2.31275768280029296875e+001) (18, 2.97623023986816406250e+001) (19, 3.33656349182128906250e+001) (20, 1.35946531295776367188e+001) (21, -2.55629138946533203125e+001) (22, -3.56530227661132812500e+001) (23, -1.65861511230468750000e+001) (24, -1.79267668724060058594e+000) (25, 1.68546485900878906250e+000) (26, 6.36108443140983581543e-002) (27, -7.50976577401161193848e-002) (28, -4.32373061776161193848e-002) (29, -4.08203117549419403076e-002) (30, -7.77099654078483581543e-002) (31, 2.88391113281250000000e-002) (32, 7.65903139114379882812e+000) (33, -4.90806150436401367188e+000) (34, 5.20652294158935546875e+000) (35, -2.18366336822509765625e+001) (36, -1.65083999633789062500e+001) (37, 1.81650943756103515625e+001) (38, 9.31228446960449218750e+000) (39, -1.47480354309082031250e+001) (40, -1.78314056396484375000e+001) (41, -8.23629951477050781250e+000) (42, -1.18979310989379882812e+000) (43, 5.88805437088012695312e-001) (44, -8.47167987376451492310e-003) (45, 8.45947302877902984619e-003) (46, -3.46679682843387126923e-003) (47, 9.13818404078483581543e-002) (48, 2.61230464093387126923e-003) (49, 6.27380385994911193848e-002) (50, 5.74462898075580596924e-002) (51, -2.15637218207120895386e-002) (52, 9.34796810150146484375e+000) (53, -4.76319427490234375000e+001) (54, -1.82535057067871093750e+001) (55, 1.31422548294067382812e+001) (56, -1.42425289154052734375e+001) (57, -1.37786760330200195312e+001) (58, 7.51171541213989257812e+000) (59, 1.84097790718078613281e+000) (60, -4.78724050521850585938e+000) (61, -7.16186538338661193848e-002) (62, -2.42309570312500000000e-002) (63, -1.17492675781250000000e-002) (64, 5.35400398075580596924e-002) (65, -5.06225600838661193848e-002) (66, 8.70239287614822387695e-002) (67, -2.25830078125000000000e-003) (68, -1.25803976058959960938e+001) (69, -1.09167470932006835938e+001) (70, -1.54799299240112304688e+001) (71, -9.97485637664794921875e+000) (72, -1.58367323875427246094e+000) (73, -4.24072258174419403076e-002) (74, -9.02465805411338806152e-002) (75, 6.32141157984733581543e-002) (76, -2.74719242006540298462e-002) (77, 3.69506850838661193848e-002) (78, 6.21887221932411193848e-002) (79, 4.41589355468750000000e-002) (80, 8.56567397713661193848e-002) (81, 1.75720211118459701538e-002) (82, 9.66552719473838806152e-002) (83, 2.78930668719112873077e-003) (84, 5.06286621093750000000e-002) (85, -5.27595233917236328125e+000) (86, 4.52642536163330078125e+000) (87, 7.27050825953483581543e-002) (88, 8.31420943140983581543e-002) (89, -5.46936057507991790771e-002) (90, -1.29150342941284179688e+001) (0, 1.13776979446411132812e+001) (1, -7.77331495285034179688e+000) (2, 2.02938699722290039062e+000) (3, 1.42175447940826416016e+000) (4, -2.07980084419250488281e+000) (5, -1.47329103201627731323e-002) (6, -1.45568847656250000000e-002) (7, -1.17858890444040298462e-002) (8, -1.75047836303710937500e+001) (9, 1.13730344772338867188e+001) (10, 1.34256629943847656250e+001) (11, 3.91702008247375488281e+000) (12, 1.57998514175415039062e+001) (13, 1.12522373199462890625e+001) (14, 7.45239257812500000000e-002) (15, 1.33666992187500000000e-002) (16, 1.39099597930908203125e+000) (17, 2.46387424468994140625e+001) (18, 3.57627143859863281250e+001) (19, 1.64696769714355468750e+001) (20, -9.94998359680175781250e+000) (21, -9.22628211975097656250e+000) (22, -1.24705762863159179688e+001) (23, -1.50441560745239257812e+001) (24, -3.06953477859497070312e+000) (25, 1.38799476623535156250e+000) (26, -3.59069816768169403076e-002) (27, 3.36914067156612873077e-003) (28, 1.91833507269620895386e-002) (29, 6.56555220484733581543e-002) (30, 6.00341819226741790771e-002) (31, -7.10998550057411193848e-002) (32, -1.51316823959350585938e+001) (33, -1.21307528018951416016e+000) (34, 1.53153953552246093750e+001) (35, 1.55409202575683593750e+001) (36, 1.21744070053100585938e+001) (37, 3.16016502380371093750e+001) (38, 2.02282581329345703125e+001) (39, -1.41972923278808593750e+001) (40, -1.67117843627929687500e+001) (41, -4.77385473251342773438e+000) (42, 8.33519220352172851562e-001) (43, 6.04929506778717041016e-001) (44, 5.88439963757991790771e-002) (45, 4.97924797236919403076e-002) (46, -8.76464843750000000000e-002) (47, 1.56005863100290298462e-002) (48, -5.84411621093750000000e-002) (49, 3.11096198856830596924e-002) (50, -6.33605942130088806152e-002) (51, 6.81030303239822387695e-002) (52, -9.17738628387451171875e+000) (53, -4.17484626770019531250e+001) (54, -1.69685363769531250000e+001) (55, 6.44525957107543945312e+000) (56, 9.65642833709716796875e+000) (57, 5.82838177680969238281e-001) (58, -7.00885200500488281250e+000) (59, 1.53212070465087890625e+000) (60, 4.21167945861816406250e+000) (61, 6.48254379630088806152e-002) (62, -3.73168960213661193848e-002) (63, -6.39038085937500000000e-002) (64, 9.21691879630088806152e-002) (65, 6.32751509547233581543e-002) (66, -7.27905258536338806152e-002) (67, 1.80053710937500000000e-002) (68, -7.98467969894409179688e+000) (69, 6.25321245193481445312e+000) (70, -1.45203864574432373047e+000) (71, -2.64286875724792480469e-001) (72, 6.67310237884521484375e-001) (73, -5.05920425057411193848e-002) (74, 7.78076201677322387695e-002) (75, -3.18786613643169403076e-002) (76, 1.19506837800145149231e-002) (77, 1.22192380949854850769e-002) (78, 8.79333540797233581543e-002) (79, -8.40881392359733581543e-002) (80, -8.74145552515983581543e-002) (81, 4.27612327039241790771e-002) (82, -9.44030806422233581543e-002) (83, 1.51062011718750000000e-002) (84, -8.17688032984733581543e-002) (85, -4.74614410400390625000e+001) (86, -3.15724220275878906250e+001) (87, 1.83715820312500000000e-002) (88, 3.46862785518169403076e-002) (89, 8.56811553239822387695e-002) (90, 8.44704627990722656250e+000) (0, 2.72895317077636718750e+001) (1, 5.53454542160034179688e+000) (2, -6.27190256118774414062e+000) (3, 9.70701053738594055176e-002) (4, 3.12637662887573242188e+000) (5, 2.22290739417076110840e-001) (6, 2.75878910906612873077e-003) (7, 5.34851066768169403076e-002) (8, 9.45300006866455078125e+000) (9, 1.10338659286499023438e+001) (10, 1.57444753646850585938e+001) (11, 6.21219682693481445312e+000) (12, -2.55700244903564453125e+001) (13, -1.96116809844970703125e+001) (14, 6.72546401619911193848e-002) (15, 3.66210937500000000000e-004) (16, -1.10232639312744140625e+000) (17, 1.30915012359619140625e+001) (18, 1.87534904479980468750e+001) (19, -5.58012008666992187500e+000) (20, -1.18409042358398437500e+001) (21, 1.33354978561401367188e+001) (22, 1.17375984191894531250e+001) (23, -7.89499282836914062500e+000) (24, -9.35741901397705078125e+000) (25, -2.69718003273010253906e+000) (26, 1.60217285156250000000e-002) (27, -3.73535160906612873077e-003) (28, -8.62792953848838806152e-002) (29, -9.53247100114822387695e-002) (30, 4.81994636356830596924e-002) (31, -7.06909224390983581543e-002) (32, -1.18606224060058593750e+001) (33, -2.73175525665283203125e+000) (34, -5.07464551925659179688e+000) (35, -1.74496173858642578125e+001) (36, -3.08750438690185546875e+001) (37, -1.33866891860961914062e+001) (38, 1.43083453178405761719e+000) (39, -9.83510494232177734375e+000) (40, -7.94841670989990234375e+000) (41, 2.67583513259887695312e+000) (42, 3.46112561225891113281e+000) (43, 1.48597612977027893066e-001) (44, 2.55187992006540298462e-002) (45, -5.76171875000000000000e-002) (46, 8.61206054687500000000e-002) (47, -4.85168471932411193848e-002) (48, 2.68737804144620895386e-002) (49, 2.56347656250000000000e-003) (50, -7.90039077401161193848e-002) (51, -2.40234378725290298462e-002) (52, -1.41647357940673828125e+001) (53, 2.68462300300598144531e+000) (54, -1.25410633087158203125e+001) (55, -2.53589153289794921875e+001) (56, -1.13322746753692626953e+000) (57, 1.49391736984252929688e+001) (58, 7.77870273590087890625e+000) (59, 1.76036521792411804199e-001) (60, 4.50500756502151489258e-001) (61, -5.98754873499274253845e-003) (62, 6.71325698494911193848e-002) (63, 8.98010283708572387695e-002) (64, -9.93164107203483581543e-002) (65, -8.35327133536338806152e-002) (66, -3.13659682869911193848e-002) (67, 7.91015625000000000000e-002) (68, 2.39246845245361328125e+001) (69, 6.72578620910644531250e+000) (70, 5.78868198394775390625e+000) (71, 8.09184610843658447266e-001) (72, -1.99472643435001373291e-002) (73, -5.55480979382991790771e-002) (74, 1.83959957212209701538e-002) (75, -7.68371596932411193848e-002) (76, 5.43518066406250000000e-002) (77, -5.15624992549419403076e-002) (78, 3.08715831488370895386e-002) (79, -9.33898910880088806152e-002) (80, -4.09851074218750000000e-002) (81, -8.32702666521072387695e-002) (82, -6.26281723380088806152e-002) (83, -2.16247569769620895386e-002) (84, 9.37133803963661193848e-002) (85, -2.52339553833007812500e+001) (86, 1.88608717918395996094e+000) (87, -6.83410689234733581543e-002) (88, -9.60388183593750000000e-002) (89, -4.01000976562500000000e-002) (90, -1.27662551403045654297e+000) (0, 1.40763015747070312500e+001) (1, 1.40563696622848510742e-001) (2, 1.41966371536254882812e+001) (3, 3.00620098114013671875e+001) (4, 9.98520088195800781250e+000) (5, -3.86081147193908691406e+000) (6, 7.15942401438951492310e-003) (7, 2.20275875180959701538e-002) (8, -2.82194757461547851562e+000) (9, -1.54672889709472656250e+001) (10, 8.15403556823730468750e+000) (11, 3.14558238983154296875e+001) (12, -4.67034935951232910156e-001) (13, -1.32142057418823242188e+001) (14, 8.02734419703483581543e-002) (15, -7.56042525172233581543e-002) (16, -3.47093276977539062500e+001) (17, -3.65517997741699218750e+001) (18, -1.80540466308593750000e+001) (19, 1.07533807754516601562e+001) (20, 1.63695507049560546875e+001) (21, 3.67744979858398437500e+001) (22, 2.77798061370849609375e+001) (23, -9.07077884674072265625e+000) (24, -1.22111206054687500000e+001) (25, -3.11154222488403320312e+000) (26, 9.03991684317588806152e-002) (27, 2.77954097837209701538e-002) (28, -9.24072265625000000000e-002) (29, 3.41796869179233908653e-004) (30, 1.36718747671693563461e-003) (31, 3.34167480468750000000e-002) (32, -2.74539260864257812500e+001) (33, -2.27572174072265625000e+001) (34, 2.91530857086181640625e+001) (35, 3.49873886108398437500e+001) (36, -2.26113548278808593750e+001) (37, -3.66457481384277343750e+001) (38, 2.29903469085693359375e+001) (39, 4.13932495117187500000e+001) (40, 1.19509077072143554688e+001) (41, -3.76214313507080078125e+000) (42, -4.11082220077514648438e+000) (43, -5.99050462245941162109e-001) (44, 3.69750969111919403076e-002) (45, 7.14843794703483581543e-002) (46, 6.15783706307411193848e-002) (47, 7.71484375000000000000e-002) (48, -2.71667484194040298462e-002) (49, 5.88745139539241790771e-002) (50, -1.94274913519620895386e-002) (51, 7.86682143807411193848e-002) (52, -3.15726852416992187500e+001) (53, -1.25311756134033203125e+000) (54, -2.29032592773437500000e+001) (55, -3.56148338317871093750e+001) (56, 1.40058193206787109375e+001) (57, 2.88404598236083984375e+001) (58, 1.74051017761230468750e+001) (59, 3.13052806854248046875e+001) (60, 2.06862277984619140625e+001) (61, 8.77990722656250000000e-002) (62, 6.68579116463661193848e-002) (63, 4.39514182507991790771e-002) (64, 8.85070785880088806152e-002) (65, -2.86315921694040298462e-002) (66, -5.89294433593750000000e-002) (67, 7.35107436776161193848e-002) (68, 3.44375038146972656250e+001) (69, 1.45293817520141601562e+001) (70, 1.81531918048858642578e+000) (71, 9.56932306289672851562e-001) (72, -1.44055545330047607422e+000) (73, -6.43615722656250000000e-002) (74, -9.89013686776161193848e-002) (75, 5.75439445674419403076e-002) (76, -5.00488281250000000000e-002) (77, -7.31567367911338806152e-002) (78, -8.42407271265983581543e-002) (79, 4.44641113281250000000e-002) (80, -9.05761718750000000000e-002) (81, 4.91027832031250000000e-002) (82, 6.29943832755088806152e-002) (83, -8.73230025172233581543e-002) (84, 1.91406253725290298462e-002) (85, -5.19115028381347656250e+001) (86, 2.03964157104492187500e+001) (87, -6.41906782984733581543e-002) (88, -8.49914550781250000000e-002) (89, -6.50939941406250000000e-002) (90, 8.52496910095214843750e+000) (0, 4.50747795104980468750e+001) (1, 1.99969959259033203125e+001) (2, 1.79767532348632812500e+001) (3, -3.55657625198364257812e+000) (4, -1.82445735931396484375e+001) (5, -7.19685077667236328125e+000) (6, 2.55981441587209701538e-002) (7, -2.29858402162790298462e-002) (8, 5.63096380233764648438e+000) (9, 6.62934112548828125000e+000) (10, 2.36795539855957031250e+001) (11, 3.01647224426269531250e+001) (12, 4.87420272827148437500e+000) (13, -5.77281713485717773438e+000) (14, 2.32788082212209701538e-002) (15, 3.30078117549419403076e-002) (16, 6.12958145141601562500e+000) (17, -3.78136253356933593750e+000) (18, 7.67817831039428710938e+000) (19, -6.07178926467895507812e+000) (20, -2.62497940063476562500e+001) (21, -9.54512214660644531250e+000) (22, 9.58735275268554687500e+000) (23, 3.61479425430297851562e+000) (24, -4.59811878204345703125e+000) (25, -2.53833270072937011719e+000) (26, -8.93371626734733581543e-002) (27, 5.17944358289241790771e-002) (28, -7.53295943140983581543e-002) (29, -4.84863296151161193848e-002) (30, 3.17443870007991790771e-002) (31, -8.27331542968750000000e-002) (32, -1.67111682891845703125e+001) (33, 4.89318084716796875000e+000) (34, -8.73404502868652343750e+000) (35, 7.05084705352783203125e+000) (36, 3.20507164001464843750e+001) (37, 5.44400978088378906250e+000) (38, -1.93665809631347656250e+001) (39, -9.93561267852783203125e+000) (40, -3.32277345657348632812e+000) (41, -2.67718100547790527344e+000) (42, 4.70766425132751464844e-003) (43, 1.31456077098846435547e-001) (44, -2.84790042787790298462e-002) (45, 7.96508789062500000000e-003) (46, 2.91870124638080596924e-002) (47, -4.88891601562500000000e-002) (48, -3.17993178032338619232e-003) (49, 2.04467773437500000000e-002) (50, -1.83227546513080596924e-002) (51, -4.14245612919330596924e-002) (52, -1.95147056579589843750e+001) (53, 7.10650539398193359375e+000) (54, 2.20744018554687500000e+001) (55, 8.12306404113769531250e+000) (56, -5.97227525711059570312e+000) (57, -5.02381324768066406250e+000) (58, 2.28334770202636718750e+001) (59, 2.91760787963867187500e+001) (60, 8.64174556732177734375e+000) (61, -1.44714359194040298462e-002) (62, 4.73693870007991790771e-002) (63, 7.04834014177322387695e-002) (64, 3.72497551143169403076e-002) (65, -5.74218742549419403076e-002) (66, -3.21472175419330596924e-002) (67, 9.39086899161338806152e-002) (68, -4.08160858154296875000e+001) (69, 3.24311590194702148438e+000) (70, 1.86463356018066406250e+001) (71, 4.29209852218627929688e+000) (72, 1.05385589599609375000e+000) (73, -2.52441409975290298462e-002) (74, -4.02099601924419403076e-002) (75, 1.59484874457120895386e-002) (76, -1.64550784975290298462e-002) (77, 6.30737319588661193848e-002) (78, 5.95092773437500000000e-003) (79, -5.23437522351741790771e-002) (80, -3.27331535518169403076e-002) (81, 6.97021512314677238464e-003) (82, -5.86547842249274253845e-003) (83, 8.24584998190402984619e-003) (84, 5.58044426143169403076e-002) (85, 9.48864555358886718750e+000) (86, -4.58431690931320190430e-001) (87, -7.99743682146072387695e-002) (88, 2.21252441406250000000e-002) (89, 8.35205093026161193848e-002) (90, 3.67414855957031250000e+001) (0, -3.22835707664489746094e+000) (1, 2.30115675926208496094e+000) (2, -6.51827287673950195312e+000) (3, -2.21150074005126953125e+001) (4, -8.60616111755371093750e+000) (5, 3.72435808181762695312e+000) (6, 7.85278305411338806152e-002) (7, 2.20764167606830596924e-002) (8, -2.64534616470336914062e+000) (9, -9.78117275238037109375e+000) (10, -7.13972473144531250000e+000) (11, 6.58205673098564147949e-002) (12, 5.31896591186523437500e+000) (13, 3.23267602920532226562e+000) (14, 4.66918945312500000000e-002) (15, 6.82678222656250000000e-002) (16, -3.68023376464843750000e+001) (17, -2.00355072021484375000e+001) (18, 3.42341566085815429688e+000) (19, -1.07503986358642578125e+001) (20, -2.59948215484619140625e+001) (21, -1.45105209350585937500e+001) (22, -8.93639564514160156250e+000) (23, -1.08329868316650390625e+001) (24, -3.17789959907531738281e+000) (25, 1.08397305011749267578e-002) (26, -5.29785156250000000000e-002) (27, -7.54028335213661193848e-002) (28, 8.41247588396072387695e-002) (29, 6.89270049333572387695e-002) (30, 3.96728515625000000000e-003) (31, -8.28247051686048507690e-003) (32, 1.81132316589355468750e+001) (33, 1.12113618850708007812e+001) (34, -2.14708614349365234375e+000) (35, -1.26064367294311523438e+001) (36, -2.63284301757812500000e+001) (37, -3.02692890167236328125e+001) (38, -1.05195970535278320312e+001) (39, -2.94109654426574707031e+000) (40, -1.04800596237182617188e+001) (41, -7.24394655227661132812e+000) (42, -1.29141533374786376953e+000) (43, -7.52161536365747451782e-003) (44, -5.15686050057411193848e-002) (45, 1.97204593569040298462e-002) (46, 9.51538141816854476929e-003) (47, -6.58569335937500000000e-002) (48, 6.32812529802322387695e-002) (49, -8.83850082755088806152e-002) (50, -7.51098617911338806152e-002) (51, -8.63342285156250000000e-002) (52, 3.52888336181640625000e+001) (53, 1.17740945816040039062e+001) (54, -1.86497650146484375000e+001) (55, -1.54700517654418945312e+001) (56, 7.59105634689331054688e+000) (57, 4.64487886428833007812e+000) (58, -2.19961261749267578125e+001) (59, -2.21286735534667968750e+001) (60, -5.25833225250244140625e+000) (61, 6.54357895255088806152e-002) (62, 5.69335930049419403076e-002) (63, 7.09594711661338806152e-002) (64, -8.28369185328483581543e-002) (65, 5.23010268807411193848e-002) (66, -9.01184082031250000000e-002) (67, -4.68139676377177238464e-003) (68, 3.61971397399902343750e+001) (69, 3.28555183410644531250e+001) (70, -1.77229833602905273438e+000) (71, -6.49821519851684570312e+000) (72, -1.66387856006622314453e+000) (73, 7.63977095484733581543e-002) (74, -8.30566436052322387695e-002) (75, 2.49023432843387126923e-003) (76, 1.71875003725290298462e-002) (77, -1.95190440863370895386e-002) (78, -9.57031250000000000000e-002) (79, 8.42285156250000000000e-002) (80, 1.28723150119185447693e-002) (81, -4.60693351924419403076e-002) (82, 5.27954101562500000000e-002) (83, -1.89636237919330596924e-002) (84, 4.90417480468750000000e-002) (85, -5.46786117553710937500e+001) (86, -1.09339485168457031250e+001) (87, 8.08776840567588806152e-002) (88, -5.72326667606830596924e-002) (89, 3.98681648075580596924e-002) (90, -2.58332157135009765625e+000) (0, 2.02685184478759765625e+001) (1, 1.39167547225952148438e+000) (2, -2.50053381919860839844e+000) (3, -1.10433311462402343750e+001) (4, -1.40982475280761718750e+001) (5, -4.62733268737792968750e+000) (6, 5.23071289062500000000e-002) (7, 2.74169929325580596924e-002) (8, -1.06926374435424804688e+001) (9, -7.35266399383544921875e+000) (10, 8.15821743011474609375e+000) (11, 7.96497392654418945312e+000) (12, -7.86998653411865234375e+000) (13, -6.82315778732299804688e+000) (14, 7.63488784432411193848e-002) (15, -4.80834953486919403076e-002) (16, -2.43492774963378906250e+001) (17, -1.83607063293457031250e+001) (18, -1.37865991592407226562e+001) (19, 2.02286300659179687500e+001) (20, 5.97115783691406250000e+001) (21, 3.04362125396728515625e+001) (22, -7.75915384292602539062e+000) (23, -1.92387390136718750000e+000) (24, 2.74431824684143066406e+000) (25, 1.02996155619621276855e-002) (26, 1.83105476025957614183e-005) (27, 9.15954634547233581543e-002) (28, 5.41442893445491790771e-002) (29, 9.90844741463661193848e-002) (30, -6.68029785156250000000e-002) (31, -7.60498046875000000000e-002) (32, -2.14323711395263671875e+000) (33, 7.13603162765502929688e+000) (34, 1.58119277954101562500e+001) (35, -3.83337783813476562500e+000) (36, -2.23694705963134765625e+001) (37, -1.62914886474609375000e+001) (38, 6.27523183822631835938e+000) (39, 2.55604038238525390625e+001) (40, 1.63649559020996093750e+001) (41, 1.94799196720123291016e+000) (42, -2.96610623598098754883e-001) (43, -1.99241787195205688477e-001) (44, 5.81604018807411193848e-002) (45, 8.03039595484733581543e-002) (46, -4.49951179325580596924e-002) (47, -7.38342329859733581543e-002) (48, 7.09167495369911193848e-002) (49, 2.98583991825580596924e-002) (50, -3.01452632993459701538e-002) (51, 1.02355955168604850769e-002) (52, 2.98878154754638671875e+001) (53, -1.77727069854736328125e+001) (54, -2.46936016082763671875e+001) (55, -1.21460847854614257812e+001) (56, -7.11786270141601562500e+000) (57, -2.60777544975280761719e+000) (58, 2.64737105369567871094e+000) (59, 3.53879475593566894531e+000) (60, 5.11512339115142822266e-001) (61, 7.24243149161338806152e-002) (62, 8.66699218750000000000e-003) (63, -6.08093254268169403076e-002) (64, -8.23669433593750000000e-002) (65, 8.89892596751451492310e-003) (66, -5.45043945312500000000e-002) (67, -6.59118667244911193848e-002) (68, -6.21968650817871093750e+000) (69, 1.35014305114746093750e+001) (70, 1.20223674774169921875e+001) (71, -8.37757945060729980469e-001) (72, -4.44507271051406860352e-001) (73, 2.04772949218750000000e-002) (74, 7.04528838396072387695e-002) (75, 6.21887221932411193848e-002) (76, 